<?xml version="1.0"?>
<opencv_storage>
<opencv_ml_ann_mlp>
  <format>3</format>
  <layer_sizes>
    2500 50 2</layer_sizes>
  <activation_function>SIGMOID_SYM</activation_function>
  <f_param1>1.</f_param1>
  <f_param2>1.</f_param2>
  <min_val>-9.4999999999999996e-01</min_val>
  <max_val>9.4999999999999996e-01</max_val>
  <min_val1>-9.7999999999999998e-01</min_val1>
  <max_val1>9.7999999999999998e-01</max_val1>
  <training_params>
    <train_method>BACKPROP</train_method>
    <dw_scale>1.0000000000000000e-03</dw_scale>
    <moment_scale>1.0000000000000000e-03</moment_scale>
    <term_criteria>
      <epsilon>1.0000000000000000e-04</epsilon>
      <iterations>30000</iterations></term_criteria></training_params>
  <input_scale>
    3.3246205694650728e+00 -1.6041029258241528e+00
    3.4457159266614554e+00 -1.4742643196226404e+00
    3.6145505790461900e+00 -1.3727351054403123e+00
    3.8063768948596488e+00 -1.3070625681411927e+00
    4.0280725917350884e+00 -1.2886359973521446e+00
    4.2114231171752277e+00 -1.3015529430896355e+00
    4.5529929449623241e+00 -1.3428512347756518e+00
    4.7628703357944469e+00 -1.3822988300852936e+00
    4.8873614730353729e+00 -1.4149629258698830e+00
    4.8091918091576167e+00 -1.4686393783069949e+00
    4.7494388089433279e+00 -1.5627378360985889e+00
    4.6855416908942802e+00 -1.6139088912891535e+00
    4.5670268259546436e+00 -1.6372960336386488e+00
    4.4543703115445448e+00 -1.6854877290944970e+00
    4.3607605263242508e+00 -1.7428489005586627e+00
    4.2038358976516728e+00 -1.7590519992302946e+00
    4.1280900022963083e+00 -1.7773578320605032e+00
    4.0988294017424920e+00 -1.8095611798156035e+00
    4.0168248385885068e+00 -1.8048621151150348e+00
    3.9894675596935163e+00 -1.8248583511934409e+00
    4.0014464807234003e+00 -1.8650603457640622e+00
    3.9992587189160766e+00 -1.8854523282119338e+00
    3.9955286996738382e+00 -1.9001959918525075e+00
    3.9807148779713577e+00 -1.9042222083764981e+00
    3.9868576150765032e+00 -1.9078814071573584e+00
    3.9904913618261686e+00 -1.9203304284913449e+00
    4.0222209430337319e+00 -1.9523238459732541e+00
    4.0703500440837690e+00 -1.9864396117380105e+00
    4.0781352402982920e+00 -1.9883107983161834e+00
    4.0712559269748141e+00 -1.9621971339051705e+00
    4.0872973199701601e+00 -1.9581059743403939e+00
    4.1211498654460472e+00 -1.9481904627970617e+00
    4.1543099325614028e+00 -1.9235420814239903e+00
    4.1846255421882601e+00 -1.8701919475929252e+00
    4.2410431657886960e+00 -1.8267567518471306e+00
    4.2743258669072777e+00 -1.7780269321067381e+00
    4.3724511131114348e+00 -1.7389477988704654e+00
    4.5089611495702533e+00 -1.6720339977638379e+00
    4.5577442522339302e+00 -1.5489105817497901e+00
    4.5784278374927148e+00 -1.4305757250083004e+00
    4.7221066732415364e+00 -1.3834702938877395e+00
    4.8777182558020273e+00 -1.3606874392576289e+00
    4.6402853085407294e+00 -1.2874840453499035e+00
    4.4718139946994606e+00 -1.2483270663417285e+00
    4.2612373169815738e+00 -1.2316760188946272e+00
    3.9301345949035325e+00 -1.2281739604278399e+00
    3.7376559569797321e+00 -1.2668320653791347e+00
    3.4995432290915334e+00 -1.3227310588608436e+00
    3.3491141003286073e+00 -1.4204510742156473e+00
    3.2214078177232870e+00 -1.4859869947875253e+00
    3.3513781220557877e+00 -1.5652348782499916e+00
    3.4803578802497026e+00 -1.4340081893111318e+00
    3.6882845992085178e+00 -1.3368814219321785e+00
    3.8302272136015327e+00 -1.2860104333247810e+00
    4.1281754120085248e+00 -1.3001083761756094e+00
    4.3623947929902274e+00 -1.2957969356259216e+00
    4.6329098567737974e+00 -1.3540518902542800e+00
    4.8725244899220606e+00 -1.4208311995075038e+00
    4.8440419606171385e+00 -1.4536168441099351e+00
    4.7933202831657153e+00 -1.5557794659568320e+00
    4.6851732319879220e+00 -1.6233595124444207e+00
    4.5219380978193664e+00 -1.6501207599373571e+00
    4.4019287652834587e+00 -1.6966801006112961e+00
    4.3202140449746809e+00 -1.7692391908742131e+00
    4.2422456069533716e+00 -1.8197234766779447e+00
    4.1286974900260622e+00 -1.8333117377112385e+00
    4.0680536943403256e+00 -1.8576371376952017e+00
    4.0221696138845386e+00 -1.8868009373948389e+00
    4.0015322000272109e+00 -1.9258661646613993e+00
    3.9846398751977223e+00 -1.9468272225296852e+00
    4.0070720907236232e+00 -1.9962363939752559e+00
    4.0246421087769413e+00 -2.0142800442980175e+00
    4.0077687464426965e+00 -2.0255089423510331e+00
    3.9745579439535956e+00 -2.0137540360791677e+00
    3.9865123741710393e+00 -2.0410434521719543e+00
    4.0422566914171663e+00 -2.0813885031349297e+00
    4.1123103044680356e+00 -2.1369603750057644e+00
    4.1215292504874936e+00 -2.1509787279083183e+00
    4.1673064417273462e+00 -2.1766658186059349e+00
    4.1709407658189015e+00 -2.1609314169753300e+00
    4.1384738593392054e+00 -2.1242555611840199e+00
    4.1246194959860132e+00 -2.0857119618659556e+00
    4.1522108163672993e+00 -2.0557804183016501e+00
    4.1637022958666225e+00 -1.9945356810955732e+00
    4.1795865058018595e+00 -1.9388493180112654e+00
    4.2415191092678182e+00 -1.8887767000289049e+00
    4.3401393702622233e+00 -1.8617756425267851e+00
    4.4352157493809363e+00 -1.7843248341659947e+00
    4.5045755106678103e+00 -1.6774862226427882e+00
    4.5447646580762768e+00 -1.5340082590961763e+00
    4.6703784304567373e+00 -1.4431996203424948e+00
    4.8498318116861769e+00 -1.4091557709878872e+00
    4.7406120049140599e+00 -1.3122220429220197e+00
    4.5323643336238586e+00 -1.2577295998920908e+00
    4.3765423654967357e+00 -1.2220967263500131e+00
    4.0229756951629367e+00 -1.2250188233511037e+00
    3.7374044069731278e+00 -1.2266753419874568e+00
    3.6119799537478308e+00 -1.3015886761487234e+00
    3.3750977075605131e+00 -1.3543102465605825e+00
    3.2322681846284698e+00 -1.4493741272475074e+00
    3.3657487412858877e+00 -1.5234565622865661e+00
    3.5842191448099032e+00 -1.4149965582723236e+00
    3.7374566813528172e+00 -1.3107345976418272e+00
    3.9338122928955763e+00 -1.2830432218944734e+00
    4.2364656722890430e+00 -1.2899098945852270e+00
    4.4955718718934401e+00 -1.3181635089388792e+00
    4.7126274874156184e+00 -1.3663409228854033e+00
    4.8445164321662615e+00 -1.4194683179848322e+00
    4.8151687213526158e+00 -1.5016015048494158e+00
    4.6920951476450901e+00 -1.6071617582514197e+00
    4.5263979459504027e+00 -1.6619453662796697e+00
    4.4136957629131786e+00 -1.7180945410055846e+00
    4.3718703570471291e+00 -1.8124628854447429e+00
    4.3693361912108406e+00 -1.9161038032932498e+00
    4.2945263913479987e+00 -1.9609939692978950e+00
    4.1744105649441900e+00 -1.9633836973875773e+00
    4.1468390354625573e+00 -2.0120041996731115e+00
    4.1071962839158704e+00 -2.0516563247705237e+00
    4.1099855480719585e+00 -2.1023740404298268e+00
    4.0665778526194840e+00 -2.1157968650287784e+00
    4.0241241332200799e+00 -2.1010394861819086e+00
    4.0406336177206974e+00 -2.1246058494040692e+00
    4.0215565713300423e+00 -2.1239143975700476e+00
    3.9968520539607262e+00 -2.1280973483704311e+00
    4.0296713144336671e+00 -2.1695558869462883e+00
    4.0516897257815607e+00 -2.1940315322936961e+00
    4.1405772137243684e+00 -2.2528173162364249e+00
    4.1649519000817286e+00 -2.2729136031986474e+00
    4.2420616230376869e+00 -2.3122806185673448e+00
    4.2670345634024081e+00 -2.3228667054785901e+00
    4.2752210513972146e+00 -2.3110332698717260e+00
    4.2529525310321707e+00 -2.2667629106565568e+00
    4.2160847144726699e+00 -2.2030817427817113e+00
    4.2256957361670100e+00 -2.1482237195737399e+00
    4.2381825887721973e+00 -2.0803106517265295e+00
    4.2629372658350464e+00 -2.0126684895129663e+00
    4.3590810053554119e+00 -1.9801055317092575e+00
    4.4040964825685585e+00 -1.9017662538943867e+00
    4.4721098733974856e+00 -1.7988566997152338e+00
    4.5508574600470943e+00 -1.6835831958014391e+00
    4.6757214465317647e+00 -1.5644258672601334e+00
    4.8261117126739110e+00 -1.4848129809239714e+00
    4.8198936807973531e+00 -1.3739144244430426e+00
    4.5904260520723010e+00 -1.2595425040177275e+00
    4.4696626135742621e+00 -1.2216829873973771e+00
    4.2047781947340743e+00 -1.2157078051207806e+00
    3.8179015845050319e+00 -1.2112055874086081e+00
    3.6554869891208348e+00 -1.2711599604606587e+00
    3.3872925843144372e+00 -1.3037615027083371e+00
    3.3124702225906284e+00 -1.4258685726066549e+00
    3.3844079235750364e+00 -1.4902502874784442e+00
    3.6074388797096355e+00 -1.3567402244159827e+00
    3.8049915768582472e+00 -1.2824055136711490e+00
    3.9447622845952601e+00 -1.2557301908563054e+00
    4.3034036752211664e+00 -1.2758207146680820e+00
    4.6004702092833343e+00 -1.3023470574328568e+00
    4.8246883500722539e+00 -1.3780990724454036e+00
    4.8149956222156387e+00 -1.4390751162812168e+00
    4.6876129486983267e+00 -1.5362020955482141e+00
    4.5534105473671111e+00 -1.6538803577287375e+00
    4.4257238165045782e+00 -1.7369935990302203e+00
    4.3737939785563915e+00 -1.8333928399334107e+00
    4.4160021118998660e+00 -1.9592901544587229e+00
    4.4244162283645778e+00 -2.0606668921977462e+00
    4.3789024397719443e+00 -2.1056609043214456e+00
    4.3034718649301791e+00 -2.1409040546999165e+00
    4.2730245002000329e+00 -2.2016387079556945e+00
    4.2009751359887346e+00 -2.2138807207567544e+00
    4.2605321245126007e+00 -2.2923097917222890e+00
    4.1980315522761007e+00 -2.2776555513655961e+00
    4.1838874837092774e+00 -2.2911018046694753e+00
    4.1338154012270349e+00 -2.2732824287767319e+00
    4.1064102751990257e+00 -2.2753431652769573e+00
    4.0855201636061471e+00 -2.2821759054718140e+00
    4.1192272723348440e+00 -2.3156119242422037e+00
    4.1059067315655238e+00 -2.3070960585008935e+00
    4.1595484902432283e+00 -2.3490373331658763e+00
    4.1958400143472128e+00 -2.3681903649910687e+00
    4.2759088241735697e+00 -2.4065441854176255e+00
    4.2800538122179601e+00 -2.3986991950537777e+00
    4.3177084538819051e+00 -2.3981266286897087e+00
    4.3473276148739339e+00 -2.3900932711693361e+00
    4.3481430055932790e+00 -2.3547454125810887e+00
    4.3287076884700451e+00 -2.2868532122742491e+00
    4.3402603943022244e+00 -2.2246929036591938e+00
    4.3512218158535099e+00 -2.1589104674310753e+00
    4.4171941877528180e+00 -2.1040489580440989e+00
    4.4404407835145987e+00 -2.0336120725067097e+00
    4.5359502129694738e+00 -1.9552967934183769e+00
    4.5445943451984459e+00 -1.8223249217967739e+00
    4.6083774476154931e+00 -1.6901870856959438e+00
    4.7726861896083745e+00 -1.5773559472003045e+00
    4.8507061422070956e+00 -1.4506924219065089e+00
    4.6688729231053800e+00 -1.2987271636853530e+00
    4.6329630825019938e+00 -1.2430593093250681e+00
    4.3842914294158586e+00 -1.2134080489515078e+00
    3.9820277683105707e+00 -1.1973217811123644e+00
    3.6408157202014850e+00 -1.2397304799092170e+00
    3.4225440506298344e+00 -1.2850604146323024e+00
    3.3245215092475635e+00 -1.3624482601550707e+00
    3.4413447738249299e+00 -1.4563622529328695e+00
    3.6561642779171404e+00 -1.3195952258923291e+00
    3.8015956183073225e+00 -1.2520260577520643e+00
    4.0526320285934849e+00 -1.2488712329592417e+00
    4.4287420555366124e+00 -1.2747338051386639e+00
    4.7225175226234084e+00 -1.3043238136888990e+00
    4.8227705272475569e+00 -1.3776854091645456e+00
    4.6720661011009419e+00 -1.4538566089501410e+00
    4.5495150573181640e+00 -1.5657266660228051e+00
    4.5609770629721300e+00 -1.7561443417699842e+00
    4.4630248893609989e+00 -1.8545976515239300e+00
    4.4364680544976673e+00 -1.9730592767938759e+00
    4.4600245930087432e+00 -2.1010059952587898e+00
    4.4672289308845192e+00 -2.2023048437704067e+00
    4.4607935453637726e+00 -2.2459051436154165e+00
    4.4156021007974653e+00 -2.2856007504874185e+00
    4.3982770449762052e+00 -2.3488672301261735e+00
    4.3790501453377884e+00 -2.4038191513280767e+00
    4.3460761276446735e+00 -2.4171461389658444e+00
    4.3197233454628403e+00 -2.4257371514145429e+00
    4.2868391712728311e+00 -2.4293282334849216e+00
    4.2184646917468411e+00 -2.3950391897337489e+00
    4.1493736430187393e+00 -2.3669492003218688e+00
    4.1945501947842017e+00 -2.4058438764584036e+00
    4.2083730127778374e+00 -2.4242477325908616e+00
    4.1966589462383883e+00 -2.4190755251299230e+00
    4.2475062903730860e+00 -2.4593718580519317e+00
    4.2897240925563143e+00 -2.4879327511852236e+00
    4.3197288209224158e+00 -2.4871331304658790e+00
    4.3520109178705502e+00 -2.4888952848681405e+00
    4.4080212208984202e+00 -2.5049282416487362e+00
    4.4466535716854496e+00 -2.5075887370198022e+00
    4.4771860062039748e+00 -2.4855823867733298e+00
    4.4513774610896437e+00 -2.4167186369864750e+00
    4.4267904452091571e+00 -2.3435950790826596e+00
    4.4795973672759013e+00 -2.3086342334564280e+00
    4.4925026545739613e+00 -2.2425654824041525e+00
    4.5550867161266950e+00 -2.1925988058081196e+00
    4.6235529915721800e+00 -2.1230667220487707e+00
    4.6055442873916626e+00 -1.9865133512566422e+00
    4.6077069412731113e+00 -1.8316773412160634e+00
    4.6956404201158568e+00 -1.6748503363770608e+00
    4.7984523883016115e+00 -1.5164738562328761e+00
    4.7478779401214375e+00 -1.3654689100690174e+00
    4.6743317763598844e+00 -1.2563689258665713e+00
    4.5473796499881081e+00 -1.2156700214149405e+00
    4.1463548616527817e+00 -1.1961061083796272e+00
    3.7111371735279133e+00 -1.2175895470385762e+00
    3.4730386056240383e+00 -1.2768283565830525e+00
    3.3250821245823285e+00 -1.3177332196964122e+00
    3.4758354832500253e+00 -1.4297280394940293e+00
    3.7413983337004861e+00 -1.3012429029792696e+00
    3.8688969866624658e+00 -1.2310420883761233e+00
    4.1645854418603543e+00 -1.2351288890058025e+00
    4.5419071931535742e+00 -1.2687149841641683e+00
    4.8146826398515890e+00 -1.3255610079687377e+00
    4.7948937222498484e+00 -1.4114631627407539e+00
    4.6548847800119715e+00 -1.5012020389276550e+00
    4.5695010613463563e+00 -1.6669688145634107e+00
    4.5857571611413768e+00 -1.8722465849688039e+00
    4.4619672952545120e+00 -1.9701283748633092e+00
    4.4644978429404523e+00 -2.0995744153883589e+00
    4.5140172369152065e+00 -2.2170850143725422e+00
    4.5508851179299707e+00 -2.3137939022355987e+00
    4.5234689697972659e+00 -2.3761580566542739e+00
    4.5589113932960688e+00 -2.4606457711568508e+00
    4.5349479125151522e+00 -2.5089469820305434e+00
    4.5024457370500883e+00 -2.5327902280136123e+00
    4.4901785105716616e+00 -2.5571727359071481e+00
    4.4354868188189327e+00 -2.5477990469889584e+00
    4.4001374231724846e+00 -2.5403437089083165e+00
    4.3528051827189893e+00 -2.5259709493306457e+00
    4.2863777717932194e+00 -2.4943966240694770e+00
    4.2813000693830681e+00 -2.5115652083397548e+00
    4.2981224155429123e+00 -2.5308776042739605e+00
    4.2994204852563866e+00 -2.5318811104894010e+00
    4.3576482643866870e+00 -2.5767149703140797e+00
    4.3962725801317646e+00 -2.5942350453949756e+00
    4.3883612908931129e+00 -2.5780327388866806e+00
    4.4510418669085485e+00 -2.5964103021488665e+00
    4.5178357677567025e+00 -2.6213626833648824e+00
    4.5197996556825339e+00 -2.5953494382431694e+00
    4.5247778811030139e+00 -2.5575598989889947e+00
    4.4956218169846620e+00 -2.4886278370983241e+00
    4.4840038857070468e+00 -2.4301918170090016e+00
    4.5424184481405838e+00 -2.4159906573969518e+00
    4.5687585384799192e+00 -2.3734546254217821e+00
    4.6819089234997646e+00 -2.3461632231385905e+00
    4.7252025528594697e+00 -2.2936059509361559e+00
    4.6797364884570021e+00 -2.1349387198253265e+00
    4.6648530748221599e+00 -1.9854980619772318e+00
    4.7127239977090483e+00 -1.8089363743668641e+00
    4.7762913447575492e+00 -1.5985399820017687e+00
    4.8218085458540161e+00 -1.4399043608010218e+00
    4.6931983498416026e+00 -1.2774297935657253e+00
    4.5701170085874194e+00 -1.2113893076281828e+00
    4.2347449364006229e+00 -1.1843859690275929e+00
    3.8322154903369157e+00 -1.2024769198914220e+00
    3.5220546705058275e+00 -1.2559595772042316e+00
    3.2995190933249114e+00 -1.2851652858636924e+00
    3.5119820935958854e+00 -1.3921437193401054e+00
    3.7896923838335841e+00 -1.2779869983164591e+00
    3.9450035208518885e+00 -1.2239331543247347e+00
    4.2425542678906778e+00 -1.2248598766494556e+00
    4.7324136578251297e+00 -1.2940266250180357e+00
    4.8271504445162883e+00 -1.3508772230689792e+00
    4.7809984845455888e+00 -1.4630880055323732e+00
    4.6184949246185294e+00 -1.5764925954581981e+00
    4.6200241651553933e+00 -1.7905084161569764e+00
    4.6008962654046641e+00 -1.9653780985747653e+00
    4.5054284522980117e+00 -2.0875591521459662e+00
    4.5561250982391899e+00 -2.2219268508430199e+00
    4.6353329484574370e+00 -2.3579542229991763e+00
    4.6476315341845789e+00 -2.4375022206876835e+00
    4.7180207261270457e+00 -2.5517729082168294e+00
    4.7488377420746390e+00 -2.6454415430585230e+00
    4.6638873658258708e+00 -2.6505228107215264e+00
    4.6475378602171862e+00 -2.6714780722210749e+00
    4.6938177679486301e+00 -2.7283021351568739e+00
    4.6633688557798987e+00 -2.7261675971734012e+00
    4.6603399003892223e+00 -2.7414413846814947e+00
    4.6034024333383083e+00 -2.7279210033397643e+00
    4.4975040788037708e+00 -2.6753615077040869e+00
    4.4770735873468910e+00 -2.6831313416436435e+00
    4.4996437537457421e+00 -2.7044168380815670e+00
    4.4967365672416593e+00 -2.6962286532637019e+00
    4.5013688381671058e+00 -2.6953129135506093e+00
    4.5209963233552930e+00 -2.7046134447419101e+00
    4.5094349897052375e+00 -2.6858449821469739e+00
    4.5120917121718502e+00 -2.6634582186780666e+00
    4.6262927297515253e+00 -2.7191614508870439e+00
    4.6581804561575151e+00 -2.7217093793635527e+00
    4.6645475536133718e+00 -2.6980559365277550e+00
    4.5642400254423903e+00 -2.5862758869679139e+00
    4.5906451074989398e+00 -2.5569977697516091e+00
    4.6061271932952188e+00 -2.5052183386102826e+00
    4.6066276226084923e+00 -2.4560354071910759e+00
    4.7043939073040422e+00 -2.4392718798888886e+00
    4.7851371993282470e+00 -2.4063432151019892e+00
    4.7999915535780140e+00 -2.2916606721673629e+00
    4.7161233365388249e+00 -2.1129099357061869e+00
    4.7495610505265216e+00 -1.9383969550596372e+00
    4.7790188155662623e+00 -1.7072482385368768e+00
    4.8550620068095052e+00 -1.5236294013493596e+00
    4.7166170683692634e+00 -1.3244046320369838e+00
    4.5833870131379095e+00 -1.2228739854636197e+00
    4.2989582032499305e+00 -1.1920029532873291e+00
    3.9083175608011529e+00 -1.1905395766790463e+00
    3.6284253311992956e+00 -1.2512038407462629e+00
    3.2729922282714692e+00 -1.2669134206266821e+00
    3.5293042755901971e+00 -1.3441393582496735e+00
    3.8075589553462414e+00 -1.2640503349144152e+00
    4.0084390452386724e+00 -1.2054303848966981e+00
    4.3323442285246152e+00 -1.2372274499862559e+00
    4.7947513645204713e+00 -1.3062047599134601e+00
    4.8018357529726581e+00 -1.3755113360133933e+00
    4.7325176296293590e+00 -1.5034020123690883e+00
    4.6633328427824745e+00 -1.6818089317762603e+00
    4.7151392607987148e+00 -1.9154311678848228e+00
    4.6659034032918294e+00 -2.0839868340409664e+00
    4.6251779871171470e+00 -2.2126374148133783e+00
    4.6939066493547790e+00 -2.3586376292762345e+00
    4.6807410420573996e+00 -2.4465351431428584e+00
    4.8102691778722972e+00 -2.5954450564648015e+00
    4.8613864522211996e+00 -2.7027309114454301e+00
    4.8246336924976356e+00 -2.7461030182443360e+00
    4.7751589728951434e+00 -2.7564575148731305e+00
    4.7555318651087966e+00 -2.7833519213420521e+00
    4.9161309017554133e+00 -2.9139921544609764e+00
    4.8361017967455489e+00 -2.8882780765679619e+00
    4.8815065555903550e+00 -2.9398333664445113e+00
    4.8008342622914650e+00 -2.8983261084938321e+00
    4.7615578481173069e+00 -2.8990479526612334e+00
    4.7755383641570956e+00 -2.9225685552564014e+00
    4.7178353431256292e+00 -2.8893544882688977e+00
    4.7047381326466242e+00 -2.8792397243835519e+00
    4.7047954476305538e+00 -2.8724050501397915e+00
    4.7320017203519678e+00 -2.8854617736356465e+00
    4.6847025679453029e+00 -2.8332321941828438e+00
    4.6439443669802927e+00 -2.7817816092934260e+00
    4.6912375891069331e+00 -2.7939319190703373e+00
    4.7931480063817240e+00 -2.8485604936198206e+00
    4.8137573770804254e+00 -2.8374460555121508e+00
    4.7215848079013716e+00 -2.7328857521816636e+00
    4.7409000876267928e+00 -2.7084643095280900e+00
    4.6875747655233511e+00 -2.6180931164452450e+00
    4.6889306026750832e+00 -2.5623823742375529e+00
    4.7538056644933633e+00 -2.5308678394797508e+00
    4.7870711827547678e+00 -2.4734866706614866e+00
    4.8503255994794996e+00 -2.4083004462977180e+00
    4.8103287657054814e+00 -2.2471614941807903e+00
    4.7919906343537386e+00 -2.0558047420616017e+00
    4.7711937142284269e+00 -1.8049059882064233e+00
    4.8647470231121881e+00 -1.6043315501069404e+00
    4.7648378927981909e+00 -1.3893634572131541e+00
    4.5688331546107168e+00 -1.2442144980441954e+00
    4.2924351682582058e+00 -1.1867918320309931e+00
    3.9511110820263036e+00 -1.1894542821504337e+00
    3.7022143252082156e+00 -1.2247014262830211e+00
    3.3312596333926940e+00 -1.2683895712052833e+00
    3.5280409784252327e+00 -1.3205010155122434e+00
    3.8371126083562395e+00 -1.2441935651174398e+00
    4.0167776812987404e+00 -1.1820755651686228e+00
    4.4049627529047140e+00 -1.2425291239637350e+00
    4.7400081298382002e+00 -1.3100774122451455e+00
    4.7812597139267252e+00 -1.4001359010983712e+00
    4.7158940375350777e+00 -1.5610784012820622e+00
    4.7276304162987222e+00 -1.7845474453033734e+00
    4.8186876349994581e+00 -2.0513096059188562e+00
    4.7114661821060198e+00 -2.1880047506285365e+00
    4.7181510130950510e+00 -2.3249574494010963e+00
    4.7766969141274371e+00 -2.4748352993791656e+00
    4.8245477265423693e+00 -2.5902005849437795e+00
    4.8859171367678407e+00 -2.7034594280292596e+00
    4.9324536899958078e+00 -2.8141258353663523e+00
    4.9135922003306032e+00 -2.8529721401167900e+00
    4.9185105237874680e+00 -2.8991238866401798e+00
    5.0482276514597997e+00 -3.0332892931063569e+00
    5.0734410818510813e+00 -3.0875252593017359e+00
    5.0941282354778732e+00 -3.1322762785668710e+00
    5.0761967966831207e+00 -3.1284508816902270e+00
    5.0575138375286031e+00 -3.1302291990123985e+00
    5.0954461902002679e+00 -3.1779402020692844e+00
    5.0165769494511459e+00 -3.1316110789463134e+00
    4.9536538629315841e+00 -3.0844091943328285e+00
    4.9335105899055627e+00 -3.0685051926344737e+00
    5.0438917749926437e+00 -3.1466984640161137e+00
    5.0227952442262023e+00 -3.1259236427986532e+00
    4.9847604173067968e+00 -3.0864479333609918e+00
    4.8715305670539655e+00 -2.9864631656785376e+00
    4.8790050084591448e+00 -2.9756436559674047e+00
    4.9533285537259086e+00 -2.9989991865323851e+00
    4.9047450073583372e+00 -2.9375270602178372e+00
    4.9438460704992835e+00 -2.9254700372872322e+00
    4.9437371494880544e+00 -2.8882811453953550e+00
    4.9302816924532484e+00 -2.8357177387985129e+00
    4.9645164468649865e+00 -2.7961047440420317e+00
    4.9273560067573081e+00 -2.7069282411141220e+00
    4.9076900261091359e+00 -2.6102688176424889e+00
    4.9352223336330301e+00 -2.5317122344557639e+00
    4.9468748062591352e+00 -2.3961146686153900e+00
    4.8749716144564328e+00 -2.1820431090263273e+00
    4.8492736802500351e+00 -1.9351914072696523e+00
    4.8769479715578594e+00 -1.6851955173834998e+00
    4.7261198804002538e+00 -1.4295346835799683e+00
    4.6532514470151032e+00 -1.3014351033007794e+00
    4.2416397470019112e+00 -1.1762278231109287e+00
    3.9284448872037205e+00 -1.1708307011489794e+00
    3.7116767911451589e+00 -1.2147212695844689e+00
    3.4049692940021048e+00 -1.2529397529832418e+00
    3.5480914681489608e+00 -1.3125126719708247e+00
    3.9154369766617800e+00 -1.2299514743543416e+00
    4.0516824925763419e+00 -1.1864877597769443e+00
    4.4145837288673659e+00 -1.2467163301968569e+00
    4.6659488404443792e+00 -1.3166009313158871e+00
    4.7442715635753565e+00 -1.4383238783989825e+00
    4.7723625757966506e+00 -1.6486585694833829e+00
    4.7951749570007864e+00 -1.9001990372007305e+00
    4.8292320224310350e+00 -2.1388039144252935e+00
    4.7733775748098024e+00 -2.2797509176049040e+00
    4.8747373019000868e+00 -2.4793304333841908e+00
    4.9482465901911050e+00 -2.6427120090161518e+00
    4.9707669089835944e+00 -2.7322283873789197e+00
    5.0710016955758439e+00 -2.8744140049884694e+00
    5.1350849609841163e+00 -2.9981442607782220e+00
    5.1512539392896128e+00 -3.0740616425172713e+00
    5.1913768263074296e+00 -3.1462301003161044e+00
    5.2207774212487852e+00 -3.2103680961108410e+00
    5.2172205165380952e+00 -3.2402489052992354e+00
    5.3669934131689265e+00 -3.3764816591691709e+00
    5.3739994384596965e+00 -3.4009175447147526e+00
    5.3135490941778851e+00 -3.3665780097623346e+00
    5.2581354714552724e+00 -3.3350517769364592e+00
    5.1817799330305423e+00 -3.2859735937011072e+00
    5.2324244157326980e+00 -3.3249290595512719e+00
    5.2015424340335565e+00 -3.2920680606474666e+00
    5.2819412896071292e+00 -3.3479474172228834e+00
    5.3153816069722470e+00 -3.3797136485911223e+00
    5.2780630160779198e+00 -3.3407917013188126e+00
    5.1449102085528446e+00 -3.2212391368654107e+00
    5.1633944910271588e+00 -3.2117737363832766e+00
    5.1761457353331064e+00 -3.1951598763636033e+00
    5.1666876180803571e+00 -3.1549056718185366e+00
    5.1587828954646611e+00 -3.1114830347059330e+00
    5.2004843510534924e+00 -3.1044528562250866e+00
    5.1603310163530240e+00 -3.0300351781594732e+00
    5.2231453388669031e+00 -3.0258072771354008e+00
    5.1912537163915848e+00 -2.9411330754277820e+00
    5.1537488875265201e+00 -2.8317311011175814e+00
    5.1144319491404868e+00 -2.7192335927951494e+00
    5.1191617297542891e+00 -2.5708287893289832e+00
    5.0859199531925912e+00 -2.3729343579217503e+00
    4.9266979327137488e+00 -2.0530307088683672e+00
    4.8806188257543344e+00 -1.7690632251256388e+00
    4.7577419848415117e+00 -1.5038726346445590e+00
    4.6103856832319341e+00 -1.3272731140630527e+00
    4.2046284825388254e+00 -1.2064846208347959e+00
    3.9377332914641401e+00 -1.1568974581092315e+00
    3.6873301940638230e+00 -1.1940366540101541e+00
    3.4623514700900824e+00 -1.2398213813264263e+00
    3.5723217647455643e+00 -1.3049332947031331e+00
    3.9291550581438077e+00 -1.2220760225492178e+00
    4.1158647754440123e+00 -1.1877112323438608e+00
    4.3739990819418892e+00 -1.2426756507255541e+00
    4.5912348346627461e+00 -1.3271229648516858e+00
    4.7365372548952873e+00 -1.4780684456511712e+00
    4.7703904497812832e+00 -1.7196890315333844e+00
    4.7996802536730563e+00 -1.9878860278934534e+00
    4.8927649096751678e+00 -2.2362746889686638e+00
    4.8988126602878541e+00 -2.4099625365210047e+00
    5.0063811373078515e+00 -2.6241208162025971e+00
    5.1012004380681217e+00 -2.7832792427168624e+00
    5.1830957445134374e+00 -2.9090495859914571e+00
    5.2181307207790866e+00 -3.0126706310103732e+00
    5.3096034744698883e+00 -3.1371038127936695e+00
    5.3774642794789473e+00 -3.2376958224169554e+00
    5.3425410455343121e+00 -3.2737274679125741e+00
    5.3001996334008163e+00 -3.2921531118885130e+00
    5.4049944387510083e+00 -3.3973071603474030e+00
    5.4848155045052556e+00 -3.4854627876003956e+00
    5.4802771240261245e+00 -3.5142822197583707e+00
    5.4103660145725181e+00 -3.4813386352684050e+00
    5.3791782854540946e+00 -3.4623179310885148e+00
    5.3669274254076829e+00 -3.4501785052664409e+00
    5.4621652062023704e+00 -3.5243918656031301e+00
    5.4181246145478674e+00 -3.4815841724266972e+00
    5.3075804033059963e+00 -3.3992578321840732e+00
    5.3902868848380834e+00 -3.4531269845219921e+00
    5.3062884747610992e+00 -3.3834509036805196e+00
    5.2550859949296154e+00 -3.3252251128136430e+00
    5.2558956247523447e+00 -3.2976708825238421e+00
    5.1467047870528422e+00 -3.1939488492684003e+00
    5.0846737237933430e+00 -3.1040481869042327e+00
    5.0821765134613903e+00 -3.0546773217008312e+00
    5.0325926692396514e+00 -2.9826738913061126e+00
    5.0729848045516022e+00 -2.9634388162079448e+00
    5.1471288623892404e+00 -2.9612276481071564e+00
    5.2268202952086442e+00 -2.9630279750883535e+00
    5.3393951159736792e+00 -2.9736816380213673e+00
    5.2906981801767818e+00 -2.8691610106584089e+00
    5.2281219105085537e+00 -2.7078488593854160e+00
    5.2659320683358724e+00 -2.5478002863463942e+00
    5.0594952717585322e+00 -2.2000468075583086e+00
    4.8560643639032088e+00 -1.8557176476848423e+00
    4.6810464478776614e+00 -1.5555969005955079e+00
    4.5906183144699213e+00 -1.3712485983198306e+00
    4.1692333240598893e+00 -1.2323329076230480e+00
    3.9522206274223013e+00 -1.1791808978823672e+00
    3.6498525715491139e+00 -1.1842861190447920e+00
    3.4763508082092449e+00 -1.2440608657909087e+00
    3.5904063535935316e+00 -1.2980086111577909e+00
    3.9647159406069754e+00 -1.2264651749978235e+00
    4.1409029302352209e+00 -1.2013283519697158e+00
    4.4088595149794063e+00 -1.2548481804954099e+00
    4.5038531157283712e+00 -1.3394438620583602e+00
    4.7240554081444497e+00 -1.5407871155652610e+00
    4.7848335443406267e+00 -1.8101323681053554e+00
    4.8949791205368749e+00 -2.1116278010957608e+00
    4.9643163280478229e+00 -2.3287622246691253e+00
    5.0257622597341607e+00 -2.5272086347923448e+00
    5.1512030231500319e+00 -2.7329816243658303e+00
    5.2106049957144576e+00 -2.8327548728145264e+00
    5.2283910276563041e+00 -2.8955007055323003e+00
    5.2081682624588161e+00 -2.9348547616560339e+00
    5.2028737699755663e+00 -2.9885956859423186e+00
    5.1976197713394781e+00 -3.0473044359011019e+00
    5.2401746312633870e+00 -3.1413358537290010e+00
    5.2784198622045064e+00 -3.2337755610728074e+00
    5.3813379976450255e+00 -3.3577425802208025e+00
    5.4158705118726802e+00 -3.4184530846350287e+00
    5.4355629702402837e+00 -3.4767649801835021e+00
    5.3739938210550093e+00 -3.4604755799885241e+00
    5.3951701682242961e+00 -3.4867911797021884e+00
    5.4376012491869501e+00 -3.5164820495805240e+00
    5.4762889601424609e+00 -3.5433290011409833e+00
    5.4126737812039893e+00 -3.4966732836052592e+00
    5.3255495917834645e+00 -3.4183202278283469e+00
    5.2779867597206422e+00 -3.3691481187850068e+00
    5.2475000290972327e+00 -3.3277952829179576e+00
    5.1155435235066600e+00 -3.1946005741736538e+00
    5.0390548671049169e+00 -3.0959601791969584e+00
    4.8927367795900274e+00 -2.9412895395939116e+00
    4.7012531466340297e+00 -2.7464838840970129e+00
    4.6686163358504773e+00 -2.6676881699344417e+00
    4.6821974888163505e+00 -2.6195825377885096e+00
    4.7087948844231367e+00 -2.6022461342831593e+00
    4.8393371764813597e+00 -2.6434990219508046e+00
    4.9886854048482387e+00 -2.7188371640031255e+00
    5.1371637873107519e+00 -2.7898994344985324e+00
    5.2713523964987123e+00 -2.8366782760924183e+00
    5.3354969402787864e+00 -2.7811214398648900e+00
    5.2873783006063331e+00 -2.6100135950627861e+00
    5.1571543195665539e+00 -2.3320149634909462e+00
    4.8892970746220898e+00 -1.9638099730753324e+00
    4.6377996090416218e+00 -1.6239071472477025e+00
    4.5803551622479466e+00 -1.4353181594642936e+00
    4.1870099355539807e+00 -1.2699025417705418e+00
    3.8988853778351764e+00 -1.1880459093366154e+00
    3.6244341097976038e+00 -1.1907559562097358e+00
    3.4748169522326022e+00 -1.2509051837948635e+00
    3.5132039833751962e+00 -1.2972131473483748e+00
    3.8898614667331728e+00 -1.2293282785852937e+00
    4.1636191157285110e+00 -1.2251150307770560e+00
    4.3745024648776685e+00 -1.2737826773256224e+00
    4.5204824525829137e+00 -1.3976344329155899e+00
    4.6935583210737573e+00 -1.6163438310771736e+00
    4.8317187078671733e+00 -1.9109176319851569e+00
    4.9060063764052169e+00 -2.1695315096653021e+00
    4.9966214670608462e+00 -2.3766437179505666e+00
    5.0753839450954992e+00 -2.5625361485923048e+00
    5.1896472906121911e+00 -2.6750753187916883e+00
    5.2114525881049403e+00 -2.6989252695373045e+00
    5.1550527145228946e+00 -2.6761685925627230e+00
    4.9793044853513795e+00 -2.5914404158124316e+00
    4.8519781975029233e+00 -2.5495321673584961e+00
    4.8129027004330318e+00 -2.5897714909988339e+00
    4.8295422485842003e+00 -2.6745497454199265e+00
    4.8846722935273643e+00 -2.7900575947592263e+00
    5.0027298870242420e+00 -2.9400692528244559e+00
    5.1905478849863993e+00 -3.1266719012944280e+00
    5.2560010649487836e+00 -3.2450381499392260e+00
    5.2553605364192473e+00 -3.3009161934598157e+00
    5.2674752246655263e+00 -3.3470554830562107e+00
    5.3447946341443808e+00 -3.4146929443766809e+00
    5.3640719751276649e+00 -3.4423753080205528e+00
    5.3104258646271383e+00 -3.4027787176833413e+00
    5.2222616608281482e+00 -3.3083766718982188e+00
    5.1419565537406431e+00 -3.2182457571103527e+00
    5.0962937931898660e+00 -3.1338913231635717e+00
    4.8559040870756460e+00 -2.8944323386285347e+00
    4.6792460973648353e+00 -2.7072736086174820e+00
    4.5101112369334224e+00 -2.5162797012484641e+00
    4.4432304467417891e+00 -2.4007410066746502e+00
    4.4190883963784620e+00 -2.3178860508014059e+00
    4.4748862388538102e+00 -2.3058951341738370e+00
    4.5907169592943866e+00 -2.3386419690786044e+00
    4.7282694831632623e+00 -2.3951043485532186e+00
    4.8450837712080732e+00 -2.4637767735679401e+00
    4.9721245561167882e+00 -2.5480843279342560e+00
    5.1135658201753671e+00 -2.6454580182811287e+00
    5.2110455174274346e+00 -2.6607421605993316e+00
    5.2707037376119947e+00 -2.5967984027845996e+00
    5.2249828711520436e+00 -2.4215409981558551e+00
    5.0153517540823440e+00 -2.0880212591642566e+00
    4.6236526042976163e+00 -1.7113495292973020e+00
    4.5081406916303424e+00 -1.4888588385591941e+00
    4.2150798158286129e+00 -1.3272431890343130e+00
    3.9293832821786370e+00 -1.2291413256434087e+00
    3.6074565665248022e+00 -1.2019337619787613e+00
    3.4762113200970925e+00 -1.2559028667290351e+00
    3.4824392854387538e+00 -1.3194624659062286e+00
    3.8304083400679456e+00 -1.2495302990220152e+00
    4.1613661392652217e+00 -1.2317436117043838e+00
    4.3059309499092446e+00 -1.2934559829776811e+00
    4.4719265313715049e+00 -1.4463023393567453e+00
    4.6545695200536237e+00 -1.6866099898045857e+00
    4.8443282252210205e+00 -1.9776797601318434e+00
    4.9163437574633786e+00 -2.2067828124428854e+00
    5.1159505421667246e+00 -2.4610064001591545e+00
    5.1487494700330796e+00 -2.5153049450650355e+00
    5.1986418815356634e+00 -2.5345458955760289e+00
    5.1467428795766459e+00 -2.4922804905730809e+00
    5.0243460949907446e+00 -2.4055516743229606e+00
    4.8488364017067322e+00 -2.3021016878565117e+00
    4.8064306674854524e+00 -2.2667959701546030e+00
    4.7899729417500190e+00 -2.2737551798235955e+00
    4.8348878116461558e+00 -2.3469142384324404e+00
    4.8745084503879044e+00 -2.4378644376944498e+00
    4.9063892904877449e+00 -2.5541063386228395e+00
    5.0951039096946937e+00 -2.7861171944140555e+00
    5.2294943903024809e+00 -3.0076684981446808e+00
    5.2411925571295948e+00 -3.1297013111817917e+00
    5.3092884928196389e+00 -3.2577075516050784e+00
    5.3883031678517392e+00 -3.3648610221514685e+00
    5.4214830896374231e+00 -3.4158888962545984e+00
    5.3300143440899683e+00 -3.3446935272338938e+00
    5.2098793362453986e+00 -3.2113463330162859e+00
    5.1024767843620147e+00 -3.0679432787266312e+00
    4.9912613149397540e+00 -2.8936962326958340e+00
    4.8237592149017896e+00 -2.6724204397261104e+00
    4.8050670784665241e+00 -2.5416541034044751e+00
    4.8102975761716653e+00 -2.4187951534509944e+00
    4.8029026592580317e+00 -2.3151581671238723e+00
    4.7522570391391321e+00 -2.2297477606811635e+00
    4.7268575782868636e+00 -2.1942322588827525e+00
    4.7483465262781790e+00 -2.2049999218232181e+00
    4.7971008594187285e+00 -2.2529897987076799e+00
    4.8183023352770098e+00 -2.2863318216766486e+00
    4.8477824963280121e+00 -2.3309940839124152e+00
    4.8916028097287816e+00 -2.3936951810290927e+00
    5.0585686293659675e+00 -2.5083213889257276e+00
    5.2304210925233958e+00 -2.5645139323564923e+00
    5.1805352028307272e+00 -2.4170789336925713e+00
    5.0702186799880558e+00 -2.1766476054555910e+00
    4.6632953057572362e+00 -1.8000800771849317e+00
    4.5190391577089635e+00 -1.5659216232970323e+00
    4.2353253455910753e+00 -1.3816785266063951e+00
    3.9174654777825491e+00 -1.2634385303627733e+00
    3.6148788283564026e+00 -1.2257712510923326e+00
    3.4649829604409352e+00 -1.2710238565989744e+00
    3.4280235710790494e+00 -1.3319762456342559e+00
    3.7663568358533479e+00 -1.2678130807340426e+00
    4.1612669407715730e+00 -1.2554978808026453e+00
    4.2836755820829859e+00 -1.3248359102485818e+00
    4.4752516294866647e+00 -1.5175155302293963e+00
    4.6786546231080228e+00 -1.7611157023049748e+00
    4.9315650659078871e+00 -2.0578706858751463e+00
    5.0799938668513649e+00 -2.3079322544354888e+00
    5.2081775450304155e+00 -2.4583671202131310e+00
    5.1819845884590121e+00 -2.4563804537530713e+00
    5.1609580497900200e+00 -2.4179208214834138e+00
    5.1288777110065995e+00 -2.3673006456482888e+00
    5.0379044746827981e+00 -2.2825050301632501e+00
    4.9335886990641944e+00 -2.1969598920323072e+00
    4.9423461750301785e+00 -2.1475942028340862e+00
    5.1003997035783630e+00 -2.1786814902486844e+00
    5.1325448411785723e+00 -2.1812067656863054e+00
    5.2130621401822532e+00 -2.2716077171767264e+00
    5.2689738391974394e+00 -2.4117408311865840e+00
    5.3058161737482514e+00 -2.5716719051360193e+00
    5.3885884137276099e+00 -2.8016015242042949e+00
    5.3751461109917020e+00 -2.9781196365319609e+00
    5.4253059217156032e+00 -3.1534073754387011e+00
    5.4624530866529915e+00 -3.2910692987977015e+00
    5.4766095682273654e+00 -3.3513867069404109e+00
    5.3927139976345542e+00 -3.2931478677161294e+00
    5.2258848215837856e+00 -3.1125665346410636e+00
    5.1527445904428184e+00 -2.9495541321892849e+00
    5.1775251907753752e+00 -2.8181549742723688e+00
    5.1790120140838445e+00 -2.6384802528454490e+00
    5.2344548025559918e+00 -2.5026533172438716e+00
    5.2429498162032262e+00 -2.3790496707609154e+00
    5.1581714019267775e+00 -2.2346338893881841e+00
    5.1538985642220885e+00 -2.2038991803237118e+00
    5.0354392313772145e+00 -2.1876257297302693e+00
    5.0071649160874161e+00 -2.2304201870295493e+00
    4.9821584106181671e+00 -2.2924442573854371e+00
    5.0066097830805152e+00 -2.3396206960938817e+00
    5.0896315076782352e+00 -2.4014908416549470e+00
    5.0845858449965258e+00 -2.4270396181443390e+00
    5.1331930880194374e+00 -2.4725845101342929e+00
    5.2723717646241788e+00 -2.5632335841413263e+00
    5.1882142584909987e+00 -2.4624358515907558e+00
    5.1001577128636040e+00 -2.2466653419354854e+00
    4.6861947886738387e+00 -1.8968956441347147e+00
    4.5129099430375765e+00 -1.6463869583952153e+00
    4.2872610302615417e+00 -1.4380896844428075e+00
    3.8445397856336028e+00 -1.2849349818392424e+00
    3.5868937214969834e+00 -1.2391768321069447e+00
    3.4667446416257239e+00 -1.3058506099943721e+00
    3.4295071931788628e+00 -1.3806736037113072e+00
    3.7342495703254523e+00 -1.2906555968011413e+00
    4.1554336337898130e+00 -1.2999093976452867e+00
    4.2718949991175821e+00 -1.3719847096293325e+00
    4.4989243974856574e+00 -1.5912967347002394e+00
    4.6889151292416793e+00 -1.8260101024600921e+00
    4.9733069318728642e+00 -2.1378789061498820e+00
    5.1018657981094790e+00 -2.3431265319861510e+00
    5.1411621491650132e+00 -2.4141514647531150e+00
    5.1509534606158098e+00 -2.4188924662430802e+00
    5.1778769667247975e+00 -2.3829324142837551e+00
    5.1814820643874322e+00 -2.3809887719370306e+00
    5.1020129135063517e+00 -2.3379438036029896e+00
    5.1020145835667288e+00 -2.3072941660873041e+00
    5.1213079276509061e+00 -2.2643147414849469e+00
    5.1301416311578292e+00 -2.2261291618208263e+00
    5.2876629611248820e+00 -2.2208773933089772e+00
    5.4721831859524634e+00 -2.2987584366073905e+00
    5.6445685008454376e+00 -2.4204689730351632e+00
    5.6288608327942544e+00 -2.5316176743641248e+00
    5.5413333245849152e+00 -2.6509937322895860e+00
    5.4567165355099876e+00 -2.7932380232026333e+00
    5.4546925422231869e+00 -2.9886649692053595e+00
    5.5139039816208966e+00 -3.1914088473587632e+00
    5.5384252651007815e+00 -3.2890130158719564e+00
    5.4109591191756783e+00 -3.2157999314167269e+00
    5.2579986150163247e+00 -3.0327634622473227e+00
    5.2821276378244999e+00 -2.8989634322349001e+00
    5.4286869325059568e+00 -2.7932335868648974e+00
    5.4689198150614882e+00 -2.6256292299905009e+00
    5.5653803720149124e+00 -2.5047695775546281e+00
    5.4687005512772373e+00 -2.3503017659767194e+00
    5.3317257900688224e+00 -2.2710439471474246e+00
    5.1328441968966363e+00 -2.2172374892918763e+00
    5.1398925832565387e+00 -2.2720313498061850e+00
    5.2184458275635741e+00 -2.3562470717308477e+00
    5.2562208814574669e+00 -2.4121165163671852e+00
    5.3804443419735781e+00 -2.5107245198059309e+00
    5.4691970543791602e+00 -2.5756413313422120e+00
    5.3942591906923205e+00 -2.5681055936124988e+00
    5.1979066299428762e+00 -2.4574223521189000e+00
    5.1999645902606595e+00 -2.4775580097258865e+00
    5.1429674697247059e+00 -2.4435354781057788e+00
    5.1011873357107476e+00 -2.3169223865390833e+00
    4.7265924105175676e+00 -1.9833153601081468e+00
    4.5378980331524641e+00 -1.7339428631962990e+00
    4.3634593966856103e+00 -1.5190494911642161e+00
    3.8657595424294966e+00 -1.3361089337667731e+00
    3.6326191337195537e+00 -1.2840710806221756e+00
    3.4636595448286234e+00 -1.3293979810838708e+00
    3.4222574390012621e+00 -1.4382905010616922e+00
    3.7262862121309248e+00 -1.3380119839713884e+00
    4.1681783317499725e+00 -1.3456881296274030e+00
    4.3578646585626952e+00 -1.4466826713892522e+00
    4.4852276526845873e+00 -1.6512574510509683e+00
    4.7732489148588346e+00 -1.9233718327138674e+00
    4.9300721526995810e+00 -2.1674219097213441e+00
    5.2450701826679333e+00 -2.4274953521854785e+00
    5.2532740560074949e+00 -2.4714716219237407e+00
    5.2256875746522633e+00 -2.4437412242807675e+00
    5.3140127168736591e+00 -2.4633195617034445e+00
    5.4673752990858322e+00 -2.5364638741632239e+00
    5.3496076717111931e+00 -2.4746121435331081e+00
    5.1967533316953363e+00 -2.3803458542429738e+00
    5.0327016390778576e+00 -2.2717494659156836e+00
    5.0192462420152326e+00 -2.2052297987777636e+00
    5.1615588598953765e+00 -2.2075337397768031e+00
    5.3424149005838437e+00 -2.2513031254186497e+00
    5.4992096604078302e+00 -2.3680786490178525e+00
    5.6878743502424420e+00 -2.5377523354254481e+00
    5.7120879625314060e+00 -2.6464182016516724e+00
    5.6544870367284998e+00 -2.7671681817558964e+00
    5.4289791334417039e+00 -2.8540834144230320e+00
    5.4558000096647152e+00 -3.0649139925964164e+00
    5.4350019232769577e+00 -3.1755196554523284e+00
    5.3201484000486898e+00 -3.1161822151153826e+00
    5.1941800915899048e+00 -2.9337620698076226e+00
    5.2277550288693497e+00 -2.7695253294946522e+00
    5.4515871125539279e+00 -2.6896317342342466e+00
    5.5353159859968164e+00 -2.5573607678613097e+00
    5.4809019895258499e+00 -2.4266578620326165e+00
    5.2836414028567820e+00 -2.2879616001803140e+00
    5.2364544182679964e+00 -2.2330118715711333e+00
    5.2002418178119356e+00 -2.2239333267551484e+00
    5.1654633991173506e+00 -2.2450480018784220e+00
    5.1414931408621758e+00 -2.3070583819102617e+00
    5.1372771163586473e+00 -2.3325996962995177e+00
    5.1823350146570508e+00 -2.3710751424932233e+00
    5.4711167681583266e+00 -2.5505250640255257e+00
    5.5454586628129672e+00 -2.6496512939474890e+00
    5.5060566442432863e+00 -2.6626008082252484e+00
    5.2075198563535494e+00 -2.4941204391481366e+00
    5.1250684708442247e+00 -2.4427997703350797e+00
    5.0766436547916705e+00 -2.3401556544242865e+00
    4.8220209237439251e+00 -2.0763994752635275e+00
    4.5468911805859893e+00 -1.7923895372138041e+00
    4.4295886814371830e+00 -1.6205482658784953e+00
    3.8842790553687365e+00 -1.3918802492054281e+00
    3.6808332953338616e+00 -1.3483081030942370e+00
    3.4397521912208622e+00 -1.3593025136154424e+00
    3.4975072115226049e+00 -1.4936997583625489e+00
    3.7232405729620544e+00 -1.3883841145814915e+00
    4.1717817098680321e+00 -1.4141476388145720e+00
    4.4489323155002154e+00 -1.5397105328328107e+00
    4.5843007619800300e+00 -1.7426208890714376e+00
    4.7811566344623779e+00 -1.9819427881724860e+00
    4.9800431178380560e+00 -2.2111364974313541e+00
    5.2127443402686460e+00 -2.4352237998147857e+00
    5.2051073359989957e+00 -2.4364333552667614e+00
    5.3775961181162586e+00 -2.4909242031450223e+00
    5.5978598159086612e+00 -2.5939632129116594e+00
    5.6954739204429714e+00 -2.5786851609699855e+00
    5.5928793173019535e+00 -2.5040016634555986e+00
    5.5309053686628928e+00 -2.4204923055178909e+00
    5.3176195557019330e+00 -2.2221454134813277e+00
    5.4097215720706684e+00 -2.2121858092922455e+00
    5.4559596161929322e+00 -2.2174368606333763e+00
    5.4055814904776120e+00 -2.2455227307192955e+00
    5.4354686398009955e+00 -2.3030635970063891e+00
    5.5571084176541721e+00 -2.4455605992915483e+00
    5.5765147493679921e+00 -2.5129602344787338e+00
    5.5880559716641551e+00 -2.6276531045479938e+00
    5.3724371891141125e+00 -2.7305221143361784e+00
    5.4404478080771943e+00 -3.0372241604098589e+00
    5.3679624099422334e+00 -3.1538927066150877e+00
    5.1801044624386501e+00 -3.0324251117478536e+00
    5.1952503515953374e+00 -2.9170996375093825e+00
    5.2057320953868702e+00 -2.7108755477328357e+00
    5.2801177025599815e+00 -2.5531951447151116e+00
    5.3509082068581941e+00 -2.4438122196450496e+00
    5.3125340702477652e+00 -2.3383720997412585e+00
    5.5072683796929160e+00 -2.3561552083888131e+00
    5.4943854564598631e+00 -2.2887543482487152e+00
    5.4989976602997457e+00 -2.2035756519375616e+00
    5.3573075559884513e+00 -2.1216905876416909e+00
    5.1547327061558823e+00 -2.0940789098424637e+00
    5.3283389146938056e+00 -2.2447046005314513e+00
    5.2486500328354522e+00 -2.2847066053839766e+00
    5.4138034195753431e+00 -2.4630510602536360e+00
    5.4586313522199639e+00 -2.5976892378850249e+00
    5.1944589779826780e+00 -2.5186373304320644e+00
    5.1745554516139869e+00 -2.5135201109716001e+00
    4.9617060554901355e+00 -2.3730079800737500e+00
    4.8544422228550914e+00 -2.2570355982609174e+00
    4.7233044326856319e+00 -2.0716594358743028e+00
    4.5873313763935055e+00 -1.8547083830062630e+00
    4.4368411169484236e+00 -1.7064347317260904e+00
    3.9062812666585645e+00 -1.4645160506248260e+00
    3.6900151430587056e+00 -1.4037042161377808e+00
    3.4205976226943733e+00 -1.3901203020303685e+00
    3.6123024367248897e+00 -1.5458404775231616e+00
    3.7639204184410966e+00 -1.4517605706586814e+00
    4.0936449585994996e+00 -1.4580230955016815e+00
    4.4319361756767064e+00 -1.6180173362971204e+00
    4.6864419896937566e+00 -1.8576324540603726e+00
    4.7052972060658460e+00 -2.0127235406312813e+00
    4.9008411392267464e+00 -2.2111375176914918e+00
    5.0722733226940004e+00 -2.3837076173958254e+00
    5.2360882341996247e+00 -2.4711046626406095e+00
    5.4508589426190985e+00 -2.5116704424675045e+00
    5.6105498805917531e+00 -2.4977130154922351e+00
    5.6947650210232625e+00 -2.4204534566637430e+00
    5.6839841218854783e+00 -2.2905089795069307e+00
    5.5497723265943906e+00 -2.1499870097001796e+00
    5.7662571655736015e+00 -2.0105322464217403e+00
    5.8303948327575625e+00 -1.9182494601582489e+00
    5.7637938275795042e+00 -1.9682343062501366e+00
    5.4973744620868761e+00 -2.1183737205867788e+00
    5.5008046027962028e+00 -2.3025966895606804e+00
    5.5051451701566583e+00 -2.3518018233372433e+00
    5.5135181713947654e+00 -2.4483058213143902e+00
    5.6332789618233834e+00 -2.5941599638444752e+00
    5.2638850172168548e+00 -2.6208160941447796e+00
    5.2693821556953511e+00 -2.9376935380025064e+00
    5.1759426739749479e+00 -3.0605794835702103e+00
    5.0560558026779550e+00 -2.9919392958725872e+00
    5.0321584659956562e+00 -2.8208360305066709e+00
    5.0384603925779787e+00 -2.5769648864469770e+00
    5.2430491636865222e+00 -2.5056687194915601e+00
    5.3847905848055699e+00 -2.4362977500250755e+00
    5.5791853281391353e+00 -2.3953800238658394e+00
    5.7075395366100503e+00 -2.3480204659229087e+00
    5.3841717405042280e+00 -2.0624725736916116e+00
    5.4976647475021121e+00 -1.8864536910520453e+00
    5.6023789260924257e+00 -1.8313882430540345e+00
    5.3539267962636075e+00 -1.8142002676201241e+00
    5.2322358512704046e+00 -1.9496282421807207e+00
    5.5025072246727689e+00 -2.1417005018705004e+00
    5.3531108353287582e+00 -2.2696565811488481e+00
    5.2728833192360058e+00 -2.3872795325609197e+00
    5.2231408678210958e+00 -2.5017473328347992e+00
    5.1390443560787267e+00 -2.5372201568046293e+00
    4.9766663250937722e+00 -2.4355284522826364e+00
    4.8592843780268655e+00 -2.3164549770835987e+00
    4.7241495291149551e+00 -2.1006732524423537e+00
    4.6049224057188596e+00 -1.9231043289893988e+00
    4.3708516433492592e+00 -1.7443291260226792e+00
    3.9932106178102087e+00 -1.5500832692048943e+00
    3.7758190700587821e+00 -1.4616531987999186e+00
    3.4747128691201392e+00 -1.4387370553881447e+00
    3.7517303664227106e+00 -1.6241847347023348e+00
    3.8224225832724961e+00 -1.5148828712392250e+00
    4.0681745702241425e+00 -1.5132184637733075e+00
    4.4432663508678187e+00 -1.6849316776837713e+00
    4.6862545086476164e+00 -1.9224657932325599e+00
    4.7047158022619637e+00 -2.0664505197862364e+00
    4.7640727456191483e+00 -2.1722874433724084e+00
    4.9586490483164338e+00 -2.3663742046432197e+00
    5.2199447649083401e+00 -2.5091450527225958e+00
    5.3602258059342773e+00 -2.5062094578049665e+00
    5.4320928164263798e+00 -2.4027814961467726e+00
    5.6226567707339470e+00 -2.2952732419875366e+00
    5.5535380504205696e+00 -2.1907554242867624e+00
    5.4194212465933260e+00 -2.0345251512870881e+00
    5.9653932019221321e+00 -1.8901611971909369e+00
    6.1977056115746398e+00 -1.8480212919493031e+00
    6.0471533102757835e+00 -1.9552547483862910e+00
    5.4816372464254801e+00 -2.0731277255997096e+00
    5.6285200171166601e+00 -2.3047894505276951e+00
    5.5047855676236583e+00 -2.3449882603177783e+00
    5.4355071600065408e+00 -2.3893254160279893e+00
    5.4799228510818976e+00 -2.5064685349816673e+00
    5.2707865629477677e+00 -2.5957397512743401e+00
    5.1915247650576850e+00 -2.8997746554622448e+00
    5.2115304695788396e+00 -3.1615605351230180e+00
    5.0016832399664404e+00 -3.0221547664061634e+00
    4.9099945564685994e+00 -2.7797357759135117e+00
    5.0766395339268549e+00 -2.6241660185093769e+00
    5.3486223075306905e+00 -2.6101962599707398e+00
    5.5533677237443024e+00 -2.5858569723278721e+00
    5.7923361190693958e+00 -2.4967217352560294e+00
    6.0941677256234366e+00 -2.4954647803761776e+00
    5.7337228617602038e+00 -2.2458876415538240e+00
    5.6321075477662124e+00 -1.9533412570786730e+00
    5.5380328731666086e+00 -1.8400810320852561e+00
    5.3566145724355678e+00 -1.8922087448511289e+00
    5.5374943642450365e+00 -2.1166613181595131e+00
    5.6718359510564138e+00 -2.1931731195797570e+00
    5.6312230619439436e+00 -2.2831865978661763e+00
    5.3865754266892809e+00 -2.3841458986036166e+00
    5.2570505867607658e+00 -2.4866998318886067e+00
    5.0670258571420908e+00 -2.4829907733444250e+00
    5.0422266934923101e+00 -2.5031631314199041e+00
    4.8867659290769376e+00 -2.3972405031558517e+00
    4.7841606717791079e+00 -2.1837755300219994e+00
    4.6329441528735948e+00 -1.9820317298929362e+00
    4.3456197865418229e+00 -1.8189238948283026e+00
    4.0125271830405653e+00 -1.6253777086203929e+00
    3.7650650624054327e+00 -1.5202674924061907e+00
    3.4982532685870993e+00 -1.4711539846993980e+00
    3.7904767169288287e+00 -1.6897694141369617e+00
    3.8650030138995408e+00 -1.5770675101586134e+00
    4.1359018378985004e+00 -1.5954654951540590e+00
    4.4305120544176200e+00 -1.7396122196018990e+00
    4.6664361546130300e+00 -1.9489234426366033e+00
    4.7656314072572687e+00 -2.1471519999238953e+00
    4.7939454311768817e+00 -2.2469078818326444e+00
    4.9578717247893138e+00 -2.4323288356951371e+00
    5.0353138497116348e+00 -2.4848865626126080e+00
    5.0924864788858679e+00 -2.4400171252946814e+00
    5.1820046601968821e+00 -2.3227863344025503e+00
    5.2674200987717965e+00 -2.2363279709928574e+00
    5.2339692059164733e+00 -2.2042937858544494e+00
    5.0173665277127348e+00 -2.1200485399396367e+00
    5.0732196786832029e+00 -1.9580329158591148e+00
    4.9678907865834940e+00 -1.8158260138897897e+00
    5.1317646463611899e+00 -1.9376676633245273e+00
    5.0672245302934202e+00 -2.1651446136666341e+00
    5.4478099696147870e+00 -2.4056427076761655e+00
    5.6721105702598829e+00 -2.5103685285230464e+00
    5.3799586087742366e+00 -2.4785517878252672e+00
    5.4487241459484332e+00 -2.5843366025239409e+00
    5.1521538180434510e+00 -2.5643269035578631e+00
    5.2180181662184140e+00 -2.9615211696602968e+00
    5.1748230433857936e+00 -3.1907452647972905e+00
    4.9342639451702750e+00 -3.0387821731368736e+00
    4.8108038691060946e+00 -2.7401714184714030e+00
    5.1085906935055680e+00 -2.6850117603297403e+00
    5.3911411676267793e+00 -2.6979697934438436e+00
    5.5670391117474498e+00 -2.7118317880210090e+00
    5.8865293929788569e+00 -2.6709176992408623e+00
    5.8536469594877092e+00 -2.5896548591271560e+00
    5.6394501194089397e+00 -2.4271360252245699e+00
    5.3979882937718155e+00 -2.1028960168278932e+00
    5.0102194331777969e+00 -1.9272380381048733e+00
    4.8733209850601922e+00 -1.9833489075241582e+00
    5.2469634941558585e+00 -2.2728087105485417e+00
    5.5039486263512014e+00 -2.4192576452889374e+00
    5.5323737401729121e+00 -2.4666802423039678e+00
    5.2682849942367920e+00 -2.4535513050955431e+00
    5.1445391375201259e+00 -2.5392176014358321e+00
    5.0787902140865278e+00 -2.5877747718150514e+00
    5.0843061229318476e+00 -2.6182304361878388e+00
    5.0141607071949377e+00 -2.5378306658261858e+00
    4.8705190946991159e+00 -2.3167985701412834e+00
    4.6387900657715306e+00 -2.0629102435343092e+00
    4.4666240293935102e+00 -1.9341085614684517e+00
    4.1287823392260226e+00 -1.7575603284475927e+00
    3.8471657065196765e+00 -1.6231284525372724e+00
    3.5704026167497371e+00 -1.5382870237709956e+00
    3.7890904017499794e+00 -1.7451631336264481e+00
    3.9359080944106832e+00 -1.6677939386904941e+00
    4.2501983848945679e+00 -1.7107182446564377e+00
    4.4733281809974974e+00 -1.8393460578724616e+00
    4.6929506758634973e+00 -2.0242796863692227e+00
    4.7243138289857320e+00 -2.1982415433755400e+00
    4.7321230197882231e+00 -2.2945303144931173e+00
    4.9245520750929614e+00 -2.5030230611658482e+00
    5.0690813579244223e+00 -2.6533903776705232e+00
    5.1470327402018192e+00 -2.6295605550248826e+00
    5.0844091961403555e+00 -2.4985089335044006e+00
    5.2299061011430501e+00 -2.4753872081202548e+00
    5.2716049363651365e+00 -2.4921915066956162e+00
    5.2132592809658931e+00 -2.4616357747118083e+00
    5.1509260683879790e+00 -2.4140087424022671e+00
    4.9338246184113537e+00 -2.2020049484634385e+00
    5.1091346746845367e+00 -2.3328234863856303e+00
    5.3698392379688826e+00 -2.5560316670009722e+00
    5.3765057524101980e+00 -2.5676536012210875e+00
    5.4942838917322279e+00 -2.6796000683849392e+00
    5.2862320284280075e+00 -2.6137114531067720e+00
    5.3983099530322285e+00 -2.6785107749670702e+00
    5.4187646213961367e+00 -2.8469803560043081e+00
    5.5437267645726873e+00 -3.2332625935967947e+00
    5.6515472908148121e+00 -3.5710613406960916e+00
    5.1617399630570144e+00 -3.2452710253213195e+00
    4.9895766967215689e+00 -2.9136742690713366e+00
    5.1382642476706195e+00 -2.7618439843100462e+00
    5.3998970200111920e+00 -2.7986952202780699e+00
    5.4563000980358156e+00 -2.7916590801252918e+00
    5.6779443457888803e+00 -2.8070728759895367e+00
    5.5916987903361521e+00 -2.6745444386091868e+00
    5.6062860673882877e+00 -2.6729457433096488e+00
    5.5877943132469392e+00 -2.6353006086071056e+00
    5.2529409822875763e+00 -2.4658362630821000e+00
    5.2370859632563382e+00 -2.4845389711380785e+00
    5.4022354389533378e+00 -2.6470279002950994e+00
    5.4517198432143115e+00 -2.7100151341027257e+00
    5.4162774410070114e+00 -2.7293791740421010e+00
    5.3419238474422617e+00 -2.7497054976208264e+00
    5.2102553792158446e+00 -2.7259107067325954e+00
    5.0282833808071263e+00 -2.6890234513629681e+00
    5.0895545474240631e+00 -2.7385641100939750e+00
    5.1535832108592352e+00 -2.7093759419833323e+00
    4.9080499208938475e+00 -2.4214003065860594e+00
    4.7202556613239048e+00 -2.1882137548977472e+00
    4.4766143588516165e+00 -2.0036756719529505e+00
    4.2319196559312253e+00 -1.8611384575008199e+00
    3.9564277777352257e+00 -1.7114260791458498e+00
    3.6006472168545387e+00 -1.5777054606821910e+00
    3.7771645438140391e+00 -1.7739175045284263e+00
    3.9854998737054705e+00 -1.7402962447193702e+00
    4.2797004717648832e+00 -1.7858570334075254e+00
    4.4576711755878726e+00 -1.8971914042020799e+00
    4.6761716816244521e+00 -2.0910441526198063e+00
    4.7013084667824989e+00 -2.2478152795783823e+00
    4.7906091214524338e+00 -2.4322119083761109e+00
    4.9773646407833256e+00 -2.6286384035904091e+00
    5.1744286446960226e+00 -2.8352502995434192e+00
    5.3272627036687163e+00 -2.9169931996683673e+00
    5.3249930338281208e+00 -2.8892402286864054e+00
    5.2940290404633661e+00 -2.7896170193263599e+00
    5.4147749467435782e+00 -2.8225956070416878e+00
    5.4800504788760795e+00 -2.8534215152515623e+00
    5.4807826135244371e+00 -2.8252974762939873e+00
    5.4681800725695142e+00 -2.7800195526545979e+00
    5.5107702415150452e+00 -2.8077264781699363e+00
    5.5191545545870309e+00 -2.8298812191520804e+00
    5.4426460442042019e+00 -2.8281174122967743e+00
    5.3816055099380380e+00 -2.8350158769527494e+00
    5.3109197324876662e+00 -2.7751791336869447e+00
    5.4395833168000403e+00 -2.8365110044394442e+00
    5.3337307653770365e+00 -2.8902725307514254e+00
    5.8730200588083026e+00 -3.5283041818470933e+00
    5.8730004666006836e+00 -3.7644865380817030e+00
    5.3731337196023476e+00 -3.4224121604003273e+00
    5.0822137124464417e+00 -3.0243802591639692e+00
    5.1295756335174811e+00 -2.8273657503876524e+00
    5.3249300529269430e+00 -2.8659543764093938e+00
    5.4254765521967254e+00 -2.9230124266418125e+00
    5.4667710961089746e+00 -2.9368216597986736e+00
    5.6372942077968444e+00 -2.9505839296892136e+00
    5.7215350206447875e+00 -2.9539385435858256e+00
    5.7403247462250224e+00 -2.9744957937260259e+00
    5.6376661379123538e+00 -2.9449770953171592e+00
    5.5664530461270756e+00 -2.9241103541372366e+00
    5.5821422206035392e+00 -2.9659644254727380e+00
    5.5263964138284960e+00 -2.9723883490267546e+00
    5.5404002682670974e+00 -3.0218335570173140e+00
    5.5241080382501986e+00 -3.0644167128119131e+00
    5.4066143919738137e+00 -3.0342002895374454e+00
    5.2878834602684872e+00 -2.9735246187112967e+00
    5.4527025628800132e+00 -3.0485393667413585e+00
    5.3222821026748104e+00 -2.8808861070649185e+00
    5.0474276921688279e+00 -2.5699697842540790e+00
    4.7629241012851455e+00 -2.2799908954058794e+00
    4.5447046726675140e+00 -2.0811095598730667e+00
    4.3045752708536646e+00 -1.9258949721539147e+00
    3.9849295405741838e+00 -1.7561731205759505e+00
    3.6497266559842272e+00 -1.6255013543985921e+00
    3.7606678256471828e+00 -1.7783551148580250e+00
    3.9863950791324498e+00 -1.7551004746351271e+00
    4.2450059822983714e+00 -1.8480623634590461e+00
    4.4866038113862645e+00 -1.9710236229744513e+00
    4.7062004178540073e+00 -2.1442630911583480e+00
    4.7994042747058234e+00 -2.3643291049797770e+00
    4.8740181006032373e+00 -2.5281725102464807e+00
    5.1043153131042445e+00 -2.7727698531354075e+00
    5.4653661062749528e+00 -3.0968129576849734e+00
    5.7042296355787272e+00 -3.2921283783517956e+00
    5.5444123635322606e+00 -3.2095295003726454e+00
    5.4663270050085533e+00 -3.1368858642665609e+00
    5.4388671984394392e+00 -3.0715873709319221e+00
    5.4594794880047726e+00 -3.0442047104884642e+00
    5.4828646792380091e+00 -3.0275082671177382e+00
    5.4131081084063322e+00 -2.9533094404845595e+00
    5.4299449918460256e+00 -2.9637035555580131e+00
    5.4629998086280684e+00 -3.0217053158607809e+00
    5.4785222475220525e+00 -3.0692982687560981e+00
    5.3539848112163897e+00 -2.9702667532848990e+00
    5.3802843689753219e+00 -2.9546299769219586e+00
    5.4795498622260883e+00 -2.9903972525423037e+00
    5.6759545123411703e+00 -3.2110859987635831e+00
    6.0589687809143626e+00 -3.7284019400096016e+00
    6.1788895099878394e+00 -4.0077288525940196e+00
    5.6831232760900710e+00 -3.6638799942362286e+00
    5.2550149890477940e+00 -3.1839941087816097e+00
    5.0184033914323001e+00 -2.8247799472101165e+00
    5.1845444475243143e+00 -2.8634317737703703e+00
    5.3474536648014634e+00 -2.9772029906029083e+00
    5.3602919594427405e+00 -3.0143910237439782e+00
    5.5075951581084137e+00 -3.0858924811328379e+00
    5.7128996346281458e+00 -3.1644587750722670e+00
    5.6454659666778682e+00 -3.1218462900735688e+00
    5.6317010228740401e+00 -3.1209696846268669e+00
    5.5825467946696126e+00 -3.1123612284216566e+00
    5.5398101033901241e+00 -3.1293650228584937e+00
    5.5056260706619655e+00 -3.1556097518471877e+00
    5.4005540844356323e+00 -3.1301586215286341e+00
    5.4536881496724749e+00 -3.1978894060999608e+00
    5.5904691178085066e+00 -3.3097351581740466e+00
    5.6496907204153528e+00 -3.2988350303014085e+00
    5.5346984150495837e+00 -3.1704256660255989e+00
    5.4616158899322196e+00 -3.0233702653212480e+00
    5.2258049841164054e+00 -2.7341186363578438e+00
    4.8498103761785236e+00 -2.3994793861918802e+00
    4.5852772935292183e+00 -2.1651105427087431e+00
    4.3168203570168737e+00 -1.9929051600045233e+00
    3.9326514133405186e+00 -1.7854708727502149e+00
    3.6489140535792481e+00 -1.6769985759267980e+00
    3.7996572921605836e+00 -1.8349952113222452e+00
    3.9580655151626121e+00 -1.7649197258003508e+00
    4.2292670828619894e+00 -1.8832619764059544e+00
    4.4809691478905327e+00 -2.0170905199594338e+00
    4.7454625837231621e+00 -2.2086100761977994e+00
    4.8544744691564086e+00 -2.4143434090743781e+00
    4.9271480314815701e+00 -2.6016384572554632e+00
    5.2659399544643586e+00 -2.9387769171703280e+00
    5.6161558027228802e+00 -3.2744119233361770e+00
    5.8892147404145501e+00 -3.5222272550144607e+00
    5.8457335237192911e+00 -3.5367868567177876e+00
    5.6958377435456065e+00 -3.4355622299928958e+00
    5.5921858537265772e+00 -3.3402249986118178e+00
    5.5714801184370479e+00 -3.3040715136256527e+00
    5.5801463478407340e+00 -3.2833703927807880e+00
    5.6456427231185637e+00 -3.3160203717360472e+00
    5.7022160412632159e+00 -3.3625710551101955e+00
    5.7006064614234990e+00 -3.3777938217909269e+00
    5.5670841916444234e+00 -3.2759168456744674e+00
    5.5026449598566582e+00 -3.1845861205284578e+00
    5.4044311689232103e+00 -3.0338769200087214e+00
    5.5591787635781493e+00 -3.1325753729024850e+00
    6.0184034794022798e+00 -3.5275161119940219e+00
    6.4593100135305743e+00 -4.0617932990532069e+00
    6.4380301607536108e+00 -4.2186961050269458e+00
    5.8763797869833825e+00 -3.8335800936592084e+00
    5.5446935171949345e+00 -3.4380031858478959e+00
    5.2822414627798970e+00 -3.0659920643360996e+00
    5.1802363745949931e+00 -2.8916684814845537e+00
    5.3004827292974142e+00 -2.9994792961214056e+00
    5.2863777993922803e+00 -3.0428101256303202e+00
    5.3784441987695386e+00 -3.1602755650961050e+00
    5.5572516682928423e+00 -3.2845051674435664e+00
    5.6307984268462530e+00 -3.3226489173619691e+00
    5.6214260433074692e+00 -3.3204016838987447e+00
    5.6203298065487717e+00 -3.3261631164380887e+00
    5.6191705473499711e+00 -3.3567337446214038e+00
    5.6065271945618145e+00 -3.3850452718670589e+00
    5.6258891700441263e+00 -3.4298288917858164e+00
    5.6783840792460287e+00 -3.4707555281967442e+00
    5.6603765866269296e+00 -3.4366068043934868e+00
    5.8068222770415252e+00 -3.4730306379868878e+00
    5.7532523672451168e+00 -3.3593043154473889e+00
    5.5602116615705945e+00 -3.1243427132170964e+00
    5.3075011049746763e+00 -2.8136916650851278e+00
    4.7903862504630563e+00 -2.4139124642192469e+00
    4.6110088698750538e+00 -2.2070773763759424e+00
    4.2173190440807815e+00 -1.9782282919372891e+00
    3.9427605908637382e+00 -1.8294278571951847e+00
    3.6306233965690269e+00 -1.6964115290030137e+00
    3.8445771513480818e+00 -1.9042179370589636e+00
    3.9650303989545357e+00 -1.8129083802460222e+00
    4.2345395234894481e+00 -1.9124031857566910e+00
    4.5087268513953020e+00 -2.0586781489635326e+00
    4.7164981289327130e+00 -2.2123138760106613e+00
    4.8775075291092138e+00 -2.4439766535532459e+00
    5.0562758572461828e+00 -2.6985087729354751e+00
    5.2678316068102422e+00 -2.9677430976468271e+00
    5.6823135336695572e+00 -3.3522569968360640e+00
    5.9866636938431173e+00 -3.6466951002122059e+00
    5.9602586427455977e+00 -3.6776894894233938e+00
    5.8452787202498566e+00 -3.6421022565538741e+00
    5.7937002847792876e+00 -3.6192299449096876e+00
    5.7197926488415201e+00 -3.5616866913996534e+00
    5.6760375648613763e+00 -3.5086296760254161e+00
    5.6691246830265767e+00 -3.4898505900146928e+00
    5.6612608191966274e+00 -3.4854820458823732e+00
    5.6002605599946165e+00 -3.4246401231363390e+00
    5.4179634252638671e+00 -3.2565043557109363e+00
    5.4868975693826041e+00 -3.1932509576148025e+00
    5.5465218723559779e+00 -3.1444947299686303e+00
    5.8138734733551143e+00 -3.3409359854338523e+00
    6.3836210925735690e+00 -3.8500578773723944e+00
    6.6667884520586949e+00 -4.2486292757183639e+00
    6.5965781064417044e+00 -4.3529528945387117e+00
    6.0799186798617928e+00 -4.0029727023317179e+00
    5.6550960981125318e+00 -3.5535647666062493e+00
    5.4373252622143466e+00 -3.2212619152755080e+00
    5.4053335071627275e+00 -3.0849715665419639e+00
    5.1686754437792883e+00 -2.9095813409775584e+00
    5.2141176010968682e+00 -3.0040453997733541e+00
    5.2638660555313352e+00 -3.1228906521761020e+00
    5.3437382803367814e+00 -3.2309888810575527e+00
    5.4392240105966172e+00 -3.3116412144638798e+00
    5.5148903749585445e+00 -3.3850891482242575e+00
    5.5411801356311816e+00 -3.4118599324166730e+00
    5.5214286905008523e+00 -3.4200457714481498e+00
    5.5542402492222172e+00 -3.4599883350617930e+00
    5.5689711711035237e+00 -3.4786130214371562e+00
    5.6269920890624165e+00 -3.5088300255710880e+00
    5.6253148819837850e+00 -3.4585792763944729e+00
    5.8036266458957240e+00 -3.5039670237985825e+00
    5.8789357711417320e+00 -3.4577889307791629e+00
    5.6628639594573036e+00 -3.2144688654177598e+00
    5.2258685622348882e+00 -2.7921444401933684e+00
    4.7815168361122380e+00 -2.4113713992012222e+00
    4.6174917756963829e+00 -2.2419654361993508e+00
    4.1423567233828260e+00 -1.9606925856269417e+00
    3.8760616723772165e+00 -1.8371811080334537e+00
    3.6215026235455912e+00 -1.6978910620760992e+00
    3.8518218999998051e+00 -1.9484081362079966e+00
    4.0214123886326476e+00 -1.8555203806739662e+00
    4.2100672123785507e+00 -1.9060347097553507e+00
    4.6324520383617509e+00 -2.1239964479304367e+00
    4.7292611938121754e+00 -2.2171167019615998e+00
    4.8588893770481727e+00 -2.4227554848295436e+00
    5.1957557914367172e+00 -2.7762721680237381e+00
    5.2265673020293049e+00 -2.9529271032351576e+00
    5.5668319622947298e+00 -3.2929543166232440e+00
    5.9022013282724126e+00 -3.6118256797060138e+00
    6.0237695905729813e+00 -3.7678928023236744e+00
    5.9743539206995724e+00 -3.8020355267766295e+00
    5.8852260533975693e+00 -3.7749418381116913e+00
    5.8197768169791786e+00 -3.7336083932974460e+00
    5.7754151514943759e+00 -3.6952700134004126e+00
    5.7281021724082768e+00 -3.6469158261300834e+00
    5.6076258353720307e+00 -3.5304416539488939e+00
    5.5609270573551086e+00 -3.4534820634253416e+00
    5.4444823245433058e+00 -3.2730494249552455e+00
    5.5674894977196576e+00 -3.2212624234431999e+00
    5.8397048704649679e+00 -3.3122522014104190e+00
    6.1448915382991851e+00 -3.5718305581745908e+00
    6.6314472910204660e+00 -4.0479404127147030e+00
    6.7345808538539087e+00 -4.3326648722664922e+00
    6.6580431717960558e+00 -4.4213816437061988e+00
    6.1851650928114612e+00 -4.0918770154615460e+00
    5.7835772872216156e+00 -3.6733881329064006e+00
    5.5958719937638755e+00 -3.3704411286865268e+00
    5.4797452228925749e+00 -3.1680564746862769e+00
    5.2882842874648430e+00 -2.9786036824669901e+00
    5.1068559484145428e+00 -2.8968679289856634e+00
    4.9862037677846738e+00 -2.9311890489627226e+00
    5.1042624613043852e+00 -3.1029460046478370e+00
    5.2846517699024780e+00 -3.2763226129193561e+00
    5.4006295232030777e+00 -3.3790173576090314e+00
    5.4739873530138485e+00 -3.4472953194846863e+00
    5.4944233751597054e+00 -3.4798780952160167e+00
    5.4911450912645821e+00 -3.4814671467271423e+00
    5.5642269145771692e+00 -3.5230820666911402e+00
    5.5654485482221121e+00 -3.4942908044282261e+00
    5.7314606596688193e+00 -3.5522146252940829e+00
    5.8913383605263396e+00 -3.5725713588542463e+00
    5.8581677694226739e+00 -3.4543721493150574e+00
    5.6512411195967829e+00 -3.2142368823875884e+00
    5.1531358266964453e+00 -2.7479092933202924e+00
    4.8067577041742346e+00 -2.4261059763528485e+00
    4.5657598614985950e+00 -2.2393875630285565e+00
    4.1375138767208162e+00 -1.9713462423349324e+00
    3.8170581745079493e+00 -1.8246611333112588e+00
    3.5982850700464852e+00 -1.6962630025753602e+00
    3.8093127435826011e+00 -1.9451810775371332e+00
    4.0013219339993435e+00 -1.8864250268066036e+00
    4.1820489747600860e+00 -1.9109714190491365e+00
    4.5506184513832864e+00 -2.1016631571720357e+00
    4.7170272938953453e+00 -2.2128244668579660e+00
    4.8452621322073526e+00 -2.4136023374420104e+00
    5.2786923551090279e+00 -2.8083290887216936e+00
    5.3053688776352619e+00 -2.9811438191244704e+00
    5.6164947879707778e+00 -3.2990562753725210e+00
    5.9505023975593927e+00 -3.6161447602271140e+00
    5.9799723036999568e+00 -3.7301025291353027e+00
    5.9400925871490999e+00 -3.7626370948973906e+00
    5.8103626240693362e+00 -3.7232864088647855e+00
    5.7912859063477393e+00 -3.7367527565924403e+00
    5.7160693773669911e+00 -3.6839278472749704e+00
    5.6223785804605022e+00 -3.5932873061428605e+00
    5.5053440759490595e+00 -3.4666597084663087e+00
    5.4425905543164461e+00 -3.3458575273509359e+00
    5.4793959806320487e+00 -3.2322418466184648e+00
    5.7366552052427178e+00 -3.2577917056310493e+00
    6.1300539113999761e+00 -3.4566481691186963e+00
    6.4253856669844112e+00 -3.7384470291748966e+00
    6.5412401532540905e+00 -4.0082495058510483e+00
    6.6133357630123459e+00 -4.2500640064844779e+00
    6.5821441435442560e+00 -4.3480048610954958e+00
    6.2408418840212834e+00 -4.1136098230603659e+00
    5.9621964378854706e+00 -3.8039163713316242e+00
    5.7564372382416940e+00 -3.5009322858953884e+00
    5.6559220607344987e+00 -3.2902823141333801e+00
    5.4286278773453551e+00 -3.0632380164917716e+00
    5.3491293108521383e+00 -3.0319916965390248e+00
    5.0921615993653111e+00 -2.9619656160438024e+00
    4.9369095869324875e+00 -2.9526030251350925e+00
    5.1033096542345033e+00 -3.1390572496717968e+00
    5.2423288857816503e+00 -3.2866072601020515e+00
    5.3455511546919361e+00 -3.3836575220239675e+00
    5.4104523494162420e+00 -3.4409907244410021e+00
    5.4763028945242214e+00 -3.4833279086181048e+00
    5.5240650979061101e+00 -3.4938888085459658e+00
    5.5903396587158642e+00 -3.5081307590773836e+00
    5.7169854695006652e+00 -3.5247193126080765e+00
    5.8450945077108640e+00 -3.5177863207077200e+00
    5.7901093367465242e+00 -3.4049001051671723e+00
    5.5658358748074912e+00 -3.1422864290842010e+00
    5.1410440652758087e+00 -2.7229447390011030e+00
    4.7208015247908479e+00 -2.3693291257855500e+00
    4.4673740769699481e+00 -2.1764083589554426e+00
    4.0707971882017180e+00 -1.9593719961784413e+00
    3.7654678359049352e+00 -1.8100009538619972e+00
    3.5905694389642635e+00 -1.7343185338332654e+00
    3.7529508551108943e+00 -1.9536116954580953e+00
    3.9693022472589528e+00 -1.9143287256870956e+00
    4.1246216021141828e+00 -1.9099677694585580e+00
    4.4655338002307507e+00 -2.0703783231555484e+00
    4.6661970787112015e+00 -2.1942353369694421e+00
    4.8003550484114816e+00 -2.3645972158982125e+00
    5.1649776310519480e+00 -2.6927412360771976e+00
    5.3237463987393623e+00 -2.9562304144006268e+00
    5.6123752786157333e+00 -3.2670566285578411e+00
    5.8835273116469793e+00 -3.5513074351871761e+00
    6.0498178616021647e+00 -3.7416161168737370e+00
    6.0627325287089411e+00 -3.8298665532880078e+00
    5.9269313482070354e+00 -3.7881756034053060e+00
    5.8465197834928118e+00 -3.7519845777847456e+00
    5.7271301061881319e+00 -3.6622255510831412e+00
    5.5614020787830976e+00 -3.5078365861767757e+00
    5.4019772000917188e+00 -3.3333604297452499e+00
    5.4067545313871506e+00 -3.2340529338114923e+00
    5.5881673444010591e+00 -3.2150420301699634e+00
    5.9769596857985618e+00 -3.3708192677578586e+00
    6.2165407757842512e+00 -3.5210641052372371e+00
    6.3283974225989716e+00 -3.6712803517460855e+00
    6.2361770277490605e+00 -3.7736201128324005e+00
    6.2839094949850871e+00 -3.9681872683655319e+00
    6.1749205956646076e+00 -3.9998305972403672e+00
    5.9697387800331851e+00 -3.8924923991197025e+00
    5.8145192712607185e+00 -3.6632848151525921e+00
    5.8104711476478359e+00 -3.5082610332796378e+00
    5.8025774400983137e+00 -3.3667216212614770e+00
    5.6342087285418323e+00 -3.1841782132742376e+00
    5.5902056854668984e+00 -3.1298468026851536e+00
    5.2540166767888428e+00 -2.9818062372630987e+00
    5.0201396269253875e+00 -2.9341045869853630e+00
    4.9596371755371358e+00 -2.9757135158842964e+00
    5.0789962427432300e+00 -3.1193698067850399e+00
    5.2055839914067450e+00 -3.2441699465520100e+00
    5.3062189713858778e+00 -3.3355908385529296e+00
    5.3481829238459619e+00 -3.3585490110423515e+00
    5.4981761421935857e+00 -3.4446369988280461e+00
    5.5620496377602127e+00 -3.4502345001704469e+00
    5.6558764181658212e+00 -3.4422903890581291e+00
    5.7519582660574775e+00 -3.4230992562721694e+00
    5.7604290879064477e+00 -3.3505175936836129e+00
    5.4430835452364539e+00 -3.0374088222353048e+00
    5.0040499123127065e+00 -2.6265174583208450e+00
    4.7171110406797947e+00 -2.3468137143297576e+00
    4.3113030545678077e+00 -2.0952778179040892e+00
    3.9899265742387806e+00 -1.9136778655718014e+00
    3.7376469869283651e+00 -1.7935612847899509e+00
    3.5565805462344100e+00 -1.7308594051809538e+00
    3.6777982715758797e+00 -1.9474277931292594e+00
    3.9125785576796592e+00 -1.9252216289272035e+00
    4.0883441431026695e+00 -1.9318294135809095e+00
    4.3114211213777089e+00 -2.0159537185970704e+00
    4.6395267522094343e+00 -2.1818229001932932e+00
    4.7874695293693739e+00 -2.3202351524515623e+00
    5.0937934676323424e+00 -2.6108614954019607e+00
    5.2847541173604551e+00 -2.8796068949644820e+00
    5.5704570343518185e+00 -3.1896697430007510e+00
    5.8415595692597870e+00 -3.4821903201420010e+00
    6.0359421924135219e+00 -3.6907299851115636e+00
    5.9837251614675564e+00 -3.7312784681490720e+00
    5.8875873194456139e+00 -3.7152143619199980e+00
    5.7432491821644813e+00 -3.6380302963255082e+00
    5.5401303516547271e+00 -3.4823238278671393e+00
    5.3520255123613136e+00 -3.2977737760380399e+00
    5.3256519970988876e+00 -3.1972428886610191e+00
    5.3006857501392810e+00 -3.0494240226398541e+00
    5.8042722229352455e+00 -3.2559943051484979e+00
    6.0670703421230812e+00 -3.3877219966027226e+00
    5.8679557267542863e+00 -3.2709101670182439e+00
    5.5249751625504784e+00 -3.1062332576824900e+00
    5.4901132323573574e+00 -3.1702332698866371e+00
    5.5902366143304310e+00 -3.3701564590358104e+00
    5.6346489918484126e+00 -3.5014593248801145e+00
    5.3990924537297253e+00 -3.3579338794409010e+00
    5.2697686176807190e+00 -3.1772507558433070e+00
    5.2526094147330129e+00 -3.0472586889101594e+00
    5.3233504843531225e+00 -3.0043508294507308e+00
    5.3423628344841738e+00 -2.9645620700077342e+00
    5.4751174075473434e+00 -3.0145506235975041e+00
    5.3546508463673144e+00 -2.9619985125323574e+00
    5.0637699014267188e+00 -2.8701035320282084e+00
    4.9514715869768500e+00 -2.8743462928002503e+00
    4.9996455001065154e+00 -2.9825449261669652e+00
    5.0936336014801720e+00 -3.0951387464171796e+00
    5.2038701837635930e+00 -3.1975110258609432e+00
    5.2715115613180670e+00 -3.2417122350345067e+00
    5.3478984549053257e+00 -3.2844472452913198e+00
    5.4714995475785857e+00 -3.3261940844974873e+00
    5.5614625357782339e+00 -3.3243487608069788e+00
    5.6809336332287321e+00 -3.3265577369648445e+00
    5.6106104379341897e+00 -3.2117255054836051e+00
    5.3306427049136014e+00 -2.9284807629002558e+00
    4.9296690092981592e+00 -2.5701325420040209e+00
    4.6065637302776263e+00 -2.2722128338279886e+00
    4.1917850618748256e+00 -2.0310718328345754e+00
    3.8861061140001314e+00 -1.8478865267398654e+00
    3.6473948361198265e+00 -1.7562377046819386e+00
    3.5157984876182882e+00 -1.7401516738659564e+00
    3.5695959001076147e+00 -1.8919703158106596e+00
    3.8705601144175765e+00 -1.9388326135589002e+00
    4.0327702007816466e+00 -1.9088222307892952e+00
    4.2290688008613602e+00 -1.9627444039712347e+00
    4.4990507507974797e+00 -2.1225184980058702e+00
    4.6250621592555019e+00 -2.2210075818121058e+00
    4.9833203080693842e+00 -2.4910365955039731e+00
    5.2115947736451291e+00 -2.7771257254965094e+00
    5.4288348980170413e+00 -3.0203227611460099e+00
    5.6981161739461088e+00 -3.3038140584700177e+00
    5.9998439836889457e+00 -3.5924808338109036e+00
    6.0085381990535147e+00 -3.6798225078157021e+00
    5.8853304301811900e+00 -3.6449602355537070e+00
    5.6397421650686530e+00 -3.4863506114929916e+00
    5.3919670373148696e+00 -3.2868431185097546e+00
    5.2410958490188548e+00 -3.1214076622763773e+00
    5.2574555821425735e+00 -3.0486810307798202e+00
    5.2518675166050315e+00 -2.9324571926455825e+00
    5.6922570197757176e+00 -3.0880357463167276e+00
    5.6765043410117855e+00 -3.0646494179747168e+00
    5.2622375639395313e+00 -2.8066000285773685e+00
    5.0246585743078720e+00 -2.6261546103101172e+00
    4.9812897699104246e+00 -2.6502457996061377e+00
    4.9982303661601710e+00 -2.8100885338307178e+00
    5.0695232833497528e+00 -2.9425937100422410e+00
    4.9332386873941223e+00 -2.8689072531177175e+00
    4.7526573384289748e+00 -2.6598624138889289e+00
    4.6092254517448508e+00 -2.4446651210771444e+00
    4.7224052887875674e+00 -2.4840076475335287e+00
    5.0156317015730751e+00 -2.6624489418456210e+00
    5.2036647843775086e+00 -2.7675451333655241e+00
    5.2636779608672200e+00 -2.8124189329574425e+00
    5.1146344045726604e+00 -2.8144360224612304e+00
    5.0052291632903634e+00 -2.8344869783467912e+00
    5.0416546108218654e+00 -2.9255760727378486e+00
    5.0432851145215762e+00 -2.9738622039753837e+00
    5.1551623387252725e+00 -3.0758205127392175e+00
    5.2933014050391858e+00 -3.1884947477170704e+00
    5.3680373151418141e+00 -3.2271677677895632e+00
    5.3881553804764586e+00 -3.2005989430576385e+00
    5.4969485757427607e+00 -3.2182873718266709e+00
    5.5931442234905866e+00 -3.2186831758509826e+00
    5.3962449815631226e+00 -3.0403876215003431e+00
    5.1209250925668188e+00 -2.7651287874459722e+00
    4.8383034285562934e+00 -2.4937684339603288e+00
    4.4671898652938067e+00 -2.1801701713047210e+00
    4.0514585923210538e+00 -1.9530499303537936e+00
    3.7457348277951055e+00 -1.7810863371846375e+00
    3.6167276242015571e+00 -1.7457463879167709e+00
    3.5124631715135868e+00 -1.7510052383829202e+00
    3.5687185790329994e+00 -1.9114059746590006e+00
    3.7417435702518844e+00 -1.9206681398486778e+00
    3.9740115236402498e+00 -1.9071498401168823e+00
    4.1913713438589566e+00 -1.9455984272889082e+00
    4.4038467013691802e+00 -2.0495556333786245e+00
    4.5981968654898333e+00 -2.1881561060207644e+00
    4.9133350997609995e+00 -2.4192932615061307e+00
    5.1087658657966948e+00 -2.6487293540242796e+00
    5.3381919748681961e+00 -2.8969956011548352e+00
    5.5763494730953163e+00 -3.1402348017707276e+00
    5.7656338434088861e+00 -3.3486540250386376e+00
    5.8423763390983909e+00 -3.4630157531059513e+00
    5.6973785560212376e+00 -3.4111382244780777e+00
    5.4902136191631747e+00 -3.2750412528221493e+00
    5.2932295076401896e+00 -3.1126340662718142e+00
    5.2362790467802851e+00 -3.0264981000954179e+00
    5.2804013533626799e+00 -2.9936962192273082e+00
    5.3842585430310246e+00 -2.9574114339696176e+00
    5.5458796742056009e+00 -2.9291130717474250e+00
    5.5174039425458243e+00 -2.8308250505957782e+00
    5.1333566772226140e+00 -2.5252032891607334e+00
    4.9157770639305642e+00 -2.3325161729454655e+00
    4.9911973586916831e+00 -2.4407657439372508e+00
    4.9624087099985354e+00 -2.5642218503289640e+00
    4.9704995379230006e+00 -2.6481683892932826e+00
    4.9061445564824746e+00 -2.6192714003888740e+00
    4.8174289498872298e+00 -2.4757070911676302e+00
    4.6156839541611543e+00 -2.2601511906844896e+00
    4.6561825701560027e+00 -2.2525927441452653e+00
    4.9668360781429461e+00 -2.4470181867006318e+00
    5.1228110508262628e+00 -2.5941044528204711e+00
    5.1631643739281534e+00 -2.7076637732667730e+00
    5.2467490799713357e+00 -2.8590442779766083e+00
    5.1805434514397799e+00 -2.9001247204607643e+00
    5.1185392788668329e+00 -2.9131757560740144e+00
    5.0401691274417413e+00 -2.8904400811497020e+00
    5.1043112534908692e+00 -2.9512872398244610e+00
    5.2554243843781636e+00 -3.0653355179650106e+00
    5.3365273352921525e+00 -3.1228074353701212e+00
    5.4018991821910376e+00 -3.1313138360730637e+00
    5.4427892950288559e+00 -3.1065756618645306e+00
    5.5105155445454672e+00 -3.1001728419528178e+00
    5.2982608982734138e+00 -2.9084808809423688e+00
    5.0368906231582811e+00 -2.6742941811105436e+00
    4.6973240811196249e+00 -2.3886393971302651e+00
    4.3380040246018412e+00 -2.1133217277063849e+00
    3.8725699618921419e+00 -1.8689149769734321e+00
    3.7003515845679114e+00 -1.7533832172602213e+00
    3.5642706350821709e+00 -1.7430776303406907e+00
    3.4657843838138316e+00 -1.7503392914653151e+00
    3.5339668246733393e+00 -1.9100425814705355e+00
    3.6053216606860872e+00 -1.8780162176772603e+00
    3.8582689669573194e+00 -1.9073510082386103e+00
    4.0211726149942564e+00 -1.8960073178441841e+00
    4.2344812296875576e+00 -1.9658452159797251e+00
    4.4248608090643939e+00 -2.1078854111133087e+00
    4.7525221437449199e+00 -2.3312539998364241e+00
    4.9981183785240040e+00 -2.5299891383819824e+00
    5.2257430350952889e+00 -2.7620644178231943e+00
    5.4754325575004898e+00 -3.0050540071706746e+00
    5.6428070116831401e+00 -3.1854279070124112e+00
    5.7223196462006021e+00 -3.2913485785695862e+00
    5.5733987248541688e+00 -3.2257664855631898e+00
    5.4229734754838903e+00 -3.1298047249294147e+00
    5.3466419649713322e+00 -3.0648580308929265e+00
    5.3687226446009531e+00 -3.0575067613157407e+00
    5.4494510176216471e+00 -3.0575582335159823e+00
    5.4642201635802410e+00 -3.0001161534765783e+00
    5.3515499907237070e+00 -2.8089871405560953e+00
    5.3842320836617832e+00 -2.7109097094322996e+00
    5.3443584511754834e+00 -2.5587668844922185e+00
    5.2068204285590580e+00 -2.3653346114412139e+00
    5.1178522460051878e+00 -2.3563757318006462e+00
    5.1079900940186196e+00 -2.4730884802061870e+00
    5.1122947145362998e+00 -2.5289899831736142e+00
    5.0669295455950820e+00 -2.4960495372265985e+00
    5.0450730731900828e+00 -2.4234733520456286e+00
    5.0910207799614451e+00 -2.3698628659238490e+00
    5.0563293120170725e+00 -2.3367681902468274e+00
    5.0283706380730910e+00 -2.3957309917674086e+00
    5.1247400026570480e+00 -2.5531768199251226e+00
    5.2371711869382906e+00 -2.7575444802899391e+00
    5.3186758736375079e+00 -2.9086672099878808e+00
    5.3007444452618868e+00 -2.9564312238473063e+00
    5.2671925675084132e+00 -2.9704594519305068e+00
    5.1358981917783346e+00 -2.8939155965769032e+00
    5.1531138339961302e+00 -2.9069841095329916e+00
    5.2240232506390365e+00 -2.9641302812200592e+00
    5.2868228903618872e+00 -2.9976309435097832e+00
    5.4135226900462294e+00 -3.0593067300553995e+00
    5.4601628353218681e+00 -3.0462562138791291e+00
    5.4758596038157457e+00 -3.0191474467062305e+00
    5.2286063071689597e+00 -2.8054589999748178e+00
    4.8674816591109140e+00 -2.5216006667454738e+00
    4.5859236199715712e+00 -2.2825669160460280e+00
    4.1256608540183448e+00 -2.0173914715392245e+00
    3.7333316207963616e+00 -1.7994337599374572e+00
    3.5922181534539788e+00 -1.7256735288028131e+00
    3.5082470099109337e+00 -1.7267543009909294e+00
    3.4124874388355479e+00 -1.7374217370034606e+00
    3.4672807136267529e+00 -1.8820522225204275e+00
    3.5404531683228333e+00 -1.8900634707995347e+00
    3.6791799283086459e+00 -1.8615904487503745e+00
    3.8725101341935400e+00 -1.8862803500305603e+00
    4.0274853763414100e+00 -1.9027923239173505e+00
    4.3050280778509036e+00 -2.0498424327168183e+00
    4.6140200385401426e+00 -2.2491985425927945e+00
    4.8631904327255491e+00 -2.4315277232827244e+00
    5.1421335346714994e+00 -2.6638841785351555e+00
    5.4083440416297499e+00 -2.8922721471036450e+00
    5.5895409045100468e+00 -3.0707887007900689e+00
    5.6602734351129138e+00 -3.1604966193357678e+00
    5.4843771217049895e+00 -3.0750952310094108e+00
    5.3968418115923082e+00 -3.0257889479112325e+00
    5.4252624308376785e+00 -3.0540962403868939e+00
    5.5103186644274551e+00 -3.0946981178174306e+00
    5.5781876925470355e+00 -3.1299444824778391e+00
    5.5593491958008512e+00 -3.0746117360792216e+00
    5.4253003651603970e+00 -2.9224648347972244e+00
    5.3111378752997771e+00 -2.7240355687872255e+00
    5.2869868616777334e+00 -2.5507819756335106e+00
    5.3654472692071993e+00 -2.4702995076968648e+00
    5.4178740163919352e+00 -2.5132728562256070e+00
    5.3450989347248266e+00 -2.5366736370464169e+00
    5.2958233786110736e+00 -2.5237460884557303e+00
    5.2868042157138992e+00 -2.5281968237626558e+00
    5.3249244928113750e+00 -2.5314682055502167e+00
    5.3484121970107177e+00 -2.4941407905315303e+00
    5.3559902708451430e+00 -2.5137627762290666e+00
    5.2676729761097318e+00 -2.5598503961190340e+00
    5.2729620106838064e+00 -2.6966094884490399e+00
    5.3107783955108712e+00 -2.8488106916971394e+00
    5.3531911530959215e+00 -2.9684864667206701e+00
    5.4042330009242585e+00 -3.0088149663787651e+00
    5.3950161246327726e+00 -3.0000822774844496e+00
    5.3355605990039905e+00 -2.9586356692942450e+00
    5.2513522318073171e+00 -2.9053686612920799e+00
    5.2326964024603004e+00 -2.8994859166274001e+00
    5.3212758509511691e+00 -2.9544885421164606e+00
    5.4103546014334549e+00 -2.9799461242461613e+00
    5.4760609981274335e+00 -2.9941284624148627e+00
    5.4308263004343607e+00 -2.9387334740285453e+00
    5.0404188145320736e+00 -2.6465179123495433e+00
    4.6614622943901196e+00 -2.3672269402816344e+00
    4.3677408518847649e+00 -2.1443902003846409e+00
    4.0074495680415687e+00 -1.9536248083646162e+00
    3.6509232731478818e+00 -1.7601198082131713e+00
    3.5307472491628595e+00 -1.7197602606784079e+00
    3.4197220175984486e+00 -1.7095282189219707e+00
    3.3934278530357349e+00 -1.7361176104773510e+00
    3.4388195304446074e+00 -1.8696639462694029e+00
    3.4928840593873307e+00 -1.8858951983643955e+00
    3.5763573158484707e+00 -1.8385093593300945e+00
    3.7042514716212382e+00 -1.8367236515813516e+00
    3.8692262140280871e+00 -1.8499217597169295e+00
    4.1544627598322892e+00 -1.9994111380051898e+00
    4.5186783909785913e+00 -2.1826769914863577e+00
    4.7572602191288897e+00 -2.3589158184602210e+00
    5.1289523808712456e+00 -2.6159013724165789e+00
    5.3904387611612741e+00 -2.8243022189606020e+00
    5.5053925149707830e+00 -2.9688238474329101e+00
    5.5580699775785511e+00 -3.0300796826962686e+00
    5.5228080074601138e+00 -3.0389654092902325e+00
    5.4719355343835838e+00 -3.0183535945313200e+00
    5.5251676824346454e+00 -3.0609323100613790e+00
    5.6111846795019655e+00 -3.1195098487749018e+00
    5.6261791085368795e+00 -3.1281588877797475e+00
    5.5085273329384394e+00 -3.0558501537014986e+00
    5.5180696672002494e+00 -3.0258453008118362e+00
    5.5610547835022599e+00 -2.9577760304575675e+00
    5.4568365234177163e+00 -2.7781225996357097e+00
    5.4545463109659273e+00 -2.6849476598594073e+00
    5.4603724825312714e+00 -2.6730085175957625e+00
    5.3311035630601529e+00 -2.6042416372792760e+00
    5.2629452361784663e+00 -2.5432080933719847e+00
    5.2564263244779728e+00 -2.5768259107509421e+00
    5.4216188252171609e+00 -2.6837429307449150e+00
    5.5351752051132257e+00 -2.7359515774174068e+00
    5.4750993326281909e+00 -2.7444022537476584e+00
    5.3749965557638175e+00 -2.7532003057212573e+00
    5.3154900225676771e+00 -2.8175572858005760e+00
    5.3245904284530923e+00 -2.8936866224553763e+00
    5.3258533385174234e+00 -2.9364406142484376e+00
    5.3504579939977681e+00 -2.9408547331695720e+00
    5.4435452904747041e+00 -2.9730948834912829e+00
    5.4094061732957419e+00 -2.9438424854782688e+00
    5.3599405154589581e+00 -2.9190099030772099e+00
    5.3469264379484862e+00 -2.9072380515984770e+00
    5.3914133669572095e+00 -2.9423728101762445e+00
    5.4538335393686745e+00 -2.9608910089817115e+00
    5.5414655307522231e+00 -2.9821115905847400e+00
    5.3074195426609130e+00 -2.8344618330324129e+00
    4.9253877644283603e+00 -2.5620784918619552e+00
    4.4904937209287912e+00 -2.2660415086360337e+00
    4.1436192309130462e+00 -2.0388497765314999e+00
    3.8586828493543970e+00 -1.8807256679388877e+00
    3.5219012994796413e+00 -1.7194676346016136e+00
    3.4619333502801362e+00 -1.7179201297671323e+00
    3.3469366465427242e+00 -1.6862678560485778e+00
    3.3434718029604369e+00 -1.7092111490452366e+00
    3.4407900025464344e+00 -1.8852333928870897e+00
    3.4959412927934101e+00 -1.8826357093910993e+00
    3.4861860835307232e+00 -1.7998145654565101e+00
    3.5792113865090456e+00 -1.8061803627015407e+00
    3.7591563792156673e+00 -1.8174223027403396e+00
    3.9941908523917484e+00 -1.9280539604830613e+00
    4.4727753721067138e+00 -2.1481887254989105e+00
    4.6591511012011528e+00 -2.2958193422905468e+00
    5.0700848711762205e+00 -2.5369462359476338e+00
    5.3120883321038370e+00 -2.7369334357063155e+00
    5.4268866006853873e+00 -2.8728313659211056e+00
    5.5690478105859027e+00 -2.9861900569544186e+00
    5.5877453193266691e+00 -3.0324262753694819e+00
    5.6193553056619638e+00 -3.0566918976321040e+00
    5.6878873294678467e+00 -3.0918347935992170e+00
    5.5841281066249202e+00 -3.0379180579726963e+00
    5.4750752600090165e+00 -2.9453180822330376e+00
    5.4333370589172949e+00 -2.9355586563169180e+00
    5.4128429280222372e+00 -2.9235074138247437e+00
    5.3728118576597801e+00 -2.8510796686119222e+00
    5.4642271055773532e+00 -2.8603798085952956e+00
    5.3694795766846006e+00 -2.7607534311438719e+00
    5.2570228856439369e+00 -2.6931369334406945e+00
    5.1622713271016778e+00 -2.6521340942338880e+00
    5.1200784090596585e+00 -2.6087409734251716e+00
    5.0876122825084247e+00 -2.6072687863650565e+00
    5.1582593104827090e+00 -2.6818502506456552e+00
    5.1967338813434889e+00 -2.7121879136482256e+00
    5.1255285959958687e+00 -2.6959098717826806e+00
    5.1216341723990872e+00 -2.6984909816951173e+00
    5.0868065151186830e+00 -2.7143076601309235e+00
    5.0594120858418661e+00 -2.7049668763208050e+00
    5.0755133385325912e+00 -2.6998118662869821e+00
    5.1872380039318191e+00 -2.7269248898298697e+00
    5.2442127740512499e+00 -2.7516986112310198e+00
    5.1677880879729186e+00 -2.7028302126708899e+00
    5.3132067537913068e+00 -2.8079238929734900e+00
    5.4129425718049582e+00 -2.9171629518219522e+00
    5.4388296927071877e+00 -2.9376186442593402e+00
    5.5417465081497594e+00 -2.9898151699107625e+00
    5.5668885151798406e+00 -2.9724910229250838e+00
    5.1991805005278531e+00 -2.7579300616781155e+00
    4.8292231850912142e+00 -2.4884838671352907e+00
    4.3578757375075066e+00 -2.1849981688396243e+00
    4.0823336770545007e+00 -1.9914363940263025e+00
    3.7272168026566574e+00 -1.8172191406832749e+00
    3.4592394813660849e+00 -1.6809855556708686e+00
    3.3959815356032101e+00 -1.6851927675383020e+00
    3.3080542775364434e+00 -1.6560973505759333e+00
    3.2904603516173063e+00 -1.6838958077542887e+00
    3.4015690432163219e+00 -1.8556078068981090e+00
    3.4090601515477839e+00 -1.8508291516938244e+00
    3.4254446317751093e+00 -1.7870808992908827e+00
    3.4928721633145421e+00 -1.7706740183024738e+00
    3.6522445067324947e+00 -1.7982391291611670e+00
    3.8938581635746230e+00 -1.8777808496896649e+00
    4.3132301944242810e+00 -2.0731817066298763e+00
    4.6127504300544189e+00 -2.2612805837840790e+00
    4.9068204512236573e+00 -2.4379208807677353e+00
    5.1884902129462027e+00 -2.6531217347563594e+00
    5.4070231939743687e+00 -2.8400595754023836e+00
    5.4953770553055783e+00 -2.9437829399196027e+00
    5.6201603493361549e+00 -3.0242263517544403e+00
    5.7061946666561152e+00 -3.0588569647184962e+00
    5.7375700053328176e+00 -3.0532555064155393e+00
    5.3477262109483927e+00 -2.8000639497403501e+00
    5.2062009225158192e+00 -2.6763682435738025e+00
    5.2808131337600983e+00 -2.7055448245227902e+00
    5.3049387026441535e+00 -2.7279381711569513e+00
    5.3396696136769881e+00 -2.7659207866265363e+00
    5.4258838651931871e+00 -2.8104284054392044e+00
    5.3483547923985615e+00 -2.7559907796989931e+00
    5.2260117927237726e+00 -2.6837181762029401e+00
    5.0961655415305689e+00 -2.6399995759050587e+00
    5.0947887636972693e+00 -2.6516850235499101e+00
    4.9754888263569841e+00 -2.6011477907774316e+00
    4.9645207763254193e+00 -2.5963803026406915e+00
    5.0175740369395987e+00 -2.6225216362595449e+00
    4.9081165060601846e+00 -2.5645609763792514e+00
    4.9547246616098342e+00 -2.5840912875989801e+00
    4.9410521002782923e+00 -2.5718758294031128e+00
    4.9867966291348145e+00 -2.5664909875710817e+00
    4.9875608303543073e+00 -2.5200673814167751e+00
    5.0332652984613597e+00 -2.5240521465768100e+00
    5.1235462427132701e+00 -2.5745269101682315e+00
    5.1692036215164272e+00 -2.6345615842544525e+00
    5.2233458859744371e+00 -2.7043582448645496e+00
    5.3384381707208686e+00 -2.8415251142613411e+00
    5.5020444395022681e+00 -2.9560770178735387e+00
    5.5362688631973223e+00 -2.9703073331207661e+00
    5.4986825974602880e+00 -2.9300310247267425e+00
    5.1236647437080931e+00 -2.6731266953003656e+00
    4.7704186379674764e+00 -2.4437202200910768e+00
    4.2572309689529693e+00 -2.1180776063619944e+00
    3.9931130531080874e+00 -1.9438037890147752e+00
    3.6018211465615497e+00 -1.7484686384692316e+00
    3.3822105352996590e+00 -1.6485396441651539e+00
    3.3233927549863140e+00 -1.6610032291684362e+00
    3.2510103733679903e+00 -1.6356773980787225e+00
    3.2439631535888034e+00 -1.6621759486827419e+00
    3.3793863417592185e+00 -1.8327450239990093e+00
    3.3686176963252352e+00 -1.8109775837873352e+00
    3.3960902769849133e+00 -1.7900905582529685e+00
    3.4208740760452732e+00 -1.7464488304423820e+00
    3.5125073081748943e+00 -1.7663648414134507e+00
    3.7581018741017100e+00 -1.8237064387050066e+00
    4.1362578772102943e+00 -1.9748317242266562e+00
    4.5306521338353321e+00 -2.2103232752017723e+00
    4.7685590408279497e+00 -2.3592796914113774e+00
    5.0702998621510282e+00 -2.5664560527837037e+00
    5.3610441563418032e+00 -2.8127777214363436e+00
    5.4174351189991228e+00 -2.9027840917175221e+00
    5.5713161097923303e+00 -2.9801235745135339e+00
    5.6753312813206112e+00 -3.0322102646034517e+00
    5.5461538498353926e+00 -2.9175346919607668e+00
    5.3088876814120587e+00 -2.6748940232295864e+00
    5.1282142388243024e+00 -2.4931494853039027e+00
    5.1786328833238136e+00 -2.4803571645036109e+00
    5.1258231811563180e+00 -2.4554198395662645e+00
    5.1294313862161216e+00 -2.4805449284062320e+00
    5.3125986332401149e+00 -2.5878880181550583e+00
    5.3593164830032372e+00 -2.6438103601628233e+00
    5.3926596912018185e+00 -2.6616837778540150e+00
    5.3519436552732476e+00 -2.6753765666735796e+00
    5.3009334327197015e+00 -2.6836391565656568e+00
    5.2249553811830962e+00 -2.6427042461905010e+00
    5.1131458576528743e+00 -2.5778334023696199e+00
    5.0837953085875585e+00 -2.5630360903280032e+00
    4.9517690103192757e+00 -2.4594269465135286e+00
    4.9744970048730810e+00 -2.4842740426045595e+00
    4.9007305957306775e+00 -2.4186752623041690e+00
    4.9468075410302967e+00 -2.4050249986671379e+00
    5.0401033551082417e+00 -2.3847098604314474e+00
    5.0088989594615096e+00 -2.3624924961777656e+00
    5.0616792681298364e+00 -2.4500330967761190e+00
    5.1273657612898624e+00 -2.5784426501344688e+00
    5.1702025720311209e+00 -2.6661307523416045e+00
    5.3302992779425775e+00 -2.8355622264879048e+00
    5.5755171739475315e+00 -3.0053209881690477e+00
    5.5420324914327033e+00 -2.9689296167200143e+00
    5.2740495025255587e+00 -2.7861299235831205e+00
    4.9898334988027626e+00 -2.5860953205457178e+00
    4.6131046098125426e+00 -2.3330468336872512e+00
    4.1241305347808428e+00 -2.0352249792494290e+00
    3.8280914412956015e+00 -1.8547958498251313e+00
    3.5389147804753978e+00 -1.7143387988404848e+00
    3.3491482815509781e+00 -1.6202221772277965e+00
    3.2614783619836412e+00 -1.6119169425440802e+00
    3.2238538223726696e+00 -1.6177999586588327e+00
    3.2392979996454478e+00 -1.6628036850695924e+00
    3.3181544960989351e+00 -1.7864324566449952e+00
    3.3188337998002102e+00 -1.7670448616236010e+00
    3.3581540942332122e+00 -1.7596336035154470e+00
    3.3836468296655200e+00 -1.7217968447964715e+00
    3.4490753704563146e+00 -1.7350898081199722e+00
    3.6308546859330821e+00 -1.7611489101297317e+00
    4.0525133403137499e+00 -1.9372153204128606e+00
    4.4320205923196285e+00 -2.1389076747385141e+00
    4.5605074142005098e+00 -2.2306596520953708e+00
    4.8820734763891558e+00 -2.4406974103867798e+00
    5.2373938718800686e+00 -2.7015077732679904e+00
    5.4280221308720726e+00 -2.8912466024324694e+00
    5.5988258458563775e+00 -3.0088532444403837e+00
    5.5757224074047320e+00 -2.9761999825916239e+00
    5.2193140068820822e+00 -2.7045933653808460e+00
    5.1662603228810378e+00 -2.5495075791674213e+00
    5.1964608820607188e+00 -2.4192341365933050e+00
    5.1758534730035617e+00 -2.3154225987148394e+00
    5.1503638670202818e+00 -2.3086036314732254e+00
    5.1296569783350074e+00 -2.3563894875554441e+00
    5.0802773257643814e+00 -2.3625304261432887e+00
    5.0852406030634159e+00 -2.4059956896280341e+00
    5.0125333469090627e+00 -2.4210167927932460e+00
    5.0560151014799830e+00 -2.4762592900494154e+00
    5.1390002252965532e+00 -2.5395566948595292e+00
    4.9657041715202457e+00 -2.4662101027369800e+00
    4.9437422840833332e+00 -2.4455403981390762e+00
    4.8964651299502551e+00 -2.3870183701233665e+00
    4.9082105093469455e+00 -2.3260591699406685e+00
    4.8746579961217877e+00 -2.3168692834986575e+00
    4.8508574168805207e+00 -2.2458573857772173e+00
    4.9218397591554126e+00 -2.2383386701417476e+00
    5.0394816510367901e+00 -2.2488801945722137e+00
    5.0289587752649600e+00 -2.3100622322835713e+00
    5.0113680951599680e+00 -2.4044254142169366e+00
    4.9716091293188738e+00 -2.4649254628726625e+00
    5.1002430969924859e+00 -2.6407643101030098e+00
    5.2993335531904666e+00 -2.8158468348391343e+00
    5.4723109932458236e+00 -2.9410914534516857e+00
    5.4790293505941747e+00 -2.9297684313832382e+00
    5.0583168872090409e+00 -2.6518356043543609e+00
    4.8657388098102103e+00 -2.5052703249236741e+00
    4.3830834550288360e+00 -2.1825208968480165e+00
    4.0718189652116878e+00 -1.9754919754374209e+00
    3.7128254775535718e+00 -1.7723050279566710e+00
    3.4648273795653313e+00 -1.6469856215835266e+00
