<?xml version="1.0"?>
<opencv_storage>
<opencv_ml_ann_mlp>
  <format>3</format>
  <layer_sizes>
    2500 50 2</layer_sizes>
  <activation_function>SIGMOID_SYM</activation_function>
  <f_param1>1.</f_param1>
  <f_param2>1.</f_param2>
  <min_val>-9.4999999999999996e-01</min_val>
  <max_val>9.4999999999999996e-01</max_val>
  <min_val1>-9.7999999999999998e-01</min_val1>
  <max_val1>9.7999999999999998e-01</max_val1>
  <training_params>
    <train_method>BACKPROP</train_method>
    <dw_scale>1.0000000000000000e-03</dw_scale>
    <moment_scale>1.0000000000000000e-03</moment_scale>
    <term_criteria>
      <epsilon>1.0000000000000000e-04</epsilon>
      <iterations>30000</iterations></term_criteria></training_params>
  <input_scale>
    3.2927124518027768e+00 -1.5808236949252246e+00
    3.4220727517887242e+00 -1.4496926336220755e+00
    3.6084806738636281e+00 -1.3490529773521605e+00
    3.8230787655756910e+00 -1.2853980614100582e+00
    4.0746398769108216e+00 -1.2695973287330100e+00
    4.2628197424301204e+00 -1.2829792987141790e+00
    4.6226567952998669e+00 -1.3279306956818586e+00
    4.8209357633142114e+00 -1.3680613488332116e+00
    4.8842047881744302e+00 -1.4128868968096555e+00
    4.8156237018313295e+00 -1.4850508523788757e+00
    4.7510178285982256e+00 -1.5873580364871371e+00
    4.7005163594003330e+00 -1.6485400145497040e+00
    4.5761666311429936e+00 -1.6698095366571635e+00
    4.4690294173418996e+00 -1.7219389847137305e+00
    4.3864946385999835e+00 -1.7874895754046645e+00
    4.2272709903589156e+00 -1.8039150524214673e+00
    4.1446733716552657e+00 -1.8180837150228231e+00
    4.1055197399757093e+00 -1.8428397344193908e+00
    4.0151441193775215e+00 -1.8315148843493447e+00
    3.9774327782962446e+00 -1.8422516679585947e+00
    3.9782455820652416e+00 -1.8733728967491181e+00
    3.9662838701819609e+00 -1.8851742913991820e+00
    3.9560952806089644e+00 -1.8946523621995817e+00
    3.9363437640679253e+00 -1.8948620775106926e+00
    3.9393329471984395e+00 -1.8963009959409167e+00
    3.9415896170753175e+00 -1.9097304242640547e+00
    3.9779571231300785e+00 -1.9472934069593046e+00
    4.0316797109284410e+00 -1.9885914539446667e+00
    4.0510716775244591e+00 -2.0022298508144529e+00
    4.0464643020715352e+00 -1.9800153391053092e+00
    4.0693073858893776e+00 -1.9833600142044392e+00
    4.1113709269426639e+00 -1.9804152669310693e+00
    4.1510198093577646e+00 -1.9610536089639028e+00
    4.1800158643346093e+00 -1.9073218571512573e+00
    4.2483692472230485e+00 -1.8718700975222935e+00
    4.2892344916231320e+00 -1.8270297686886552e+00
    4.3754001810719938e+00 -1.7800145843355577e+00
    4.5008243553341885e+00 -1.7054191126832983e+00
    4.5313361806059769e+00 -1.5712408222968528e+00
    4.5425362223743972e+00 -1.4472952465657367e+00
    4.6741766997474397e+00 -1.3922823147073322e+00
    4.8207017047842822e+00 -1.3636323113648043e+00
    4.5872969824292280e+00 -1.2897675628567198e+00
    4.4162879399455752e+00 -1.2454294313088043e+00
    4.2234972977589242e+00 -1.2210315493734458e+00
    3.9269590681952753e+00 -1.2234693654638749e+00
    3.7318847170904990e+00 -1.2635283738845047e+00
    3.4868745145789122e+00 -1.3112031351469622e+00
    3.3415359160218010e+00 -1.4021347582906512e+00
    3.2166351052668425e+00 -1.4669039787912121e+00
    3.3212119354561103e+00 -1.5413114947892370e+00
    3.4625848330881968e+00 -1.4100030162365544e+00
    3.6930877366757993e+00 -1.3143711360124659e+00
    3.8552595957562845e+00 -1.2651498920908759e+00
    4.1798471860504591e+00 -1.2825643953774664e+00
    4.4312149771615870e+00 -1.2808926775308307e+00
    4.6977870215412008e+00 -1.3414826261911228e+00
    4.8792250863223936e+00 -1.4138294011797898e+00
    4.8388009856792422e+00 -1.4646731311669088e+00
    4.7925356569992230e+00 -1.5805764853298936e+00
    4.7104490532273129e+00 -1.6640001348898039e+00
    4.5474650193253794e+00 -1.6921940317248350e+00
    4.4315199493571811e+00 -1.7428163414616562e+00
    4.3605833158355267e+00 -1.8235964789344508e+00
    4.2717444888548881e+00 -1.8684856265193550e+00
    4.1428142722141388e+00 -1.8717202028014996e+00
    4.0713388956569361e+00 -1.8889048467339731e+00
    4.0139575299735517e+00 -1.9089867632445701e+00
    3.9791543731943975e+00 -1.9347328157976316e+00
    3.9520319201394800e+00 -1.9458996782004396e+00
    3.9728699265060521e+00 -1.9931407092411142e+00
    3.9858651645750842e+00 -2.0065882167075708e+00
    3.9642181674955523e+00 -2.0132865253672967e+00
    3.9289435837453714e+00 -1.9987016640320279e+00
    3.9374921173228512e+00 -2.0230729911703409e+00
    3.9909288989573573e+00 -2.0634275983211157e+00
    4.0595634278449673e+00 -2.1203734047723888e+00
    4.0729522614970541e+00 -2.1399455671748551e+00
    4.1241231821425330e+00 -2.1723997108560540e+00
    4.1312775683132532e+00 -2.1622223222645567e+00
    4.1065484570030533e+00 -2.1338833932349601e+00
    4.1017301117452334e+00 -2.1042174211461373e+00
    4.1380184674357841e+00 -2.0827700515794905e+00
    4.1548891074132532e+00 -2.0271013627528158e+00
    4.1886722570781112e+00 -1.9846780447406938e+00
    4.2717086629050511e+00 -1.9483631545940057e+00
    4.3687473730261921e+00 -1.9192617704724424e+00
    4.4566293538951829e+00 -1.8363631426576956e+00
    4.5138004605589028e+00 -1.7211641146819670e+00
    4.5302506783603516e+00 -1.5630553343137441e+00
    4.6372560362986999e+00 -1.4614201776124744e+00
    4.8033102813273452e+00 -1.4195002209650533e+00
    4.6880509163426201e+00 -1.3174221804836357e+00
    4.4794386344680319e+00 -1.2600854964847836e+00
    4.3169596265681935e+00 -1.2169219337398849e+00
    4.0023814930666788e+00 -1.2174737504603161e+00
    3.7278825720548072e+00 -1.2238850971353956e+00
    3.6020827015454184e+00 -1.2986953770613576e+00
    3.3596632496759362e+00 -1.3445892840810529e+00
    3.2219340935150469e+00 -1.4320633536123546e+00
    3.3384316992851115e+00 -1.4994289938694390e+00
    3.5740779190135261e+00 -1.3914338122811070e+00
    3.7508032223633880e+00 -1.2885759475151821e+00
    3.9701603448156617e+00 -1.2633339997544357e+00
    4.2992500680886598e+00 -1.2767751265104930e+00
    4.5537333970807357e+00 -1.3014592328342762e+00
    4.7316984809290092e+00 -1.3507584431548416e+00
    4.8430118295912958e+00 -1.4251110060422993e+00
    4.8202886562637985e+00 -1.5220106367451935e+00
    4.7120495852059410e+00 -1.6458161614954376e+00
    4.5559454511052042e+00 -1.7068680543765531e+00
    4.4562500523357809e+00 -1.7724501091434530e+00
    4.4188012530212664e+00 -1.8710480723363874e+00
    4.4109421909318467e+00 -1.9732813380627374e+00
    4.3160083752148397e+00 -2.0053955984458747e+00
    4.1686815200508516e+00 -1.9885596970578558e+00
    4.1213455422494016e+00 -2.0204451401559291e+00
    4.0700162169612613e+00 -2.0482504683795182e+00
    4.0714787701296915e+00 -2.0963014013530943e+00
    4.0246896741788722e+00 -2.1068990050343719e+00
    3.9788393458042832e+00 -2.0879262898518078e+00
    3.9959206475501614e+00 -2.1107807012245141e+00
    3.9732317582825516e+00 -2.1063294773711734e+00
    3.9455938976339775e+00 -2.1080008951789946e+00
    3.9786739285469106e+00 -2.1501357564503039e+00
    3.9984759446174403e+00 -2.1734732084362993e+00
    4.0841109829130327e+00 -2.2315210623318622e+00
    4.1080656331022212e+00 -2.2529892579671662e+00
    4.1867903446311585e+00 -2.2953824567162089e+00
    4.2139663320616458e+00 -2.3108263186451419e+00
    4.2265132278263646e+00 -2.3048356115084152e+00
    4.2134973482463023e+00 -2.2699563815512982e+00
    4.1858398762426798e+00 -2.2151912022227229e+00
    4.2059699310269556e+00 -2.1703204813478205e+00
    4.2305222298583063e+00 -2.1128608036604417e+00
    4.2780216843391043e+00 -2.0625332137584556e+00
    4.4033055478713070e+00 -2.0481712947649915e+00
    4.4396777922062407e+00 -1.9635602508387509e+00
    4.4997194689442530e+00 -1.8541185108910412e+00
    4.5671037861685626e+00 -1.7314516944704992e+00
    4.6716559800648438e+00 -1.5995632834284610e+00
    4.7947088726751241e+00 -1.5038092268083874e+00
    4.7733808051758952e+00 -1.3839136713177353e+00
    4.5422013863898174e+00 -1.2660616325780993e+00
    4.4117535089328168e+00 -1.2203855789879314e+00
    4.1481767406275409e+00 -1.2092071430372482e+00
    3.7891853098299517e+00 -1.2056375693136487e+00
    3.6489318905359762e+00 -1.2713473804219455e+00
    3.3722209123384008e+00 -1.2988973184756196e+00
    3.2946061971680018e+00 -1.4121161431199860e+00
    3.3618915453367411e+00 -1.4667921776890980e+00
    3.6063277458271354e+00 -1.3338466096137069e+00
    3.8313849814494811e+00 -1.2614979480844364e+00
    3.9818348874987111e+00 -1.2354756589694724e+00
    4.3734907781418082e+00 -1.2620080053000871e+00
    4.6582155195898372e+00 -1.2890306469544270e+00
    4.8152219254970996e+00 -1.3750169083836603e+00
    4.8117292633611282e+00 -1.4503270943426976e+00
    4.6853583615307279e+00 -1.5620554198896468e+00
    4.5854981368053211e+00 -1.7000892528760447e+00
    4.4752646857741034e+00 -1.7955702704412588e+00
    4.4289532581738129e+00 -1.8981229291239841e+00
    4.4575463599905127e+00 -2.0170534437816605e+00
    4.4523686170677941e+00 -2.1103262617837424e+00
    4.3688556608974061e+00 -2.1277894005971314e+00
    4.2682307359167408e+00 -2.1411356968129818e+00
    4.2283817234674812e+00 -2.1931827279078360e+00
    4.1524373410888717e+00 -2.2015106787067080e+00
    4.2118861649411139e+00 -2.2802208519963822e+00
    4.1501631596315010e+00 -2.2654651945703037e+00
    4.1352832010337242e+00 -2.2778363668400341e+00
    4.0869101363173259e+00 -2.2598797355366034e+00
    4.0574434586303552e+00 -2.2594392344821164e+00
    4.0362733415663570e+00 -2.2662039693744114e+00
    4.0679266679606485e+00 -2.2987015594234612e+00
    4.0537255816993980e+00 -2.2887552070975929e+00
    4.1065205530566971e+00 -2.3308922379674324e+00
    4.1426242095844952e+00 -2.3503138093181701e+00
    4.2203463593464594e+00 -2.3882257341047897e+00
    4.2257137902439101e+00 -2.3828256096981333e+00
    4.2620311490676270e+00 -2.3835295049942902e+00
    4.2922033789262741e+00 -2.3788235333014556e+00
    4.2985504502895981e+00 -2.3502325142988756e+00
    4.2881276153544405e+00 -2.2911285750788202e+00
    4.3081140495421000e+00 -2.2369519088507808e+00
    4.3392165524834700e+00 -2.1874664083812636e+00
    4.4407605679897841e+00 -2.1582167680576703e+00
    4.4876006891194944e+00 -2.1031741415306273e+00
    4.5829851238129651e+00 -2.0235840615258818e+00
    4.5876657817693980e+00 -1.8864029334967711e+00
    4.6322130795778609e+00 -1.7418293227673252e+00
    4.7692515155728632e+00 -1.6126325870616640e+00
    4.8189433344722588e+00 -1.4698764412797027e+00
    4.6209719856705593e+00 -1.3073338848001093e+00
    4.5813376347577037e+00 -1.2479481522618738e+00
    4.3235405912264468e+00 -1.2094610935391912e+00
    3.9294401198274485e+00 -1.1942698950164801e+00
    3.6194379772349565e+00 -1.2368428495483099e+00
    3.4093542842813460e+00 -1.2851868125494958e+00
    3.3071033786867901e+00 -1.3556678069486499e+00
    3.4236342165809854e+00 -1.4328953796884356e+00
    3.6633558103120736e+00 -1.2970011567867346e+00
    3.8306370725309629e+00 -1.2308223039883326e+00
    4.1012862401424037e+00 -1.2320649807285149e+00
    4.5030687788027750e+00 -1.2601348502849019e+00
    4.7295815141041286e+00 -1.2940363980202783e+00
    4.8226269486387148e+00 -1.3856523691972848e+00
    4.6807135007981584e+00 -1.4752501678657552e+00
    4.5656281276767894e+00 -1.6051021859850974e+00
    4.6163608376008156e+00 -1.8174331420351082e+00
    4.5284939307488390e+00 -1.9246506837297666e+00
    4.4932524624538672e+00 -2.0406331627153547e+00
    4.4891777390069878e+00 -2.1524065577248539e+00
    4.4713876912730042e+00 -2.2355976201418857e+00
    4.4281608618586601e+00 -2.2510693532001111e+00
    4.3718698596469991e+00 -2.2807954864128996e+00
    4.3511739625555323e+00 -2.3404398153155581e+00
    4.3314056892557966e+00 -2.3948260336974387e+00
    4.2991843690111082e+00 -2.4086920597138208e+00
    4.2712116518836254e+00 -2.4160892533787299e+00
    4.2390970777062629e+00 -2.4203318438431953e+00
    4.1715060574543648e+00 -2.3846766472575847e+00
    4.1045449269646417e+00 -2.3577771580135232e+00
    4.1498589925821374e+00 -2.3967426647536034e+00
    4.1653614506607965e+00 -2.4171842595412829e+00
    4.1526620278823412e+00 -2.4110077489979669e+00
    4.2029255082760661e+00 -2.4503331918853268e+00
    4.2433804600735341e+00 -2.4773321749659249e+00
    4.2706712777195159e+00 -2.4749834464910312e+00
    4.3022510558374156e+00 -2.4766605121857275e+00
    4.3568815360096131e+00 -2.4930263497678733e+00
    4.3937375018980260e+00 -2.4965064549811560e+00
    4.4207428106776723e+00 -2.4743206520826195e+00
    4.3938899168887362e+00 -2.4069037912658389e+00
    4.3764845617557979e+00 -2.3408520034156219e+00
    4.4403207923191248e+00 -2.3158045830629410e+00
    4.4718650042287429e+00 -2.2641648224523934e+00
    4.5781935081775060e+00 -2.2444756836174742e+00
    4.6615382824793272e+00 -2.1856297881396483e+00
    4.6555969116118670e+00 -2.0557121510731031e+00
    4.6434088634045780e+00 -1.8910477866212878e+00
    4.7118804743069056e+00 -1.7217671770917340e+00
    4.7823012566331293e+00 -1.5448451713666345e+00
    4.7081861122100372e+00 -1.3798235811486310e+00
    4.6229670428815099e+00 -1.2616121904274880e+00
    4.4857029637576682e+00 -1.2123609265186828e+00
    4.0891493163494683e+00 -1.1937626427590831e+00
    3.6776697001060077e+00 -1.2156940309148334e+00
    3.4561383048769962e+00 -1.2759637410868945e+00
    3.3056826277322364e+00 -1.3144855522549630e+00
    3.4627189276796395e+00 -1.4066254973111867e+00
    3.7581828491758427e+00 -1.2793424095693435e+00
    3.9071812717464334e+00 -1.2102917681664060e+00
    4.2221295639644749e+00 -1.2205148305587079e+00
    4.5949717177937579e+00 -1.2561504181092529e+00
    4.8243724425197803e+00 -1.3357722316142360e+00
    4.7955488581663674e+00 -1.4278150798556966e+00
    4.6536451151374800e+00 -1.5302247491585290e+00
    4.6051083985750125e+00 -1.7183409014225388e+00
    4.6561475380344559e+00 -1.9451949482165047e+00
    4.5285310596953332e+00 -2.0433846945513783e+00
    4.5105037548453115e+00 -2.1616597701266573e+00
    4.5203682770540450e+00 -2.2534636088665403e+00
    4.5333914642987239e+00 -2.3328261283580942e+00
    4.4842528527157137e+00 -2.3770438479052358e+00
    4.5150263832060116e+00 -2.4571110201435604e+00
    4.4921588706969100e+00 -2.5053232430968189e+00
    4.4615619946998164e+00 -2.5310064821502123e+00
    4.4490751599434235e+00 -2.5558776744412066e+00
    4.3929544019689644e+00 -2.5454084922939835e+00
    4.3577801690838820e+00 -2.5376097521365972e+00
    4.3130485748797023e+00 -2.5245724860774876e+00
    4.2487197234732692e+00 -2.4933880027672233e+00
    4.2454879319133463e+00 -2.5117385087026798e+00
    4.2620443452472339e+00 -2.5310232847772829e+00
    4.2628406538020789e+00 -2.5320472882905993e+00
    4.3223023101762106e+00 -2.5768659630960240e+00
    4.3588753768148312e+00 -2.5929095633189827e+00
    4.3473155309610796e+00 -2.5741679894307317e+00
    4.4074611845447480e+00 -2.5908516524123280e+00
    4.4736232129820364e+00 -2.6154776313844175e+00
    4.4729556348177404e+00 -2.5879726686513704e+00
    4.4719119350542904e+00 -2.5473486733370954e+00
    4.4368890780729036e+00 -2.4762832870542830e+00
    4.4243840474921630e+00 -2.4187778175915042e+00
    4.4869340085406488e+00 -2.4096606229119555e+00
    4.5216974387618869e+00 -2.3743540741217677e+00
    4.6591919706914657e+00 -2.3661053332863640e+00
    4.7382092853135900e+00 -2.3368769121982420e+00
    4.7015837107598628e+00 -2.1849550273326694e+00
    4.6909358457520565e+00 -2.0392415284111385e+00
    4.7368180470298302e+00 -1.8604336117865197e+00
    4.7707190978153937e+00 -1.6329340071524270e+00
    4.7897229436892612e+00 -1.4588995341669344e+00
    4.6506586745604395e+00 -1.2864050633074298e+00
    4.5174706482758600e+00 -1.2128353239130567e+00
    4.1772247143603618e+00 -1.1809518683895772e+00
    3.7826949640229519e+00 -1.2022683841666013e+00
    3.4955285273589998e+00 -1.2541022128482695e+00
    3.2805475463940259e+00 -1.2843215976207554e+00
    3.5034796849855243e+00 -1.3684784127845648e+00
    3.8154120091574959e+00 -1.2568964765197519e+00
    3.9863129587203208e+00 -1.2034239400221809e+00
    4.2947042724568059e+00 -1.2101547576041751e+00
    4.7470088533103834e+00 -1.2866668782460351e+00
    4.8328295829427192e+00 -1.3611620354317886e+00
    4.7857381836373083e+00 -1.4853216248675933e+00
    4.6372568372663130e+00 -1.6172946180881478e+00
    4.6846146655749683e+00 -1.8590414640247395e+00
    4.6794958223321785e+00 -2.0450906919523493e+00
    4.5576235028988457e+00 -2.1536678983772033e+00
    4.5767076990914113e+00 -2.2676777611126595e+00
    4.6276392039894976e+00 -2.3846485658914691e+00
    4.6247602499550027e+00 -2.4527872146880352e+00
    4.6865854195396102e+00 -2.5594284831434662e+00
    4.7180953592791433e+00 -2.6538991306385618e+00
    4.6339156896177229e+00 -2.6594011305014567e+00
    4.6157653133525427e+00 -2.6790867437170678e+00
    4.6635880057169317e+00 -2.7374589936342755e+00
    4.6315178248148348e+00 -2.7342023928700550e+00
    4.6295656193211263e+00 -2.7498750239330612e+00
    4.5738834267622188e+00 -2.7366430158359503e+00
    4.4655497371020401e+00 -2.6816392717539679e+00
    4.4474460090180896e+00 -2.6911474071455510e+00
    4.4740935694038306e+00 -2.7152412055443689e+00
    4.4715562165075537e+00 -2.7074065363169324e+00
    4.4771262924873785e+00 -2.7065344344545088e+00
    4.4965963327143932e+00 -2.7151395303685573e+00
    4.4812760745321132e+00 -2.6921131703129242e+00
    4.4790541026838735e+00 -2.6659429408182609e+00
    4.5942930535340709e+00 -2.7228521696316852e+00
    4.6217018640624845e+00 -2.7219677858060072e+00
    4.6206349739939530e+00 -2.6938605479132680e+00
    4.5125942645468804e+00 -2.5773289990529800e+00
    4.5340438168298860e+00 -2.5464634807905902e+00
    4.5467943857172308e+00 -2.4943853196027432e+00
    4.5503209327024994e+00 -2.4480159282930498e+00
    4.6512585443284307e+00 -2.4352378170863065e+00
    4.7584563654415302e+00 -2.4215735479631384e+00
    4.7915322885728386e+00 -2.3189186677531639e+00
    4.7131310942489169e+00 -2.1451636357767376e+00
    4.7519042728672760e+00 -1.9750284487944740e+00
    4.7704166923871059e+00 -1.7387712353300118e+00
    4.8250395372725103e+00 -1.5436800462387501e+00
    4.6787087464172155e+00 -1.3367067929898215e+00
    4.5458741100514137e+00 -1.2294071217285962e+00
    4.2476315363432526e+00 -1.1912161900591016e+00
    3.8598508816146579e+00 -1.1919712548756307e+00
    3.5945158181717667e+00 -1.2515101553163936e+00
    3.2508335755893478e+00 -1.2660109784676135e+00
    3.5280215830524253e+00 -1.3211013650510095e+00
    3.8377829841113207e+00 -1.2430415174618763e+00
    4.0530348423126936e+00 -1.1887505555920874e+00
    4.3802318643796978e+00 -1.2251939892763610e+00
    4.7966761206568904e+00 -1.3094998864620064e+00
    4.8075718087838855e+00 -1.3894756902685905e+00
    4.7351022850604529e+00 -1.5306866002374171e+00
    4.7054827489119200e+00 -1.7365303976579687e+00
    4.7934569204229662e+00 -1.9935383465520773e+00
    4.7260351276018886e+00 -2.1540918240343903e+00
    4.6560966161930795e+00 -2.2657464261214795e+00
    4.6923419878420098e+00 -2.3896131160415424e+00
    4.6663840209656691e+00 -2.4683607601506576e+00
    4.7915936292938834e+00 -2.6140909867428110e+00
    4.8464131608501475e+00 -2.7239189581764265e+00
    4.8116559667431504e+00 -2.7689400325050100e+00
    4.7611630185611009e+00 -2.7783198446019406e+00
    4.7410896052906102e+00 -2.8050852537334512e+00
    4.9099458222692194e+00 -2.9426527547095045e+00
    4.8229813532873624e+00 -2.9117327096262962e+00
    4.8716126552475023e+00 -2.9664949315085405e+00
    4.7879134612846768e+00 -2.9216487263090052e+00
    4.7502816628161382e+00 -2.9231139562612616e+00
    4.7673000778800905e+00 -2.9487206229165195e+00
    4.7060843310943943e+00 -2.9129524699242153e+00
    4.6924538046261137e+00 -2.9010104045673053e+00
    4.6926636603010330e+00 -2.8945340772312109e+00
    4.7185425959138740e+00 -2.9054132108801070e+00
    4.6670026977254944e+00 -2.8488729675371718e+00
    4.6231681178902457e+00 -2.7942890646343814e+00
    4.6653808026804446e+00 -2.8027135271936441e+00
    4.7652138990662012e+00 -2.8548160933894207e+00
    4.7830891042769892e+00 -2.8420269939002907e+00
    4.6819112052802048e+00 -2.7318716406721220e+00
    4.6951484720879613e+00 -2.7047267093356022e+00
    4.6324271550337981e+00 -2.6081068762293569e+00
    4.6305377548168964e+00 -2.5511028472831221e+00
    4.6935634135770439e+00 -2.5197522840103783e+00
    4.7324396211077264e+00 -2.4672724674739497e+00
    4.8210433282978551e+00 -2.4199055704635182e+00
    4.7838928997401551e+00 -2.2616204515563245e+00
    4.7642907600174356e+00 -2.0703775302130931e+00
    4.7507934241670968e+00 -1.8264776563932015e+00
    4.8272062126969200e+00 -1.6168350677597760e+00
    4.7305252704341454e+00 -1.3998930726708885e+00
    4.5349840682956817e+00 -1.2538874970563418e+00
    4.2478156628572528e+00 -1.1879728163880785e+00
    3.9061449555879229e+00 -1.1911175713726971e+00
    3.6591970507750120e+00 -1.2262502771747354e+00
    3.3004549258974394e+00 -1.2700221459047869e+00
    3.5284783213390503e+00 -1.2974501616897183e+00
    3.8661472035496320e+00 -1.2234608536982226e+00
    4.0641223484922913e+00 -1.1658482767567975e+00
    4.4239021568431340e+00 -1.2337232081529967e+00
    4.7469259078942834e+00 -1.3211476620829596e+00
    4.7733220980981912e+00 -1.4174261279315614e+00
    4.7385460207816301e+00 -1.6052450900065007e+00
    4.7886619677089914e+00 -1.8508731502620941e+00
    4.8919534585699438e+00 -2.1272602600101616e+00
    4.7446364254900661e+00 -2.2419711785579439e+00
    4.7217496844455074e+00 -2.3597558309867459e+00
    4.7627846951484774e+00 -2.4970498461831507e+00
    4.8106453779494780e+00 -2.6128754171896289e+00
    4.8791170484351083e+00 -2.7306656546126802e+00
    4.9321314838075283e+00 -2.8457794475932263e+00
    4.9171508257981476e+00 -2.8877093782842156e+00
    4.9260110368344430e+00 -2.9368551808515240e+00
    5.0689898145514229e+00 -3.0811508503909217e+00
    5.1028014873929415e+00 -3.1423847202540469e+00
    5.1225724073463637e+00 -3.1874521557971778e+00
    5.0995607385468782e+00 -3.1806053391963820e+00
    5.0779641845566221e+00 -3.1800465364681321e+00
    5.1178387688667817e+00 -3.2292781611510808e+00
    5.0322581043022758e+00 -3.1780249715334081e+00
    4.9594157678025885e+00 -3.1233314543480031e+00
    4.9355079513474118e+00 -3.1038083172705817e+00
    5.0482804677697892e+00 -3.1828498364163313e+00
    5.0222564088663733e+00 -3.1571356483774506e+00
    4.9846785399221964e+00 -3.1163998709481544e+00
    4.8650155593148066e+00 -3.0102089000243399e+00
    4.8736294763918098e+00 -2.9989467520004580e+00
    4.9429598136676862e+00 -3.0187452274319728e+00
    4.8820326517497197e+00 -2.9473831902040395e+00
    4.9129662873160003e+00 -2.9290779966336404e+00
    4.9067219787583634e+00 -2.8891970438787391e+00
    4.8870102720123807e+00 -2.8328725681952442e+00
    4.9110219234510808e+00 -2.7883798554898953e+00
    4.8689382281484468e+00 -2.6964330354652972e+00
    4.8459293862414459e+00 -2.5979306239234505e+00
    4.8791863648062668e+00 -2.5242948475477549e+00
    4.9094170510099859e+00 -2.4017110706617317e+00
    4.8406627870406016e+00 -2.1902757374040984e+00
    4.8076928437204076e+00 -1.9402044074915654e+00
    4.8336904271832104e+00 -1.6888581273666339e+00
    4.6774779641912225e+00 -1.4362004871672984e+00
    4.6231344624546313e+00 -1.3121295091910044e+00
    4.2104075710873259e+00 -1.1830148178040258e+00
    3.8880492943927680e+00 -1.1739826318792363e+00
    3.6699754746153546e+00 -1.2192132090383927e+00
    3.3712905365092372e+00 -1.2600874060642206e+00
    3.5507642545105149e+00 -1.2895270678388149e+00
    3.9493748774765227e+00 -1.2100864853026498e+00
    4.0898964782329710e+00 -1.1693056714958441e+00
    4.4341112788038535e+00 -1.2473347124149416e+00
    4.6656223551442295e+00 -1.3282765840356949e+00
    4.7471296553936089e+00 -1.4617464188539184e+00
    4.8055507689897610e+00 -1.6989761132654841e+00
    4.8634193073553780e+00 -1.9719851183164800e+00
    4.8711922274661257e+00 -2.1968122956180989e+00
    4.7722708067847757e+00 -2.3116534192343141e+00
    4.8572458690576390e+00 -2.4994077524145957e+00
    4.9315785810828050e+00 -2.6627621302325748e+00
    4.9572724370343746e+00 -2.7548949070671198e+00
    5.0682040743524883e+00 -2.9051443804266417e+00
    5.1459831551467357e+00 -3.0384328518874444e+00
    5.1755229315097786e+00 -3.1237514767917238e+00
    5.2312735375598374e+00 -3.2081238625735851e+00
    5.2781724066663758e+00 -3.2860918356107356e+00
    5.2798941396268582e+00 -3.3193217000860860e+00
    5.4437199937224729e+00 -3.4670434149935128e+00
    5.4533866697033408e+00 -3.4946641780552490e+00
    5.3801438166524882e+00 -3.4511288709565076e+00
    5.3137023143746891e+00 -3.4115627259002572e+00
    5.2221109407350328e+00 -3.3517080092459675e+00
    5.2681621635462372e+00 -3.3876975094772561e+00
    5.2279634228557255e+00 -3.3467529213355740e+00
    5.3040665068999244e+00 -3.3988237770866463e+00
    5.3355739811913239e+00 -3.4285175005121662e+00
    5.2947424678545172e+00 -3.3844826506237795e+00
    5.1578134687048944e+00 -3.2602806511824944e+00
    5.1721566734130526e+00 -3.2460179343189473e+00
    5.1849016376073047e+00 -3.2289169574491341e+00
    5.1698320010344894e+00 -3.1838116894219475e+00
    5.1486157116268352e+00 -3.1301425795786262e+00
    5.1872945964097754e+00 -3.1207970279294037e+00
    5.1349154270777984e+00 -3.0379464086293440e+00
    5.1837236734704906e+00 -3.0251234688423843e+00
    5.1407387206974686e+00 -2.9342421091692366e+00
    5.0938004349082275e+00 -2.8189136314343903e+00
    5.0511820853690592e+00 -2.7045575163001629e+00
    5.0547320559675732e+00 -2.5571725019480840e+00
    5.0387060433558801e+00 -2.3718797103880989e+00
    4.8781579148296395e+00 -2.0513981284532790e+00
    4.8251213631334426e+00 -1.7646713564448104e+00
    4.7077029815385245e+00 -1.5028944436958278e+00
    4.5658727132647776e+00 -1.3351644895206378e+00
    4.1788998615110726e+00 -1.2148614558705468e+00
    3.9073818804054596e+00 -1.1621957056140557e+00
    3.6493515514567201e+00 -1.1996755732285000e+00
    3.4261926581909528e+00 -1.2485191469741572e+00
    3.5762999311230783e+00 -1.2820020072435605e+00
    3.9599339072268331e+00 -1.2029121160233298e+00
    4.1292473189859704e+00 -1.1710063228667527e+00
    4.3821681304126843e+00 -1.2434241436096869e+00
    4.5896298963772866e+00 -1.3394085469414956e+00
    4.7412476306388651e+00 -1.5044088882572528e+00
    4.8167943537009439e+00 -1.7771941334227706e+00
    4.8538775230909961e+00 -2.0526921141840875e+00
    4.9069877418345609e+00 -2.2771694959024442e+00
    4.8686168555156470e+00 -2.4207059442326058e+00
    4.9743002688540123e+00 -2.6318097707619610e+00
    5.0740929240178163e+00 -2.7935756698032446e+00
    5.1643238474347983e+00 -2.9260423266242914e+00
    5.2118499373800047e+00 -3.0397406118711583e+00
    5.3242526204642502e+00 -3.1797143530798646e+00
    5.4204197620367669e+00 -3.3010720263404192e+00
    5.4029520880988544e+00 -3.3505833232616804e+00
    5.3685663096124987e+00 -3.3760699452575045e+00
    5.4937668357118508e+00 -3.4959188574752957e+00
    5.5828516406169388e+00 -3.5914222495671191e+00
    5.5838313197894571e+00 -3.6256605426625557e+00
    5.5028377655210550e+00 -3.5851644345303524e+00
    5.4636229343216973e+00 -3.5607142745825118e+00
    5.4403192861106451e+00 -3.5416195478019854e+00
    5.5371627409753046e+00 -3.6180268202875201e+00
    5.4730979246096458e+00 -3.5592631566494437e+00
    5.3527026882749116e+00 -3.4684346836550373e+00
    5.4319596646818393e+00 -3.5191672498891684e+00
    5.3442019142833219e+00 -3.4448091291956433e+00
    5.2870324325017028e+00 -3.3806934761263019e+00
    5.2881004539125813e+00 -3.3511434856046227e+00
    5.1802378754149974e+00 -3.2466248968842226e+00
    5.1238657837279105e+00 -3.1602878438388533e+00
    5.1179398749803990e+00 -3.1073759596845019e+00
    5.0601439193561193e+00 -3.0287450854773019e+00
    5.0854759445170705e+00 -2.9989078624210017e+00
    5.1407256381644331e+00 -2.9837108547529025e+00
    5.2009742008065762e+00 -2.9722095611008754e+00
    5.2888838306428978e+00 -2.9644797557081395e+00
    5.2325112422970301e+00 -2.8558396251800251e+00
    5.1657188245085184e+00 -2.6924219241275478e+00
    5.2050544666687211e+00 -2.5381885163036113e+00
    5.0007187285766834e+00 -2.1887798257209496e+00
    4.7955796267332884e+00 -1.8451426754544735e+00
    4.6273763901444243e+00 -1.5508342234689425e+00
    4.5519618425555350e+00 -1.3752986948184158e+00
    4.1346589114009529e+00 -1.2394771493935326e+00
    3.9194805539351774e+00 -1.1855000678549510e+00
    3.6191892203963318e+00 -1.1922555636246932e+00
    3.4444968951646326e+00 -1.2550408503549897e+00
    3.5943469321182651e+00 -1.2748405544784565e+00
    3.9942883942298484e+00 -1.2085857249063801e+00
    4.1520879587430484e+00 -1.1908438253258684e+00
    4.4020290109131341e+00 -1.2583549834617056e+00
    4.5048300952509654e+00 -1.3535521992644295e+00
    4.7364596057145283e+00 -1.5778674221168412e+00
    4.8347582904351905e+00 -1.8704261599068897e+00
    4.9306394441089934e+00 -2.1656851265780315e+00
    4.9421385679731964e+00 -2.3451643201288657e+00
    4.9805025755919248e+00 -2.5262020426046026e+00
    5.1077000578496365e+00 -2.7332048119670556e+00
    5.1777470769602898e+00 -2.8403791415944633e+00
    5.2029255105923333e+00 -2.9074799870655417e+00
    5.1888194125558886e+00 -2.9513252128244112e+00
    5.1985812539686238e+00 -3.0165438665155007e+00
    5.2123187265621693e+00 -3.0902541536206982e+00
    5.2743984092297129e+00 -3.1987335982346532e+00
    5.3289024496889690e+00 -3.3044325843572135e+00
    5.4633200336665322e+00 -3.4524511839544774e+00
    5.5108632791086549e+00 -3.5232637595098497e+00
    5.5295888970803944e+00 -3.5813056071418283e+00
    5.4703968155871641e+00 -3.5680363826751362e+00
    5.4898710520422860e+00 -3.5937503259937973e+00
    5.5339501318911113e+00 -3.6256259012698582e+00
    5.5650694903007860e+00 -3.6477727713870611e+00
    5.4958250339088579e+00 -3.5966215912367447e+00
    5.3938942727747996e+00 -3.5062058248130770e+00
    5.3504212818385719e+00 -3.4596549371597582e+00
    5.3312154773469258e+00 -3.4257168257327413e+00
    5.1976531271761308e+00 -3.2897192934569097e+00
    5.1252300852358825e+00 -3.1924925030563762e+00
    4.9799705089172885e+00 -3.0365553508446625e+00
    4.7677627246237932e+00 -2.8244963574372877e+00
    4.7220274314800044e+00 -2.7359475321830606e+00
    4.7196155094634937e+00 -2.6763133330361537e+00
    4.7346550963570220e+00 -2.6485232990078429e+00
    4.8537264987172737e+00 -2.6814548347075795e+00
    4.9800612907030315e+00 -2.7415197770167494e+00
    5.1067586992933034e+00 -2.7952747354837655e+00
    5.2192382426918762e+00 -2.8268532450042598e+00
    5.2706783198454428e+00 -2.7634815642848842e+00
    5.2280253629781077e+00 -2.5950502909856499e+00
    5.1002138308906106e+00 -2.3173133959016274e+00
    4.8320503593192941e+00 -1.9475353930956980e+00
    4.5906589573071468e+00 -1.6133085937654918e+00
    4.5485071745949144e+00 -1.4369141021147001e+00
    4.1641742822038692e+00 -1.2773963484854252e+00
    3.8715576634150097e+00 -1.1935843624427096e+00
    3.6018444628125197e+00 -1.2003561933544915e+00
    3.4478833397792981e+00 -1.2641496744169836e+00
    3.5096285367540974e+00 -1.2727225095775891e+00
    3.9097492416620425e+00 -1.2110310647914677e+00
    4.1729379313566648e+00 -1.2186430077240049e+00
    4.3738602576827246e+00 -1.2836022434550771e+00
    4.5198292585512414e+00 -1.4151939084408010e+00
    4.7246175774101662e+00 -1.6645259974071800e+00
    4.8811228763852146e+00 -1.9715207913550223e+00
    4.9203183168371654e+00 -2.2102736820195141e+00
    4.9496520394349766e+00 -2.3773830926211050e+00
    5.0270702279686867e+00 -2.5617370611421464e+00
    5.1657407536957924e+00 -2.6925817528637026e+00
    5.2000076961200108e+00 -2.7247847552684701e+00
    5.1373721370561576e+00 -2.6972773383604962e+00
    4.9557037791551108e+00 -2.6088010633427650e+00
    4.8258785139082656e+00 -2.5663151944070588e+00
    4.7903139260704490e+00 -2.6097458375713254e+00
    4.8130269638809189e+00 -2.6981022510703720e+00
    4.8811383916045044e+00 -2.8236491537758215e+00
    5.0252299738231647e+00 -2.9916055146174396e+00
    5.2420516598100955e+00 -3.1998241309323201e+00
    5.3118777833560857e+00 -3.3212686664905600e+00
    5.3226508937045480e+00 -3.3866481749694199e+00
    5.3544187519305915e+00 -3.4478566929859324e+00
    5.4348719490077695e+00 -3.5189460996332951e+00
    5.4545076934339995e+00 -3.5478003752106471e+00
    5.3951003276167668e+00 -3.5037348322597257e+00
    5.3066610765723263e+00 -3.4083379191835927e+00
    5.2385216968792179e+00 -3.3271744686556115e+00
    5.2302363101258482e+00 -3.2694707634624636e+00
    4.9944337306566711e+00 -3.0318148069894288e+00
    4.8054490445229918e+00 -2.8344661365336052e+00
    4.5998148725868591e+00 -2.6169026592684306e+00
    4.5073094801970655e+00 -2.4834069167186685e+00
    4.4542316690810626e+00 -2.3801971966771451e+00
    4.4826385025450959e+00 -2.3480488747341526e+00
    4.5800066577161367e+00 -2.3660244047985493e+00
    4.6986983683090218e+00 -2.4097915273450461e+00
    4.8039843511748828e+00 -2.4709656948966741e+00
    4.9257795899092356e+00 -2.5512306030091141e+00
    5.0653976678806067e+00 -2.6462456719432335e+00
    5.1495954849553467e+00 -2.6502128493440007e+00
    5.1981455562909193e+00 -2.5764106036080356e+00
    5.1692096500739479e+00 -2.4050952981369207e+00
    4.9755699518775547e+00 -2.0740655317079764e+00
    4.5968941092171560e+00 -1.7016069951196358e+00
    4.4930340668659294e+00 -1.4897395371130648e+00
    4.2058325980542373e+00 -1.3362120929262167e+00
    3.9117245580634195e+00 -1.2369287907777395e+00
    3.5870176531127567e+00 -1.2113882047779709e+00
    3.4542966380409434e+00 -1.2693790356040546e+00
    3.4765700471405063e+00 -1.2947433747027299e+00
    3.8382375479310897e+00 -1.2301217079522078e+00
    4.1678520263618566e+00 -1.2265573392626998e+00
    4.3074294493262633e+00 -1.3040779752046494e+00
    4.4777902512368266e+00 -1.4698267734605255e+00
    4.6973081117220623e+00 -1.7420829879035777e+00
    4.8857548081321491e+00 -2.0342399036276388e+00
    4.9073205779466127e+00 -2.2324203614026690e+00
    5.0662032117468128e+00 -2.4602179780817290e+00
    5.1314038828830117e+00 -2.5380235289029733e+00
    5.2105357964233097e+00 -2.5785099129279745e+00
    5.1585902963000638e+00 -2.5372425637958820e+00
    5.0319013184157324e+00 -2.4468854762855439e+00
    4.8483791860392715e+00 -2.3381425642742282e+00
    4.8040349481042091e+00 -2.3020586106455840e+00
    4.7818069113707438e+00 -2.3056257878615134e+00
    4.8210429928527656e+00 -2.3753065055180325e+00
    4.8563886205033073e+00 -2.4638770275602164e+00
    4.8957481622536596e+00 -2.5856077983454462e+00
    5.0974184524852291e+00 -2.8258950187192386e+00
    5.2493201980178927e+00 -3.0588800648913037e+00
    5.2856898855072805e+00 -3.1979127964934495e+00
    5.3839085751531144e+00 -3.3485956659048273e+00
    5.4832767191296998e+00 -3.4722301468546366e+00
    5.5145525280702792e+00 -3.5226914539799723e+00
    5.4332765806883661e+00 -3.4584409416646547e+00
    5.3230569304810222e+00 -3.3316228805246029e+00
    5.2294305561704251e+00 -3.1977539598348090e+00
    5.1260040716582278e+00 -3.0267835292862593e+00
    4.9291160627668518e+00 -2.7825805168077946e+00
    4.8772309642315719e+00 -2.6283732963973181e+00
    4.8424289281074833e+00 -2.4789147326477607e+00
    4.7972416866840950e+00 -2.3509689888266729e+00
    4.7183618481162855e+00 -2.2461613215348244e+00
    4.6723997775768060e+00 -2.1957561933790064e+00
    4.6866144366295197e+00 -2.2006858837864831e+00
    4.7268370638893646e+00 -2.2407578634283363e+00
    4.7438642806516178e+00 -2.2694091891483010e+00
    4.7778342869127757e+00 -2.3168190880468722e+00
    4.8260318926116357e+00 -2.3817853418082557e+00
    4.9982865611096701e+00 -2.4998973007035494e+00
    5.1612195934472940e+00 -2.5485446106638117e+00
    5.1119698399237636e+00 -2.3966742894303672e+00
    5.0100278148057571e+00 -2.1556470754734676e+00
    4.6303452898697044e+00 -1.7866223041018265e+00
    4.5008529906294230e+00 -1.5632569190946579e+00
    4.2301585478923300e+00 -1.3900004622007014e+00
    3.9062760528161009e+00 -1.2716790830779667e+00
    3.5979454058165925e+00 -1.2358037457158717e+00
    3.4498453273881764e+00 -1.2868223593392609e+00
    3.4154232855376621e+00 -1.3073445282798803e+00
    3.7639484661288489e+00 -1.2482154585409548e+00
    4.1615153191290970e+00 -1.2544026772792585e+00
    4.2886908864836579e+00 -1.3398039883257657e+00
    4.4890433030032115e+00 -1.5486442568380623e+00
    4.7227792560766391e+00 -1.8177426441527760e+00
    4.9567375955189359e+00 -2.1040236148644600e+00
    5.0618663009511966e+00 -2.3265026611823409e+00
    5.1713244401776217e+00 -2.4676612153638926e+00
    5.1821190613024886e+00 -2.4928364961420715e+00
    5.1766577663837623e+00 -2.4661906812319039e+00
    5.1509725633921013e+00 -2.4197696602864358e+00
    5.0660122433108130e+00 -2.3388145703641539e+00
    4.9618213442952648e+00 -2.2538637216955801e+00
    4.9623884241930520e+00 -2.1998747002215997e+00
    5.1104909426759519e+00 -2.2252274600310402e+00
    5.1223757146371751e+00 -2.2162747187331080e+00
    5.1975556323558827e+00 -2.3030813359142570e+00
    5.2564744087737987e+00 -2.4447911724120881e+00
    5.2918795831843131e+00 -2.6032567376051903e+00
    5.3961758850802548e+00 -2.8464121985143622e+00
    5.3981949943800593e+00 -3.0317983136045501e+00
    5.4818664295556925e+00 -3.2304546602683519e+00
    5.5556546699066667e+00 -3.3959604483315133e+00
    5.5773882931576582e+00 -3.4626838487352911e+00
    5.5035429695608000e+00 -3.4106710377357579e+00
    5.3317084770799887e+00 -3.2256014780596667e+00
    5.2470618092649612e+00 -3.0540215422271477e+00
    5.2532569024520885e+00 -2.9076097462376707e+00
    5.2129447318314099e+00 -2.6987651792491896e+00
    5.2255387655977517e+00 -2.5349663007282959e+00
    5.2123035520534469e+00 -2.3983411123363414e+00
    5.1050652004779913e+00 -2.2398781949989757e+00
    5.0836056718996430e+00 -2.1978937345179772e+00
    4.9613351813578452e+00 -2.1756754900091075e+00
    4.9324266603053344e+00 -2.2154295119404592e+00
    4.9185618872425909e+00 -2.2803504067833424e+00
    4.9444351741824297e+00 -2.3266510974866215e+00
    5.0420665221208028e+00 -2.3970006539576607e+00
    5.0441811680980955e+00 -2.4272790975495231e+00
    5.1112701142458343e+00 -2.4832044260297899e+00
    5.2301709011612791e+00 -2.5635088861112378e+00
    5.1339368086938304e+00 -2.4534341561005992e+00
    5.0440670221183712e+00 -2.2291277791832456e+00
    4.6471408544199653e+00 -1.8813528435599778e+00
    4.4918105211328152e+00 -1.6401255205370298e+00
    4.2844027580968813e+00 -1.4451820913378937e+00
    3.8379117014233164e+00 -1.2944097394891660e+00
    3.5729719046135120e+00 -1.2496035637383718e+00
    3.4560750007431871e+00 -1.3231532876376162e+00
    3.4108695984412249e+00 -1.3558225804292883e+00
    3.7259395237762538e+00 -1.2780002717355941e+00
    4.1464421347728697e+00 -1.3009637884840699e+00
    4.2828973149579639e+00 -1.3902267614186501e+00
    4.5244789682573217e+00 -1.6305413267690743e+00
    4.7399022990879294e+00 -1.8865649653728729e+00
    4.9921028328095289e+00 -2.1792718990775399e+00
    5.0925210998392405e+00 -2.3670732835431263e+00
    5.1185751448093351e+00 -2.4332993630149571e+00
    5.1429523128489008e+00 -2.4493944349592787e+00
    5.1737005763733901e+00 -2.4158057937181443e+00
    5.1969703831219123e+00 -2.4254022824893595e+00
    5.1379349997496035e+00 -2.3942342982709590e+00
    5.1462269186553984e+00 -2.3681589961908323e+00
    5.1615410469902372e+00 -2.3225638446358925e+00
    5.1528558260326287e+00 -2.2757985161182401e+00
    5.2969446144731780e+00 -2.2649451863618291e+00
    5.4718724615551286e+00 -2.3395861972943575e+00
    5.6424013022880537e+00 -2.4617778366852998e+00
    5.6209434560260743e+00 -2.5692513173387925e+00
    5.5441140062202532e+00 -2.6950057907491014e+00
    5.4695277391768888e+00 -2.8417346738132205e+00
    5.4914399935659342e+00 -3.0524567087638905e+00
    5.6013847316663137e+00 -3.2905069502298110e+00
    5.6489191108891648e+00 -3.4058241267978273e+00
    5.5305709454161587e+00 -3.3383629252125258e+00
    5.3519021044770723e+00 -3.1359541884114122e+00
    5.3484853193938253e+00 -2.9826748285115285e+00
    5.4710328212270127e+00 -2.8600421913343532e+00
    5.4842995060738238e+00 -2.6743593408404247e+00
    5.5203783356355096e+00 -2.5168612768544993e+00
    5.3968714503429158e+00 -2.3448076291163145e+00
    5.2450381034001001e+00 -2.2524695555360630e+00
    5.0447927251886941e+00 -2.1931425008516165e+00
    5.0551407354233557e+00 -2.2467293362998522e+00
    5.1435807836707488e+00 -2.3317715271613966e+00
    5.1982225346811477e+00 -2.3941021329367680e+00
    5.3366049908635329e+00 -2.4992315633851461e+00
    5.4188269646552474e+00 -2.5607782640735799e+00
    5.3382975102834083e+00 -2.5493314661319273e+00
    5.1650123402922601e+00 -2.4527039737015102e+00
    5.1855350244754934e+00 -2.4858390307066358e+00
    5.1606479144073418e+00 -2.4708692806484680e+00
    5.1040109408265799e+00 -2.3327490481925239e+00
    4.7253208094957921e+00 -1.9918774258092669e+00
    4.5266899316215712e+00 -1.7382386275722799e+00
    4.3600010027285725e+00 -1.5304941563660428e+00
    3.8615361244886177e+00 -1.3473081450494861e+00
    3.6218613390799046e+00 -1.2944324586491778e+00
    3.4527968490871896e+00 -1.3458543096239459e+00
    3.4001850955274606e+00 -1.4138987798218019e+00
    3.7227422737571909e+00 -1.3342835282474537e+00
    4.1596145328706173e+00 -1.3496117010156599e+00
    4.3743516878083559e+00 -1.4690508340724613e+00
    4.5210000947437576e+00 -1.6988414548481838e+00
    4.8433630483598495e+00 -1.9939086339331831e+00
    4.9486752148556974e+00 -2.2092923278447150e+00
    5.2464122311754107e+00 -2.4586506145979561e+00
    5.2146448876555036e+00 -2.4796437431374194e+00
    5.1930586986844078e+00 -2.4569215073850548e+00
    5.2926747180168734e+00 -2.4841322025574453e+00
    5.4632766717499273e+00 -2.5672653800359053e+00
    5.3594493067291253e+00 -2.5120086322339232e+00
    5.2178037108607773e+00 -2.4228329237006418e+00
    5.0528024166049983e+00 -2.3123204508704647e+00
    5.0232190901928124e+00 -2.2349231302679899e+00
    5.1488767789376801e+00 -2.2286283618815927e+00
    5.3162202334863196e+00 -2.2702090625860265e+00
    5.4788521693453163e+00 -2.3960879604016045e+00
    5.6901747668428877e+00 -2.5819327746217584e+00
    5.7309452454527818e+00 -2.7011140499063044e+00
    5.6840590027146876e+00 -2.8281899923466507e+00
    5.4698701292102543e+00 -2.9221357648379866e+00
    5.5361103597937387e+00 -3.1605493980838140e+00
    5.5368866829968013e+00 -3.2868978215611868e+00
    5.4317547712808549e+00 -3.2329144561814882e+00
    5.2999649468059600e+00 -3.0433212773835079e+00
    5.2922503639201217e+00 -2.8497494515706734e+00
    5.4630046771045500e+00 -2.7360147733740892e+00
    5.5237127430955129e+00 -2.5907455930884504e+00
    5.4592143203648984e+00 -2.4538430577532391e+00
    5.2723429484311950e+00 -2.3198613183735146e+00
    5.2406218846433790e+00 -2.2727053583650774e+00
    5.2124250689842739e+00 -2.2652692209960774e+00
    5.1880073730258793e+00 -2.2874482063272983e+00
    5.1763228349022032e+00 -2.3525631982077426e+00
    5.1765326235445244e+00 -2.3767510032359009e+00
    5.2307451541157040e+00 -2.4196001496689035e+00
    5.5535572418259953e+00 -2.6188635627662240e+00
    5.5861906429886696e+00 -2.6948366081586772e+00
    5.4977696160820084e+00 -2.6782427769734802e+00
    5.1951397172661791e+00 -2.5069358264291099e+00
    5.1162224164199532e+00 -2.4544493183558620e+00
    5.0815443956304289e+00 -2.3560585698997993e+00
    4.8072643193276603e+00 -2.0744125282155825e+00
    4.5267707003539668e+00 -1.7869089397255304e+00
    4.4234626619661777e+00 -1.6256535989362451e+00
    3.8833651000207268e+00 -1.4059662408775053e+00
    3.6743571949712166e+00 -1.3620167077809509e+00
    3.4308433357369830e+00 -1.3767728943220960e+00
    3.4753630446598263e+00 -1.4707703243537691e+00
    3.7201304274114455e+00 -1.3889235869746952e+00
    4.1701300231004170e+00 -1.4273628358579911e+00
    4.4774178728152707e+00 -1.5688811319406657e+00
    4.6318910128134245e+00 -1.7995943839304005e+00
    4.8670890036298342e+00 -2.0616351129261394e+00
    4.9935883124710605e+00 -2.2489978176911571e+00
    5.2201953848495473e+00 -2.4697603253025719e+00
    5.2041334005868505e+00 -2.4676183131812675e+00
    5.3672159011102964e+00 -2.5181931467557401e+00
    5.5767223726553858e+00 -2.6147271120634610e+00
    5.6730243248192807e+00 -2.5974572600247425e+00
    5.5716947456674442e+00 -2.5228097375798044e+00
    5.4984494724824078e+00 -2.4334085946864219e+00
    5.2780478831598492e+00 -2.2294190449414346e+00
    5.3696514314875836e+00 -2.2183607547270281e+00
    5.4277270440315180e+00 -2.2321397147930178e+00
    5.4041784929011127e+00 -2.2776500197533549e+00
    5.4346161008659388e+00 -2.3391138599091512e+00
    5.5478978503135981e+00 -2.4805555982939982e+00
    5.5922498833028316e+00 -2.5653739834092346e+00
    5.6256446715162678e+00 -2.6935053166796856e+00
    5.4641709211607550e+00 -2.8310238846672435e+00
    5.6008175245614797e+00 -3.1863878540863024e+00
    5.5389534729397454e+00 -3.3130287542408259e+00
    5.3579632915942739e+00 -3.1935356386330547e+00
    5.3487954072843991e+00 -3.0563010184311903e+00
    5.2809242028723391e+00 -2.7946456732354417e+00
    5.3321636468414599e+00 -2.6230738541427208e+00
    5.4008227259026995e+00 -2.5125483619226023e+00
    5.3165405007931961e+00 -2.3803195220484117e+00
    5.5102771406573945e+00 -2.3974040536806096e+00
    5.5094667571968667e+00 -2.3346084689338822e+00
    5.4954401685281749e+00 -2.2396199296121697e+00
    5.3473943357951574e+00 -2.1503262969386303e+00
    5.1444131419674459e+00 -2.1173271994593863e+00
    5.3456044001122400e+00 -2.2815284982387602e+00
    5.2546093696258502e+00 -2.3150021946466075e+00
    5.4091095950545709e+00 -2.4839247906575359e+00
    5.4992391982091320e+00 -2.6474396596030054e+00
    5.2860284920552676e+00 -2.6004543125775275e+00
    5.3187961352507243e+00 -2.6295628217800417e+00
    5.0678190319186438e+00 -2.4653705160182389e+00
    4.9306781691153692e+00 -2.3249230683662212e+00
    4.7210909187370751e+00 -2.0838176919832563e+00
    4.5709759298011061e+00 -1.8497958912410646e+00
    4.4299733076506200e+00 -1.7083540899252716e+00
    3.9054195903243429e+00 -1.4779053332847691e+00
    3.6899560984036697e+00 -1.4209101334777825e+00
    3.4110624929515496e+00 -1.4072991699872539e+00
    3.5889652470824376e+00 -1.5245176611104891e+00
    3.7633265798112507e+00 -1.4563531400936716e+00
    4.1015433042023659e+00 -1.4795958202129085e+00
    4.4542106660922807e+00 -1.6489186128175262e+00
    4.7427331746940249e+00 -1.9216194672749871e+00
    4.8022842546744782e+00 -2.1022713564224382e+00
    4.9401372373771277e+00 -2.2665094034480928e+00
    5.0919132292263445e+00 -2.4281584917585604e+00
    5.2197379649511948e+00 -2.4933125941257734e+00
    5.4263864303249125e+00 -2.5297415129621696e+00
    5.5942862121233592e+00 -2.5221902815151136e+00
    5.6711265948227174e+00 -2.4435986940850660e+00
    5.6528832732550862e+00 -2.3119047372551131e+00
    5.4954584600695062e+00 -2.1608445387254447e+00
    5.6772474254080008e+00 -2.0074858904013078e+00
    5.7371155972344354e+00 -1.9149267409503530e+00
    5.6728850893484868e+00 -1.9659320582479596e+00
    5.4847815967775588e+00 -2.1547554355104355e+00
    5.4842053360265961e+00 -2.3336726723318186e+00
    5.5347052455843011e+00 -2.4050110329445387e+00
    5.5702425752924967e+00 -2.5223922463568744e+00
    5.7102618334813933e+00 -2.6814403443469632e+00
    5.3278613168576907e+00 -2.7031540872283433e+00
    5.3786037543513778e+00 -3.0523182041126673e+00
    5.3754107877875033e+00 -3.2391455834230110e+00
    5.3220119925182150e+00 -3.2120903333431579e+00
    5.2189455786839902e+00 -2.9794809395593558e+00
    5.1379996098831588e+00 -2.6732508248974329e+00
    5.2844839207242593e+00 -2.5663699269630009e+00
    5.3958005254918371e+00 -2.4809910000751834e+00
    5.5945078029765822e+00 -2.4453019183286591e+00
    5.7136237795475475e+00 -2.3918183378524547e+00
    5.4034765315073798e+00 -2.1121023888430801e+00
    5.4496182326031049e+00 -1.9063292432967511e+00
    5.5299819639195187e+00 -1.8415003776860772e+00
    5.2739904702476670e+00 -1.8111042577247931e+00
    5.1686896553067632e+00 -1.9558088043855040e+00
    5.4649935359315913e+00 -2.1634671410918265e+00
    5.3162932601792239e+00 -2.2863536907425384e+00
    5.2373507822269110e+00 -2.3953461208580942e+00
    5.2367694249519641e+00 -2.5352239125634273e+00
    5.2643645838082200e+00 -2.6407654280291846e+00
    5.1007055390150331e+00 -2.5382999600551566e+00
    4.9464155695823155e+00 -2.3923841283674956e+00
    4.7494773269071375e+00 -2.1316875256950070e+00
    4.5967178915681171e+00 -1.9267720359939824e+00
    4.3606676319705198e+00 -1.7475870576222288e+00
    3.9923705980866289e+00 -1.5633990002906057e+00
    3.7793056953407929e+00 -1.4814835747469932e+00
    3.4692316219874577e+00 -1.4587069554769292e+00
    3.7310366580293159e+00 -1.6064655434392994e+00
    3.8281148355990569e+00 -1.5252521317223924e+00
    4.0762133657036763e+00 -1.5398443632131116e+00
    4.4699696265234268e+00 -1.7283369848021637e+00
    4.7694857696724178e+00 -2.0039172091848134e+00
    4.7921517140689449e+00 -2.1520799737539513e+00
    4.8192483424870396e+00 -2.2400523831160930e+00
    4.9881364647713200e+00 -2.4195132311784371e+00
    5.2173589921055337e+00 -2.5424649320383010e+00
    5.3426327184469882e+00 -2.5319851823918413e+00
    5.4399343068898878e+00 -2.4475212432580813e+00
    5.6606254333376791e+00 -2.3586550483881155e+00
    5.5700667417388541e+00 -2.2431491725885779e+00
    5.4014180720595917e+00 -2.0673819155046029e+00
    5.9126719893657373e+00 -1.9139001363116086e+00
    6.1237139519277077e+00 -1.8670665205333719e+00
    5.9972414011433273e+00 -1.9819369797779343e+00
    5.4389693354967967e+00 -2.0949584389401701e+00
    5.6133982202189250e+00 -2.3382508128689778e+00
    5.5551911575223993e+00 -2.4165461930122798e+00
    5.5775654183785219e+00 -2.5060788363399591e+00
    5.6117582492748017e+00 -2.6251889560684485e+00
    5.3759787752868000e+00 -2.7017740968500932e+00
    5.3635191934303030e+00 -3.0550064656740417e+00
    5.5141674355725767e+00 -3.4125819016355448e+00
    5.3394588850064730e+00 -3.2954085211972046e+00
    5.1226578687020954e+00 -2.9555636709793078e+00
    5.1295067393757376e+00 -2.6883583082301818e+00
    5.3715786790169533e+00 -2.6558895129048450e+00
    5.5877811660310819e+00 -2.6431895968716601e+00
    5.8606574648112160e+00 -2.5760291231590333e+00
    6.0893688122799547e+00 -2.5322293633116160e+00
    5.7316486878490505e+00 -2.2911775909474152e+00
    5.5616509160505538e+00 -1.9575030957819570e+00
    5.4347828297992420e+00 -1.8314239409871156e+00
    5.2619335718221301e+00 -1.8760496794714006e+00
    5.4455999653595502e+00 -2.1009542677593069e+00
    5.5799649505191065e+00 -2.1792443480748158e+00
    5.5522747709813807e+00 -2.2717949124443710e+00
    5.3244819402822277e+00 -2.3820394183091049e+00
    5.1851240631387876e+00 -2.4720861365511970e+00
    5.0403488588257170e+00 -2.4950144465950697e+00
    5.0948399185716644e+00 -2.5615815837051010e+00
    4.9258499465915708e+00 -2.4466152852939271e+00
    4.7801966499515904e+00 -2.1950521363880071e+00
    4.6130193895501792e+00 -1.9757493866833196e+00
    4.3287416410192510e+00 -1.8186747475779821e+00
    4.0142931789916032e+00 -1.6420458106488018e+00
    3.7725139721559575e+00 -1.5436879854709231e+00
    3.4925736758614998e+00 -1.4904959735094869e+00
    3.7703589339888026e+00 -1.6747944491394937e+00
    3.8733705902948041e+00 -1.5895759609384372e+00
    4.1461077460206246e+00 -1.6309871048698310e+00
    4.4756816674393844e+00 -1.8000451364952790e+00
    4.7373844014526041e+00 -2.0241150525663874e+00
    4.8396148105293806e+00 -2.2244223729917483e+00
    4.8808491290091913e+00 -2.3359227096961090e+00
    5.0004651217951723e+00 -2.4917208153941273e+00
    5.0332807122946335e+00 -2.5174719684992111e+00
    5.1037748634833253e+00 -2.4840351886852372e+00
    5.2211590139167301e+00 -2.3858406721097962e+00
    5.3081391054182321e+00 -2.2993931127687879e+00
    5.2538733813326246e+00 -2.2520374961107525e+00
    5.0248172568798957e+00 -2.1575353165578539e+00
    5.1108021686739322e+00 -2.0135599951487522e+00
    4.9719127825507154e+00 -1.8499958905798477e+00
    5.1644965849489024e+00 -1.9840451701806179e+00
    5.1054632791171279e+00 -2.2141643316508306e+00
    5.4951134846338627e+00 -2.4627171555865601e+00
    5.7209396213906558e+00 -2.5736217184889743e+00
    5.5645706218533739e+00 -2.6183818202184326e+00
    5.6152452577665128e+00 -2.7196614994298307e+00
    5.2148886579922733e+00 -2.6405923364851569e+00
    5.3590678903546927e+00 -3.0933482310859732e+00
    5.3750716539617356e+00 -3.3687336007592963e+00
    5.2631883074415864e+00 -3.3085924073166217e+00
    4.9658732068468892e+00 -2.8771606862342463e+00
    5.1277764807705379e+00 -2.7240600458967128e+00
    5.4313874899937975e+00 -2.7518563347917113e+00
    5.6274594778480429e+00 -2.7803846802713008e+00
    5.9365677618364963e+00 -2.7350937084732538e+00
    5.8468349768428682e+00 -2.6223621139456750e+00
    5.6258298668094877e+00 -2.4495372928403425e+00
    5.3507485343090018e+00 -2.0997932539882473e+00
    4.9643764468235574e+00 -1.9192880116359374e+00
    4.8264331994815688e+00 -1.9720329469238349e+00
    5.2052506655845479e+00 -2.2649926208792692e+00
    5.4797228293613163e+00 -2.4174068308818528e+00
    5.5095341552210693e+00 -2.4635608433043634e+00
    5.2515404754558270e+00 -2.4572820360080692e+00
    5.0870858102769656e+00 -2.5166881397738359e+00
    5.0481347886282872e+00 -2.5872643978512078e+00
    5.1169326901964602e+00 -2.6633189627040319e+00
    5.0138879534780250e+00 -2.5579004588013063e+00
    4.8442081124577925e+00 -2.3063483772420557e+00
    4.6212185665683219e+00 -2.0555345919805599e+00
    4.4501093243771068e+00 -1.9324400228730541e+00
    4.1350591030120221e+00 -1.7775735915442099e+00
    3.8640821605018414e+00 -1.6534265017413536e+00
    3.5725555520903911e+00 -1.5630669100731476e+00
    3.7715561388121057e+00 -1.7346504498256994e+00
    3.9497971644633032e+00 -1.6897064689269452e+00
    4.2802014698998363e+00 -1.7506925740177768e+00
    4.5125913146155510e+00 -1.8959172321339284e+00
    4.7730545958497492e+00 -2.1060680350011114e+00
    4.7851594872267471e+00 -2.2646937912393095e+00
    4.8449078514373287e+00 -2.3996614567811680e+00
    4.9826004144681759e+00 -2.5722143744230359e+00
    5.0963038666505307e+00 -2.7023625860936180e+00
    5.1947567320293278e+00 -2.6924832722145990e+00
    5.1419846768404058e+00 -2.5705123652202486e+00
    5.2820763458057769e+00 -2.5451695605174764e+00
    5.3054097382560057e+00 -2.5487154719722191e+00
    5.2469237662185266e+00 -2.5145138296626954e+00
    5.2457322230076642e+00 -2.5042221955068462e+00
    4.9686899038616001e+00 -2.2546283669466169e+00
    5.1378105468556985e+00 -2.3828844075181737e+00
    5.3880664589832419e+00 -2.6012717859909258e+00
    5.4351500874844225e+00 -2.6380563984400216e+00
    5.5275296316206539e+00 -2.7349025520150820e+00
    5.4584338484350079e+00 -2.7571698483474845e+00
    5.5552232865987508e+00 -2.8107683797717455e+00
    5.4358786765495157e+00 -2.8927324931405636e+00
    5.6274594216752822e+00 -3.3257911107896190e+00
    5.8263507442967546e+00 -3.7311579100941117e+00
    5.5361509635007025e+00 -3.5502463879723187e+00
    5.1607161338871919e+00 -3.0609946444823408e+00
    5.1572696813375272e+00 -2.7993645107826297e+00
    5.4228131572513059e+00 -2.8398981611137617e+00
    5.4981975506968608e+00 -2.8474686129802982e+00
    5.7040213996930280e+00 -2.8586886972873033e+00
    5.5949061716186321e+00 -2.7132664362691643e+00
    5.5854196051107081e+00 -2.6967914132803714e+00
    5.5401238428544826e+00 -2.6418151450723331e+00
    5.1927692598975774e+00 -2.4593953137253695e+00
    5.1781895859941311e+00 -2.4754001380087698e+00
    5.3540377179537435e+00 -2.6415253835638732e+00
    5.4106097301361151e+00 -2.7060433703962232e+00
    5.3677584824317615e+00 -2.7179218410880868e+00
    5.3091811477959592e+00 -2.7474432442534882e+00
    5.1584327866049753e+00 -2.7050003500516855e+00
    5.0214489172478673e+00 -2.7002506723361313e+00
    5.1466468777051988e+00 -2.7935984540370611e+00
    5.1693146722180812e+00 -2.7347655021210242e+00
    4.8860593326480650e+00 -2.4127441530636680e+00
    4.7065277047263816e+00 -2.1829257277289025e+00
    4.4587829432271580e+00 -1.9997432814126070e+00
    4.2385360409220612e+00 -1.8806278591004633e+00
    3.9798270114543537e+00 -1.7461159691878532e+00
    3.6081004561559888e+00 -1.6063990802504529e+00
    3.7608849938382911e+00 -1.7656684739378889e+00
    4.0146413100055733e+00 -1.7701561712780447e+00
    4.3318992653842487e+00 -1.8397894263772681e+00
    4.5050541635177810e+00 -1.9511871813293589e+00
    4.7825661100554226e+00 -2.1900945709849018e+00
    4.7611257905747317e+00 -2.3121365888291034e+00
    4.9178020247890757e+00 -2.5485116128488552e+00
    5.0507968678331530e+00 -2.7087770116513026e+00
    5.1889893560967213e+00 -2.8753181890336696e+00
    5.3468570876868542e+00 -2.9607987606740851e+00
    5.3572462169195347e+00 -2.9427724882329827e+00
    5.3137491438268265e+00 -2.8372819190017595e+00
    5.4387293485212185e+00 -2.8766711825875859e+00
    5.5156067419828805e+00 -2.9167788197954820e+00
    5.5197631048904485e+00 -2.8915425070151373e+00
    5.4911131138288303e+00 -2.8358329293740407e+00
    5.5291450300062319e+00 -2.8607161757379407e+00
    5.5380175571365031e+00 -2.8822513101130682e+00
    5.5054526910394248e+00 -2.9061104808821696e+00
    5.4552191477917020e+00 -2.9187755437792293e+00
    5.4989218385149412e+00 -2.9299148279489091e+00
    5.6532607468273932e+00 -3.0073578494390052e+00
    5.3559951330050284e+00 -2.9373151330836018e+00
    5.9944142391882602e+00 -3.6475386239482237e+00
    6.1354391578760232e+00 -3.9914949498943830e+00
    5.8542047561777171e+00 -3.8055907186284408e+00
    5.3268741260591774e+00 -3.2267322923679758e+00
    5.2112433931468667e+00 -2.9092086937171362e+00
    5.3334775441382929e+00 -2.8976915730158597e+00
    5.4537761007125516e+00 -2.9689257174600767e+00
    5.5087145074359487e+00 -2.9947182625091844e+00
    5.6736211248135717e+00 -3.0082459277097024e+00
    5.7264220948209372e+00 -2.9944545710339381e+00
    5.7332476366532017e+00 -3.0095536902297098e+00
    5.6075370756596463e+00 -2.9641048796228460e+00
    5.5180848915210454e+00 -2.9297413931837539e+00
    5.5277611135309179e+00 -2.9662437067721457e+00
    5.4613053607134834e+00 -2.9625906372721693e+00
    5.4693958666559945e+00 -3.0042199355330954e+00
    5.4857063158450448e+00 -3.0642417208710988e+00
    5.3584746337939686e+00 -3.0197275042851892e+00
    5.3104636203099576e+00 -3.0075465090501146e+00
    5.5283035818758099e+00 -3.1180539200798756e+00
    5.3192992348490300e+00 -2.8933505109923767e+00
    5.0270927677802693e+00 -2.5645648467066553e+00
    4.7489917019786034e+00 -2.2769102147280105e+00
    4.5264753151508632e+00 -2.0776987738414179e+00
    4.3136046860247195e+00 -1.9465905091547928e+00
    4.0103917711285471e+00 -1.7917289631436002e+00
    3.6609331438401540e+00 -1.6570568132883614e+00
    3.7430432038946670e+00 -1.7704651775188820e+00
    4.0134968313121968e+00 -1.7832575929248733e+00
    4.3077857346474531e+00 -1.9101161727129294e+00
    4.5530779973669055e+00 -2.0375213181876788e+00
    4.8243552941661791e+00 -2.2507422217420232e+00
    4.8869260979946327e+00 -2.4486228372182182e+00
    5.0056052955929253e+00 -2.6481569729882484e+00
    5.1750961095421326e+00 -2.8508191003334855e+00
    5.4603046069230086e+00 -3.1218998206908015e+00
    5.7443065224611161e+00 -3.3491334653942118e+00
    5.6232663255534012e+00 -3.2954450773860859e+00
    5.5713383083653287e+00 -3.2430048590121139e+00
    5.5245225652614751e+00 -3.1667899898438092e+00
    5.5326910740396045e+00 -3.1335625289252804e+00
    5.5593026583605507e+00 -3.1205246344045467e+00
    5.4794658187440559e+00 -3.0395826046198708e+00
    5.5043122558978066e+00 -3.0550259097380037e+00
    5.5459130173507374e+00 -3.1178684153060443e+00
    5.5791379117529187e+00 -3.1742944381649982e+00
    5.4677262299597196e+00 -3.0808241566271102e+00
    5.6297636291018058e+00 -3.1531206808409959e+00
    5.7583568071249838e+00 -3.2071108554163947e+00
    5.7182205408764499e+00 -3.2731403392038794e+00
    6.2141689577832553e+00 -3.8690936472763013e+00
    6.4884376137213700e+00 -4.2692365540374233e+00
    6.2149352201491759e+00 -4.0857074902101127e+00
    5.5909283605745328e+00 -3.4529395665555129e+00
    5.1479368858479946e+00 -2.9419002391592710e+00
    5.1921064975179805e+00 -2.8940504159262295e+00
    5.3475021557056612e+00 -3.0028667099223729e+00
    5.3707030742138633e+00 -3.0480660690448338e+00
    5.5397919777671731e+00 -3.1347990657072775e+00
    5.7434693539223103e+00 -3.2145774396018587e+00
    5.6532518790066497e+00 -3.1601854360130019e+00
    5.6180434840355833e+00 -3.1471213676130443e+00
    5.5516108162894868e+00 -3.1257767668607093e+00
    5.4992249487666935e+00 -3.1337249996750121e+00
    5.4650722289088938e+00 -3.1566554181538340e+00
    5.3657872633277117e+00 -3.1303703287949896e+00
    5.4532899237632266e+00 -3.2198030316751396e+00
    5.5826421593324627e+00 -3.3233623419192146e+00
    5.6800032397150373e+00 -3.3388124008745352e+00
    5.5981683946443628e+00 -3.2348995519107349e+00
    5.4516003689261865e+00 -3.0315645352088740e+00
    5.2104980377510879e+00 -2.7346976456678904e+00
    4.8400386808604603e+00 -2.4018384683544807e+00
    4.5736688334285098e+00 -2.1679513384953619e+00
    4.3299545331569522e+00 -2.0172868354839406e+00
    3.9609788605492589e+00 -1.8233647283880654e+00
    3.6653844896435381e+00 -1.7125662987203352e+00
    3.7817758903346981e+00 -1.8269213557205437e+00
    3.9826021642617144e+00 -1.7910411929105672e+00
    4.2985615119673701e+00 -1.9499903765934956e+00
    4.5580908969900937e+00 -2.0912939918575066e+00
    4.8733154821205229e+00 -2.3220966290732905e+00
    4.9508886271746677e+00 -2.5076254065106207e+00
    5.0540947126457265e+00 -2.7184591429146767e+00
    5.3550786058332172e+00 -3.0287369340118255e+00
    5.5957814390788743e+00 -3.2880191418128493e+00
    5.8980815454263196e+00 -3.5571495736073442e+00
    5.9197982408858243e+00 -3.6200782181485160e+00
    5.8192702406052108e+00 -3.5555939583559644e+00
    5.7514872916487318e+00 -3.4859228096046055e+00
    5.7311214541701538e+00 -3.4501986949045262e+00
    5.7310519181050124e+00 -3.4238128434226129e+00
    5.7835771308907677e+00 -3.4477150150429114e+00
    5.8496241154338176e+00 -3.5016239270556553e+00
    5.8301232776938932e+00 -3.5044390106674546e+00
    5.7232106346450093e+00 -3.4191283499359364e+00
    5.6912396582735987e+00 -3.3495050342088688e+00
    5.6985261598929009e+00 -3.2657963382359885e+00
    5.7545511018952489e+00 -3.2988132371738170e+00
    6.0613077936596982e+00 -3.5882003747176316e+00
    6.5477553923469776e+00 -4.1566468500943463e+00
    6.6421168066488940e+00 -4.4020306106333376e+00
    6.3433287562787850e+00 -4.2101153325813563e+00
    5.9603919993764203e+00 -3.7654542151794645e+00
    5.4904138955992616e+00 -3.2409335842554787e+00
    5.1965610057796958e+00 -2.9296766746781686e+00
    5.3050528036240001e+00 -3.0298586017541416e+00
    5.2965108423420082e+00 -3.0767925123022888e+00
    5.3985437790736430e+00 -3.2018255888539611e+00
    5.5837022581327096e+00 -3.3301694629256238e+00
    5.6575807401592870e+00 -3.3693550753648092e+00
    5.6476368537123927e+00 -3.3671648520391786e+00
    5.6363192436102416e+00 -3.3653560210842075e+00
    5.6370679067701914e+00 -3.3967354527055624e+00
    5.6204733943545673e+00 -3.4207261532267634e+00
    5.6396241622474266e+00 -3.4647053104735059e+00
    5.6971911913092228e+00 -3.5080918170268562e+00
    5.6823713974799643e+00 -3.4745603228427413e+00
    5.8515653563173817e+00 -3.5251448904181100e+00
    5.8212315460631494e+00 -3.4277660891892241e+00
    5.5457445696530652e+00 -3.1298028317345463e+00
    5.3047272222748445e+00 -2.8230919231710225e+00
    4.7823871669243090e+00 -2.4193253982581520e+00
    4.6059786395814744e+00 -2.2152895969062598e+00
    4.2310475827496283e+00 -2.0048778893743999e+00
    3.9739414374921607e+00 -1.8708893758127159e+00
    3.6439917173856284e+00 -1.7289528587955274e+00
    3.8371929663406772e+00 -1.9071591456099055e+00
    3.9907413792696049e+00 -1.8414221313589199e+00
    4.3090220857918444e+00 -1.9831468245932447e+00
    4.5948230557975114e+00 -2.1378485539432992e+00
    4.8513563235799086e+00 -2.3305885026132054e+00
    5.0090289256013705e+00 -2.5623290828288372e+00
    5.1660534166054690e+00 -2.8029449785773437e+00
    5.3434693571241993e+00 -3.0494198461782136e+00
    5.6641623732197424e+00 -3.3672537945621035e+00
    5.9864674273335350e+00 -3.6761547136628412e+00
    5.9970007079217407e+00 -3.7337070935157883e+00
    5.9176718295004358e+00 -3.7252900236589799e+00
    5.9088030474192363e+00 -3.7343909001636639e+00
    5.8603446056949409e+00 -3.6959359959973792e+00
    5.8105775334290612e+00 -3.6383407167214861e+00
    5.7960958366515385e+00 -3.6142862016118347e+00
    5.7933203712625261e+00 -3.6140534494102248e+00
    5.7442689323783656e+00 -3.5619172675081199e+00
    5.5794605836663553e+00 -3.4053826620962950e+00
    5.6911066569790618e+00 -3.3701098070926552e+00
    5.8048155514417292e+00 -3.3538936125621683e+00
    5.9180084463190372e+00 -3.4411416664596270e+00
    6.4005559518573216e+00 -3.8898906292113544e+00
    6.7010429080313720e+00 -4.3043000971954308e+00
    6.7179684679980891e+00 -4.4724697963036775e+00
    6.3385031393131808e+00 -4.2246674524031080e+00
    6.0049829750308765e+00 -3.8350291431338501e+00
    5.7095596325084861e+00 -3.4420572101832905e+00
    5.4607865310832642e+00 -3.1510422706434986e+00
    5.1697154503043103e+00 -2.9370431370463228e+00
    5.2269936250184985e+00 -3.0411396245414584e+00
    5.2938553589634729e+00 -3.1728153421907006e+00
    5.3758980979995306e+00 -3.2830703903282932e+00
    5.4745604143831876e+00 -3.3660507537281399e+00
    5.5607223470956058e+00 -3.4474643380420398e+00
    5.5888155154429002e+00 -3.4748361204358291e+00
    5.5606545170791311e+00 -3.4764976071370266e+00
    5.5920644005127045e+00 -3.5146104772018321e+00
    5.6084874579297983e+00 -3.5343583965963936e+00
    5.6626472660669496e+00 -3.5602732563831005e+00
    5.6556383673802983e+00 -3.5041968479511691e+00
    5.8472446821269184e+00 -3.5584074544805180e+00
    5.9177762087377523e+00 -3.5055270928072941e+00
    5.6538903816660691e+00 -3.2241349143808788e+00
    5.2316158602137968e+00 -2.8087574954039347e+00
    4.7748360898944702e+00 -2.4183176005195000e+00
    4.6249237165204278e+00 -2.2604760228368983e+00
    4.1572367833156694e+00 -1.9887734611311076e+00
    3.9034256283229811e+00 -1.8775582056968427e+00
    3.6339082808369976e+00 -1.7302760110065367e+00
    3.8519490772898126e+00 -1.9582609651305902e+00
    4.0478858510315519e+00 -1.8851758188382213e+00
    4.2753710286736286e+00 -1.9703003836725514e+00
    4.7418677301690737e+00 -2.2184572090045629e+00
    4.8491314725129699e+00 -2.3249223580190321e+00
    5.0034183357994975e+00 -2.5483906270826879e+00
    5.1917905044920936e+00 -2.8034104117476244e+00
    5.3070390087918584e+00 -3.0373204007526073e+00
    5.5570571662394528e+00 -3.3149965283345160e+00
    5.9137416875871001e+00 -3.6505241155239112e+00
    6.0642800116555611e+00 -3.8284716958833469e+00
    6.0414943469103752e+00 -3.8834274949474352e+00
    5.9805347345484146e+00 -3.8772320526259274e+00
    5.9386222682638072e+00 -3.8532161867203354e+00
    5.9054020886568166e+00 -3.8236876341371664e+00
    5.8636385496901964e+00 -3.7796318046853683e+00
    5.7406267158712501e+00 -3.6610876869151729e+00
    5.7076289337813684e+00 -3.5942937531607138e+00
    5.6170804982814007e+00 -3.4302802094302565e+00
    5.7700550213208794e+00 -3.3953105935513870e+00
    5.9623431240900446e+00 -3.4235833506027009e+00
    6.1884718951035662e+00 -3.6251655211054041e+00
    6.6062340429599349e+00 -4.0561700434677794e+00
    6.7286092194223519e+00 -4.3591222042632580e+00
    6.7500971687783196e+00 -4.5202333989722261e+00
    6.3198266036139232e+00 -4.2188465002925666e+00
    5.9697062393645126e+00 -3.8366823570263997e+00
    5.8119423498065128e+00 -3.5522854143793889e+00
    5.5626696609517481e+00 -3.2536205752279503e+00
    5.3117979998636979e+00 -3.0215788672087767e+00
    5.1227603000729065e+00 -2.9358278600621817e+00
    5.0165858100856884e+00 -2.9815592947107041e+00
    5.1522806864539756e+00 -3.1676740194198669e+00
    5.3442145397571164e+00 -3.3509298046863263e+00
    5.4612334595023899e+00 -3.4550550667170943e+00
    5.5308627163326687e+00 -3.5203985043587047e+00
    5.5413689106347670e+00 -3.5448365587222472e+00
    5.5347033557472249e+00 -3.5432757262076926e+00
    5.6070295299279591e+00 -3.5829738434369878e+00
    5.6032650527206682e+00 -3.5486945038546884e+00
    5.7717094903534409e+00 -3.6066242799352981e+00
    5.9364971376606634e+00 -3.6283285845713165e+00
    5.8758299590116643e+00 -3.4863344028300824e+00
    5.6569997956471854e+00 -3.2344404920325860e+00
    5.1590025916703484e+00 -2.7646593573780915e+00
    4.8045986478826102e+00 -2.4383606946532428e+00
    4.5782188546324392e+00 -2.2629022714046951e+00
    4.1568694579887335e+00 -2.0029883906608674e+00
    3.8380708453663583e+00 -1.8604569117315479e+00
    3.6107963985909053e+00 -1.7285557365324351e+00
    3.8142950382564007e+00 -1.9587336134885154e+00
    4.0295428865668965e+00 -1.9172093212891843e+00
    4.2464813354118967e+00 -1.9751034503008289e+00
    4.6638763188869525e+00 -2.1997900926181595e+00
    4.8381519364975656e+00 -2.3207006862239994e+00
    4.9975104359941378e+00 -2.5429407684211967e+00
    5.2809610535289755e+00 -2.8382844048888458e+00
    5.3589770207798493e+00 -3.0484932934190234e+00
    5.6162169346917210e+00 -3.3288279275013077e+00
    5.9823743438493668e+00 -3.6709772586062925e+00
    6.0342349086734890e+00 -3.8013558403423784e+00
    6.0092683731499248e+00 -3.8451896229703086e+00
    5.8936183911891966e+00 -3.8174123771591764e+00
    5.8980780592321826e+00 -3.8488530619315791e+00
    5.8324994257273639e+00 -3.8037131370616133e+00
    5.7368306806238598e+00 -3.7119847236038930e+00
    5.6226899587581762e+00 -3.5868426775910089e+00
    5.5774958353378778e+00 -3.4781334992769608e+00
    5.6251941018111289e+00 -3.3693795439269083e+00
    5.8492522508252476e+00 -3.3672167911777664e+00
    6.2007947357894420e+00 -3.5337806961731322e+00
    6.4384724679280794e+00 -3.7742963080456198e+00
    6.5335930815802357e+00 -4.0309967431994806e+00
    6.6257210634564503e+00 -4.2878025756596037e+00
    6.6248995144100409e+00 -4.4086060911773073e+00
    6.3357861699236731e+00 -4.2102059329220154e+00
    6.0409882848003829e+00 -3.8870071672819000e+00
    5.9295161201944895e+00 -3.6502960204551926e+00
    5.7653843637667119e+00 -3.3935560342063731e+00
    5.4655669971795460e+00 -3.1154872054132596e+00
    5.3907729505095361e+00 -3.0896568564398401e+00
    5.1342726838933377e+00 -3.0209718499508296e+00
    4.9638708875387625e+00 -3.0011401918629228e+00
    5.1372357976175032e+00 -3.1938458556471900e+00
    5.2904273893690101e+00 -3.3533780601118495e+00
    5.3900405311072097e+00 -3.4485731515802422e+00
    5.4525758866000267e+00 -3.5032302898285241e+00
    5.5214427643845951e+00 -3.5466834923138366e+00
    5.5747648562173344e+00 -3.5602741642397278e+00
    5.6373382372647187e+00 -3.5697070943545706e+00
    5.7609163956607210e+00 -3.5827498260627864e+00
    5.8777000001566266e+00 -3.5646143821726985e+00
    5.8135072122205385e+00 -3.4415897721455555e+00
    5.5801440742225257e+00 -3.1698971400549509e+00
    5.1563400928332026e+00 -2.7467891473890327e+00
    4.7143235059222173e+00 -2.3796110452478265e+00
    4.4822830386657353e+00 -2.2031212742693524e+00
    4.0869385361012149e+00 -1.9900747008076682e+00
    3.7832516328928238e+00 -1.8447530551611888e+00
    3.6055748239860406e+00 -1.7691479079471533e+00
    3.7588537195048004e+00 -1.9675196182394539e+00
    3.9979531054115465e+00 -1.9472039842147717e+00
    4.1856079583696966e+00 -1.9724036007726742e+00
    4.5729071172761415e+00 -2.1675245941489640e+00
    4.7961093708321609e+00 -2.3078371140822944e+00
    4.9393003084743867e+00 -2.4833084852620404e+00
    5.2474510924559974e+00 -2.7776856077101026e+00
    5.3041479612828093e+00 -2.9724259357861591e+00
    5.6072502962375639e+00 -3.2943553788324307e+00
    5.9161018673734249e+00 -3.6061751203315149e+00
    6.1081991128534225e+00 -3.8158369076254801e+00
    6.1380064101301119e+00 -3.9177791078660458e+00
    6.0292400809672859e+00 -3.8972026280498357e+00
    5.9607665870443372e+00 -3.8704099290642904e+00
    5.8486827958841694e+00 -3.7866264158434131e+00
    5.6582629551637211e+00 -3.6131117996346998e+00
    5.4826234277053372e+00 -3.4262952866432919e+00
    5.5241567488768872e+00 -3.3529010852899850e+00
    5.6806374498970458e+00 -3.3137257662673085e+00
    6.0405735407507617e+00 -3.4469840873207822e+00
    6.2931227136935810e+00 -3.6034830352599121e+00
    6.3630644388316231e+00 -3.7274406721337825e+00
    6.2743759883775390e+00 -3.8327638258086876e+00
    6.3477521468312510e+00 -4.0460026480871774e+00
    6.2503782753488757e+00 -4.0854841537738489e+00
    6.0490743431560130e+00 -3.9780606025062539e+00
    5.8691732677905391e+00 -3.7263751289166591e+00
    5.8470493996458783e+00 -3.5562728285128435e+00
    5.8349838501719535e+00 -3.4118082394815072e+00
    5.6777221574197698e+00 -3.2400902187990481e+00
    5.6414620876837542e+00 -3.1920879690055055e+00
    5.2855954192776231e+00 -3.0315015450498390e+00
    5.0392392388276290e+00 -2.9767091603040967e+00
    4.9913082301344796e+00 -3.0289137242621260e+00
    5.1191436540652688e+00 -3.1796564693726279e+00
    5.2502920967724886e+00 -3.3087061495215289e+00
    5.3662995804948377e+00 -3.4119538413596415e+00
    5.3979213644516619e+00 -3.4263989352416009e+00
    5.5464221485192500e+00 -3.5103042191024079e+00
    5.6049454327928858e+00 -3.5098240427803078e+00
    5.6912500277832114e+00 -3.4941325934678753e+00
    5.7801456390930284e+00 -3.4669251512558374e+00
    5.7929913954354708e+00 -3.3950767621609392e+00
    5.4575811463929167e+00 -3.0672681730623661e+00
    5.0134554016151824e+00 -2.6493572870573150e+00
    4.7128791441060613e+00 -2.3615509940410702e+00
    4.3262510398866718e+00 -2.1242537036594253e+00
    4.0044363427999254e+00 -1.9451270922032102e+00
    3.7557852207362354e+00 -1.8293100162724465e+00
    3.5697343162459405e+00 -1.7652533329116997e+00
    3.6891961105167446e+00 -1.9625369134837738e+00
    3.9399625133864062e+00 -1.9598788977403607e+00
    4.1517528418412093e+00 -1.9968849805567090e+00
    4.4053821647123428e+00 -2.1061543835046921e+00
    4.7736711463409529e+00 -2.2993715380056905e+00
    4.9414710584696113e+00 -2.4502571125660917e+00
    5.2219897895500047e+00 -2.7232511368799748e+00
    5.2997492174160650e+00 -2.9197154770248903e+00
    5.5597955405410611e+00 -3.2132848633670354e+00
    5.8481128037838701e+00 -3.5186126258251207e+00
    6.0821776469585327e+00 -3.7551977614129113e+00
    6.0523988278640495e+00 -3.8142764610700288e+00
    5.9622073928390211e+00 -3.8036855492303161e+00
    5.8207909770274702e+00 -3.7289352883358569e+00
    5.6088562140448754e+00 -3.5671409098421489e+00
    5.4184883471054155e+00 -3.3812334412234315e+00
    5.4020449017076917e+00 -3.2881744506663217e+00
    5.3712210312844899e+00 -3.1353921108271070e+00
    5.8203200487142039e+00 -3.3011496069558093e+00
    6.1341316027359287e+00 -3.4668881867617993e+00
    5.9581587179415889e+00 -3.3604136809691614e+00
    5.5674356377299841e+00 -3.1639574977539007e+00
    5.5109437751217643e+00 -3.2171120656221430e+00
    5.6324811142358469e+00 -3.4326460789547157e+00
    5.7117441103431670e+00 -3.5880240857635215e+00
    5.4699119527277773e+00 -3.4368162468792649e+00
    5.3155638648749335e+00 -3.2335489760199789e+00
    5.2670296924619020e+00 -3.0778248987355052e+00
    5.3277462679416461e+00 -3.0273600646136365e+00
    5.3648452725210332e+00 -3.0052845330582958e+00
    5.5403532866152707e+00 -3.0845798242046714e+00
    5.4283574574849087e+00 -3.0381336622680970e+00
    5.1140627541760662e+00 -2.9331206612281964e+00
    4.9812006929092565e+00 -2.9263258865992934e+00
    5.0324902920833656e+00 -3.0387958725168116e+00
    5.1300154334681203e+00 -3.1545746443002889e+00
    5.2499542822318590e+00 -3.2632447793777319e+00
    5.3115400994155175e+00 -3.3027458178317759e+00
    5.3829263253525141e+00 -3.3408709123547773e+00
    5.5061784696818501e+00 -3.3808246225278169e+00
    5.5884226787301445e+00 -3.3713567579728796e+00
    5.7137033918673872e+00 -3.3748729860938038e+00
    5.6459655935662143e+00 -3.2595183503701062e+00
    5.3504126382313526e+00 -2.9634593369380360e+00
    4.9451025979608874e+00 -2.5984610068418914e+00
    4.6125127157865586e+00 -2.2954896520566841e+00
    4.2046233099750223e+00 -2.0602444029181468e+00
    3.9012492725785131e+00 -1.8804342012694226e+00
    3.6655840736887098e+00 -1.7932218386931078e+00
    3.5331934366218682e+00 -1.7783462164612107e+00
    3.5861670377840422e+00 -1.9087074370412358e+00
    3.8973268596095760e+00 -1.9738843309667877e+00
    4.0959674749869519e+00 -1.9739957782219713e+00
    4.3158348458178502e+00 -2.0483400316549916e+00
    4.6290147295899340e+00 -2.2394019493795683e+00
    4.7697658388895690e+00 -2.3454518872412495e+00
    5.1215415894460827e+00 -2.6116442556452060e+00
    5.3007323078845188e+00 -2.8680226074185606e+00
    5.4336682943469139e+00 -3.0546092126890305e+00
    5.6979552673069076e+00 -3.3342227771678519e+00
    6.0051446751983306e+00 -3.6274992166713984e+00
    6.0241052914190156e+00 -3.7217662630751378e+00
    5.9013860520253383e+00 -3.6867240328631659e+00
    5.6568361505390641e+00 -3.5270413960756506e+00
    5.4182276923473678e+00 -3.3372517451551196e+00
    5.2986874037356353e+00 -3.1944354608466949e+00
    5.3250436524616260e+00 -3.1284011775374982e+00
    5.2839918614345196e+00 -2.9905050275864640e+00
    5.7352684884090257e+00 -3.1558601826982984e+00
    5.7612679884936089e+00 -3.1563457801721406e+00
    5.3371237707964161e+00 -2.8867159683709569e+00
    5.0586483496731276e+00 -2.6773814336318886e+00
    4.9937528743893402e+00 -2.6904504093029251e+00
    5.0293067269836014e+00 -2.8647868968804997e+00
    5.1312661281079919e+00 -3.0180971727608763e+00
    5.0170543055964867e+00 -2.9579830329247470e+00
    4.8208699811158180e+00 -2.7342156289283732e+00
    4.6317719200113556e+00 -2.4839179922664458e+00
    4.7250436651969245e+00 -2.5088921018656642e+00
    5.0271020596802565e+00 -2.6952749722029949e+00
    5.2526955594004709e+00 -2.8257338141706412e+00
    5.3305917741608262e+00 -2.8840252740469707e+00
    5.1617095766663859e+00 -2.8758468516395164e+00
    5.0418767383245058e+00 -2.8912845296496519e+00
    5.0759336734700353e+00 -2.9841664742356859e+00
    5.0776775517757180e+00 -3.0341340659623501e+00
    5.1934895640634036e+00 -3.1375049888849178e+00
    5.3396669948860547e+00 -3.2553446861506390e+00
    5.4089331791112807e+00 -3.2882492827527532e+00
    5.4256227893102729e+00 -3.2573222940833055e+00
    5.5306104915327019e+00 -3.2704607359046896e+00
    5.6284175392653770e+00 -3.2699236025106742e+00
    5.4294040104523820e+00 -3.0885562024751909e+00
    5.1356959521834389e+00 -2.7979087120980006e+00
    4.8511773786199335e+00 -2.5231141109328075e+00
    4.4780189563242763e+00 -2.2072006445771293e+00
    4.0615771950228465e+00 -1.9816343839388166e+00
    3.7643168043724722e+00 -1.8172975164195122e+00
    3.6479482255968474e+00 -1.7929785736821537e+00
    3.5444864489965497e+00 -1.8009851552419036e+00
    3.5870800679298709e+00 -1.9302165737290256e+00
    3.7802289140354732e+00 -1.9592680690771198e+00
    4.0331161709285830e+00 -1.9698918823532798e+00
    4.2756447046100892e+00 -2.0292039488888340e+00
    4.5240058819834141e+00 -2.1607872406505604e+00
    4.7362467705094184e+00 -2.3082188209554517e+00
    5.0580471832299727e+00 -2.5447540606821986e+00
    5.2258984721299235e+00 -2.7584698046469920e+00
    5.3817933997071155e+00 -2.9596579789951702e+00
    5.6091371565689476e+00 -3.1981309258708945e+00
    5.8132876508588227e+00 -3.4177440245915376e+00
    5.8937604535920842e+00 -3.5354098448898816e+00
    5.7421721812292112e+00 -3.4797821017793185e+00
    5.5269510642019704e+00 -3.3373687825961298e+00
    5.3455776663485395e+00 -3.1857694304452138e+00
    5.3174348921556156e+00 -3.1217159961564720e+00
    5.3705889008830834e+00 -3.0959095751146450e+00
    5.4579349219256788e+00 -3.0472393733767453e+00
    5.6079470944946017e+00 -3.0120111017419000e+00
    5.6063666425304843e+00 -2.9281318075639056e+00
    5.1935130053024245e+00 -2.5979129907535392e+00
    4.9253275307924334e+00 -2.3703692730393504e+00
    5.0008339906011754e+00 -2.4812729491468168e+00
    4.9875634868180443e+00 -2.6164022320261915e+00
    5.0225922121769084e+00 -2.7170988052375291e+00
    4.9687170657969224e+00 -2.6931639987027487e+00
    4.8621994102586656e+00 -2.5342945577725629e+00
    4.6456368517848823e+00 -2.3075032639707080e+00
    4.6697957362790312e+00 -2.2885119593280039e+00
    4.9777232436985903e+00 -2.4818186481049294e+00
    5.1401500037531074e+00 -2.6316181248291355e+00
    5.1839548986923658e+00 -2.7494360826108646e+00
    5.2642933013755950e+00 -2.9022240005003965e+00
    5.2211839784019958e+00 -2.9594585932982915e+00
    5.1583568606649344e+00 -2.9732706860572211e+00
    5.0629676440310964e+00 -2.9425796504940460e+00
    5.1302382390963608e+00 -3.0052593174630293e+00
    5.2965042877264299e+00 -3.1289054193101871e+00
    5.3788466669654023e+00 -3.1858165334867898e+00
    5.4456013607315601e+00 -3.1932041276734888e+00
    5.4757250775289945e+00 -3.1592689721164553e+00
    5.5480129494186086e+00 -3.1545932427650576e+00
    5.3376089387826564e+00 -2.9623481986501985e+00
    5.0484423817475319e+00 -2.7059913704775735e+00
    4.7018123434083918e+00 -2.4127393719996895e+00
    4.3479677537162864e+00 -2.1399135157684985e+00
    3.8807290298286814e+00 -1.8967437060498953e+00
    3.7275986055947272e+00 -1.7964654226866708e+00
    3.6028286257104356e+00 -1.7959544051313219e+00
    3.5099144494105006e+00 -1.8075190686904388e+00
    3.5524891177414299e+00 -1.9292086245905986e+00
    3.6465659076714951e+00 -1.9188014527986024e+00
    3.9260392975248961e+00 -1.9709998552572874e+00
    4.0962599477841382e+00 -1.9762550342853351e+00
    4.3384153540511123e+00 -2.0677817953714124e+00
    4.5490569510725161e+00 -2.2204548357843534e+00
    4.9107414966009486e+00 -2.4669044045025901e+00
    5.1712542881759740e+00 -2.6758447487156367e+00
    5.2884295965036880e+00 -2.8389558776816575e+00
    5.5321944741845339e+00 -3.0801168978499893e+00
    5.6973122368291129e+00 -3.2604357529189349e+00
    5.7813436304470214e+00 -3.3698969347914014e+00
    5.6150761352292911e+00 -3.2924198185151590e+00
    5.4587379184720977e+00 -3.1917328264020406e+00
    5.3982690653078329e+00 -3.1381536077346817e+00
    5.4472043814420132e+00 -3.1499342440938793e+00
    5.5444892633166489e+00 -3.1613506403762561e+00
    5.5546853598316552e+00 -3.1001393736496161e+00
    5.4275162069696101e+00 -2.8998211411923438e+00
    5.4617496168002182e+00 -2.8038002803088782e+00
    5.3861000100762384e+00 -2.6258544531511476e+00
    5.2068133922990683e+00 -2.4053886013981232e+00
    5.1176367197740067e+00 -2.3957289631347152e+00
    5.1127948910156036e+00 -2.5162605054619340e+00
    5.1207047390213001e+00 -2.5725262730250336e+00
    5.0727824080770620e+00 -2.5337316235306191e+00
    5.0423163822326416e+00 -2.4526019457306316e+00
    5.0716425858320058e+00 -2.3875296955215251e+00
    5.0208387161909505e+00 -2.3462315979872232e+00
    4.9941706377969419e+00 -2.4070877896942822e+00
    5.0907074209555132e+00 -2.5634526789915046e+00
    5.2114841613179683e+00 -2.7735443134795257e+00
    5.3235649936853493e+00 -2.9414007805641780e+00
    5.3548447252435531e+00 -3.0209125716387235e+00
    5.3445931172073866e+00 -3.0530553230711104e+00
    5.1935977391392099e+00 -2.9653083535254230e+00
    5.1872840880067530e+00 -2.9664724313631345e+00
    5.2644658797543906e+00 -3.0291382187050990e+00
    5.3225528447283903e+00 -3.0582030113362122e+00
    5.4526511600630823e+00 -3.1197171218374518e+00
    5.4892274127079421e+00 -3.0978278926371146e+00
    5.5026083424496592e+00 -3.0679127880975270e+00
    5.2485956576137323e+00 -2.8466743784984105e+00
    4.8663273546632935e+00 -2.5449044459649857e+00
    4.5847819849357974e+00 -2.3030932188632263e+00
    4.1298239686164591e+00 -2.0415088717896896e+00
    3.7444101987489899e+00 -1.8300627762485675e+00
    3.6303419960144390e+00 -1.7774414120690927e+00
    3.5498624145450792e+00 -1.7824527442484268e+00
    3.4639709171465882e+00 -1.8000309547773594e+00
    3.4810061516948920e+00 -1.8984397995849283e+00
    3.5819417163056677e+00 -1.9329056950112340e+00
    3.7498250800681747e+00 -1.9269194872593376e+00
    3.9652568680190066e+00 -1.9710372222925712e+00
    4.1267444889952074e+00 -1.9989651495834855e+00
    4.4217615362471143e+00 -2.1582567456060389e+00
    4.7748932316215598e+00 -2.3872066801181311e+00
    5.0378335012819058e+00 -2.5789453780510216e+00
    5.2541123291824103e+00 -2.7734378592121844e+00
    5.4902633975821811e+00 -2.9837412446767648e+00
    5.6555912907148516e+00 -3.1541814883246362e+00
    5.7257215539859070e+00 -3.2440411190950251e+00
    5.5307593278225937e+00 -3.1454184447380982e+00
    5.4428168625504618e+00 -3.0956389103790349e+00
    5.4909713640723599e+00 -3.1371459635200858e+00
    5.6099575911745472e+00 -3.2003715864558582e+00
    5.7011061050783756e+00 -3.2509778320195730e+00
    5.6634732430845549e+00 -3.1829022442920434e+00
    5.5233278912325341e+00 -3.0270996247705519e+00
    5.3931799919332191e+00 -2.8189564170965196e+00
    5.3610973368296779e+00 -2.6403107356643791e+00
    5.4099311711024560e+00 -2.5407210951850971e+00
    5.4624136763727513e+00 -2.5836515794498349e+00
    5.3801997138686817e+00 -2.6016472419635366e+00
    5.3107780015201378e+00 -2.5747147488246003e+00
    5.2822249582217982e+00 -2.5645899792435887e+00
    5.3039158595445093e+00 -2.5547024698886700e+00
    5.3001471845986936e+00 -2.5008108030342897e+00
    5.2931285306927149e+00 -2.5140746144775350e+00
    5.2171622225698924e+00 -2.5674000306974833e+00
    5.2317066868152180e+00 -2.7081025730466388e+00
    5.2966522782036982e+00 -2.8703040712806498e+00
    5.3775497433089505e+00 -3.0133282944481090e+00
    5.4537932989092468e+00 -3.0714067091141164e+00
    5.4750575341975907e+00 -3.0836966558211607e+00
    5.4292948197276152e+00 -3.0514487000297015e+00
    5.3081470808554148e+00 -2.9764207873936792e+00
    5.2732932137477055e+00 -2.9634674779273014e+00
    5.3606452738570018e+00 -3.0184096076097746e+00
    5.4441460717571886e+00 -3.0396972591412070e+00
    5.4993205486880514e+00 -3.0439607836891858e+00
    5.4427593782299262e+00 -2.9787215464754833e+00
    5.0392619562334566e+00 -2.6750834620555195e+00
    4.6529791933969840e+00 -2.3869453689255549e+00
    4.3632124831041237e+00 -2.1649657950979622e+00
    4.0106807866377636e+00 -1.9788100359876120e+00
    3.6698003248545317e+00 -1.7975512251100709e+00
    3.5680301284401104e+00 -1.7718936538900982e+00
    3.4580566267964370e+00 -1.7637257157086923e+00
    3.4464374692388087e+00 -1.8011677749542960e+00
    3.4582766589911555e+00 -1.8916573146825961e+00
    3.5347739566011809e+00 -1.9308605390370177e+00
    3.6425988705923302e+00 -1.9023769920544185e+00
    3.7903255684879662e+00 -1.9186567562097421e+00
    3.9863450567241703e+00 -1.9513994721396353e+00
    4.2934914803833779e+00 -2.1156309151047381e+00
    4.6791470825906254e+00 -2.3209888197601098e+00
    4.9281399323848500e+00 -2.5045273542622177e+00
    5.2689811012135186e+00 -2.7438212047163932e+00
    5.4811523763614938e+00 -2.9213917852761080e+00
    5.5986730514757657e+00 -3.0705645201268905e+00
    5.6356374142067898e+00 -3.1224096490895841e+00
    5.5928792555770865e+00 -3.1259549155230979e+00
    5.5383529688777378e+00 -3.1022415832520576e+00
    5.6143178445549529e+00 -3.1593897000003390e+00
    5.7365814807154321e+00 -3.2414591886609876e+00
    5.7680740598886846e+00 -3.2609940876742955e+00
    5.6365012021982031e+00 -3.1799697911129980e+00
    5.6379262204900256e+00 -3.1434386393627349e+00
    5.6693186096675054e+00 -3.0676133797868830e+00
    5.5375930134284914e+00 -2.8715302903425770e+00
    5.5214810724197481e+00 -2.7696635703465216e+00
    5.5142584622206208e+00 -2.7497231710874974e+00
    5.3886115400223629e+00 -2.6838174160429067e+00
    5.3056746296105768e+00 -2.6133964366213416e+00
    5.2444720222829329e+00 -2.6099941620403029e+00
    5.3932748428622492e+00 -2.7047334849935534e+00
    5.4939294594860710e+00 -2.7485827105604250e+00
    5.4282300540261730e+00 -2.7495548157166061e+00
    5.3403885983747212e+00 -2.7636694705850982e+00
    5.3051755647624956e+00 -2.8405534001768924e+00
    5.3433367317294449e+00 -2.9333665270400111e+00
    5.3721086016229238e+00 -2.9946912272740218e+00
    5.4184118751878589e+00 -3.0141206853502780e+00
    5.5261657149759777e+00 -3.0574705238444930e+00
    5.4960554406131745e+00 -3.0324427412163231e+00
    5.4342107373013500e+00 -3.0009740600244217e+00
    5.4084090912181786e+00 -2.9820640086324204e+00
    5.4375910125613602e+00 -3.0079178834844083e+00
    5.4822033089755289e+00 -3.0162947942463578e+00
    5.5569836728874620e+00 -3.0281431705941015e+00
    5.3032802272943416e+00 -2.8662016134974868e+00
    4.9106014186066842e+00 -2.5823776000947465e+00
    4.4723948721592999e+00 -2.2808797472155895e+00
    4.1383554421353548e+00 -2.0593989164329631e+00
    3.8605609576462392e+00 -1.9067950215542964e+00
    3.5439616813811439e+00 -1.7613157070896615e+00
    3.5005847461885580e+00 -1.7722418389291423e+00
    3.3874313463029089e+00 -1.7417183715728530e+00
    3.4005290436294402e+00 -1.7743909257960895e+00
    3.4601340595883694e+00 -1.9079323861489539e+00
    3.5429766880364073e+00 -1.9318804766795035e+00
    3.5465264700269068e+00 -1.8605064103586788e+00
    3.6606494980826918e+00 -1.8871946708797387e+00
    3.8691916292258726e+00 -1.9154486584678598e+00
    4.1185428873470791e+00 -2.0353997998290971e+00
    4.6317522968897560e+00 -2.2851709090080981e+00
    4.8358735700058046e+00 -2.4450633763734086e+00
    5.2464022208467611e+00 -2.6864685797151200e+00
    5.4401533573093115e+00 -2.8579659460948319e+00
    5.5378064000683196e+00 -2.9852369766912368e+00
    5.6669138488960247e+00 -3.0914659158918654e+00
    5.6811895731778330e+00 -3.1345086937909046e+00
    5.7084261897461230e+00 -3.1546200702569003e+00
    5.7876541177978478e+00 -3.1962418272920492e+00
    5.7087170945867589e+00 -3.1590450420542036e+00
    5.5970378377794567e+00 -3.0649241028521543e+00
    5.5512002569451786e+00 -3.0521037342430648e+00
    5.5061975929470952e+00 -3.0215869011818142e+00
    5.4460503083831338e+00 -2.9353833362468835e+00
    5.5513056706539654e+00 -2.9551145106056178e+00
    5.4450565128870947e+00 -2.8486528625229099e+00
    5.3171965167715376e+00 -2.7722137230231709e+00
    5.2165222494152186e+00 -2.7279681568926044e+00
    5.1441341364851407e+00 -2.6649150904255694e+00
    5.0967918978854296e+00 -2.6523233575750451e+00
    5.1646648771101136e+00 -2.7241447988389873e+00
    5.2039640236754039e+00 -2.7500314399935450e+00
    5.1354697809123522e+00 -2.7322043356081576e+00
    5.1414929750973020e+00 -2.7395447767617043e+00
    5.1187912871979657e+00 -2.7625959673727407e+00
    5.1081828323664933e+00 -2.7632544710990290e+00
    5.1586224122976763e+00 -2.7814991226394903e+00
    5.2910301434152061e+00 -2.8222629172087315e+00
    5.3708661429855917e+00 -2.8635362869480989e+00
    5.2869598854562705e+00 -2.8130288708532785e+00
    5.4184202051707722e+00 -2.9109951406434815e+00
    5.4941878639017032e+00 -3.0068674115362048e+00
    5.4875111922665241e+00 -3.0042381381839589e+00
    5.5731923763227504e+00 -3.0443409852248138e+00
    5.5767770803101548e+00 -3.0127335101427279e+00
    5.1882153821273356e+00 -2.7835188761195995e+00
    4.8081891951538340e+00 -2.5050380425782461e+00
    4.3372094210858165e+00 -2.1987905366063454e+00
    4.0784096915184191e+00 -2.0142183645284852e+00
    3.7355638280943104e+00 -1.8497253170153845e+00
    3.4888242436512740e+00 -1.7293022503857900e+00
    3.4324016088995535e+00 -1.7390539955461297e+00
    3.3510567482559162e+00 -1.7128105682302701e+00
    3.3448850604346356e+00 -1.7475662020909875e+00
    3.4223914215220752e+00 -1.8795008733443919e+00
    3.4552438909960048e+00 -1.9010170679807752e+00
    3.4828943183580536e+00 -1.8477877257779693e+00
    3.5722106781555665e+00 -1.8514535713755169e+00
    3.7563340391912501e+00 -1.8941658694574746e+00
    4.0143784336304318e+00 -1.9823643619619606e+00
    4.4558183108476861e+00 -2.2006104666945769e+00
    4.7930696178753402e+00 -2.4130247758627297e+00
    5.0971519176733242e+00 -2.5955461902237853e+00
    5.3267176664869629e+00 -2.7805444769481702e+00
    5.5118707634333921e+00 -2.9478197435358502e+00
    5.6158622763886425e+00 -3.0628090899788445e+00
    5.7184917773369621e+00 -3.1288033552197074e+00
    5.8009887156426725e+00 -3.1590245573684244e+00
    5.8338602940777999e+00 -3.1540474323823635e+00
    5.4413876082847228e+00 -2.8987906658418656e+00
    5.2958377024758798e+00 -2.7729453565183944e+00
    5.3685792816799918e+00 -2.7996199745228183e+00
    5.3949269002939602e+00 -2.8213419419360761e+00
    5.4482651599987282e+00 -2.8713059334446460e+00
    5.5547592564090333e+00 -2.9291851281474379e+00
    5.4677179299901750e+00 -2.8687554057955582e+00
    5.3297734997118615e+00 -2.7881879179650215e+00
    5.1783869420072737e+00 -2.7305643712273686e+00
    5.1713151682436802e+00 -2.7384980930065672e+00
    5.0373004141672260e+00 -2.6791797153816708e+00
    5.0190222516536700e+00 -2.6684487801116910e+00
    5.0639108929290986e+00 -2.6857678452811538e+00
    4.9723262490635403e+00 -2.6366937247424769e+00
    5.0233393259570489e+00 -2.6567452129715128e+00
    5.0148363353293961e+00 -2.6476377994759481e+00
    5.0604744979375162e+00 -2.6410568110600821e+00
    5.0780995692576223e+00 -2.6050291182846146e+00
    5.1482997486941864e+00 -2.6244756383352534e+00
    5.2395375868325038e+00 -2.6773839097785581e+00
    5.2689002707648678e+00 -2.7281120605144027e+00
    5.2966131865758159e+00 -2.7846879739018413e+00
    5.3964086097798756e+00 -2.9135879550154260e+00
    5.5378250593124232e+00 -3.0183395472903842e+00
    5.5653512949938158e+00 -3.0223100899927120e+00
    5.5077997386273747e+00 -2.9680328996628926e+00
    5.1098385965976725e+00 -2.6952262235085001e+00
    4.7539402201642327e+00 -2.4634582899842119e+00
    4.2433023558403660e+00 -2.1364326028483163e+00
    3.9926320783846068e+00 -1.9700771357748037e+00
    3.6237969832696058e+00 -1.7921437865839123e+00
    3.4172618680482887e+00 -1.7018323387512568e+00
    3.3596089261267146e+00 -1.7160235699774682e+00
    3.2957388665612113e+00 -1.6941940311879142e+00
    3.2957975597710600e+00 -1.7245238533146687e+00
    3.3981823874716390e+00 -1.8557596271741523e+00
    3.4126713664286359e+00 -1.8596032766291777e+00
    3.4535063610554144e+00 -1.8519903132267972e+00
    3.4979394564372264e+00 -1.8265761907951392e+00
    3.6071192757649144e+00 -1.8579916622996686e+00
    3.8686010954122070e+00 -1.9228807333185298e+00
    4.2578604694296835e+00 -2.0884098754754561e+00
    4.7031368789318408e+00 -2.3570746445456541e+00
    4.9639934734040203e+00 -2.5198249041119145e+00
    5.2517679608271841e+00 -2.7205238309009938e+00
    5.5259261788637817e+00 -2.9591469254289784e+00
    5.5452850308575838e+00 -3.0265476738924182e+00
    5.6677609823867448e+00 -3.0835422186043324e+00
    5.7652130861914106e+00 -3.1289419398331733e+00
    5.6259995576435955e+00 -3.0055438545926019e+00
    5.3874356829782748e+00 -2.7597695126398256e+00
    5.2046108567247895e+00 -2.5782693338939198e+00
    5.2794326655637347e+00 -2.5802219001202826e+00
    5.2527211965044911e+00 -2.5692798837151507e+00
    5.2740942848148604e+00 -2.6055686290718167e+00
    5.4331817507617677e+00 -2.6985233377520692e+00
    5.4437604697187680e+00 -2.7324762214196237e+00
    5.4674054702195685e+00 -2.7446588950285884e+00
    5.4213542758470608e+00 -2.7547941750682639e+00
    5.3771840758599954e+00 -2.7661815166913875e+00
    5.2872852749678936e+00 -2.7153019604247661e+00
    5.1642679371571152e+00 -2.6412952649695414e+00
    5.1292139552470601e+00 -2.6199774345374638e+00
    4.9821737706071847e+00 -2.5063666913945761e+00
    5.0146437257246808e+00 -2.5372521126360588e+00
    4.9534809729754050e+00 -2.4790531684430834e+00
    5.0040498261206041e+00 -2.4675577331954908e+00
    5.1106663287840783e+00 -2.4545735573474476e+00
    5.0633472129299921e+00 -2.4231188931631538e+00
    5.1085753873949571e+00 -2.5083132225792242e+00
    5.1578352720331457e+00 -2.6290402505317174e+00
    5.2057438708457262e+00 -2.7207612657570936e+00
    5.3758798538566124e+00 -2.8961719321044344e+00
    5.6131662855377655e+00 -3.0694825138708692e+00
    5.5751241532541957e+00 -3.0224918697696448e+00
    5.2805929363718862e+00 -2.8213227574440198e+00
    4.9818116039250784e+00 -2.6123829941074992e+00
    4.6030653359966651e+00 -2.3573064919516113e+00
    4.1248243324763161e+00 -2.0635676917765209e+00
    3.8361499764710110e+00 -1.8881805131847413e+00
    3.5752197869496185e+00 -1.7686849226353440e+00
    3.3843000503170613e+00 -1.6744301229019138e+00
    3.2939704751226317e+00 -1.6650840679792709e+00
    3.2720667887537922e+00 -1.6780300572266045e+00
    3.2913208223879646e+00 -1.7253963663838550e+00
    3.3341656859516533e+00 -1.8070541961343087e+00
    3.3605262730794112e+00 -1.8139553549660248e+00
    3.4116738170475007e+00 -1.8192654108924040e+00
    3.4585815017122443e+00 -1.8005590344595970e+00
    3.5366385443483153e+00 -1.8222465650600828e+00
    3.7299703720353117e+00 -1.8534923776474630e+00
    4.1817308653802545e+00 -2.0535324168640496e+00
    4.5950427527681503e+00 -2.2791386869820141e+00
    4.7293499729361992e+00 -2.3749673808997582e+00
    5.0857996162046355e+00 -2.6068605516083512e+00
    5.4395681046612063e+00 -2.8707075106400599e+00
    5.5654157615767739e+00 -3.0212258660520228e+00
    5.7266093951348651e+00 -3.1325867193430623e+00
    5.6604751821717763e+00 -3.0699023539554728e+00
    5.2639325370153029e+00 -2.7698502300130379e+00
    5.2138574553956190e+00 -2.6144558777205416e+00
    5.2379545058420289e+00 -2.4832036459617850e+00
    5.2230517598007138e+00 -2.3844547377902585e+00
    5.2215941210733510e+00 -2.3924150633577246e+00
    5.2202526880899081e+00 -2.4533651698879542e+00
    5.1529943303463224e+00 -2.4487735015816412e+00
    5.1542923111621004e+00 -2.4892978632289280e+00
    5.0594417241111147e+00 -2.4905115025249565e+00
    5.0839560533584223e+00 -2.5329590089440508e+00
    5.1783210487854410e+00 -2.6032566494582241e+00
    4.9980694513062236e+00 -2.5249890715774135e+00
    4.9536337126758010e+00 -2.4870992597107540e+00
    4.8922784876057381e+00 -2.4177126497546442e+00
    4.9118403654846983e+00 -2.3609150237277823e+00
    4.8796635242732975e+00 -2.3530893290241881e+00
    4.8430199330705612e+00 -2.2751029151444566e+00
    4.8952591776737435e+00 -2.2562564676492545e+00
    5.0002911375536598e+00 -2.2592712178571523e+00
    4.9952842417781804e+00 -2.3242442077751835e+00
    4.9922579964809177e+00 -2.4276796565017960e+00
    4.9575565003448503e+00 -2.4928431353442169e+00
    5.1155254397699279e+00 -2.6858806384308243e+00
    5.3451406827941961e+00 -2.8779992676717470e+00
    5.5159967618066341e+00 -3.0046198130947102e+00
    5.5216704357835011e+00 -2.9895466718776427e+00
    5.0652411796297638e+00 -2.6882924036274032e+00
    4.8727538437827373e+00 -2.5422456233290034e+00
    4.3846767523725045e+00 -2.2138477550919435e+00
    4.0863913273471697e+00 -2.0141099910623033e+00
    3.7316212364596377e+00 -1.8146459939427919e+00
    3.5008764639164673e+00 -1.7021356354094863e+00
